0.016273772,0.047157235,-0.014600284,-0.04671734,-0.02887021,-0.08528643,-0.003833403,-0.039079774,-0.1164718,-0.039595086,0.06529646,-0.043718796,0.056063183,0.00068420364,0.10864819,0.0009979552,-0.03825661,-0.039116263,-0.047899306,0.038898725,-0.07394451,-0.08353889,-0.06767816,0.0069385613,0.041609894,0.1047978,-0.023827631,0.07154719,0.018887408,0.03803449,0.008079415,0.056115337,0.04299936,0.104605645,-0.052062593,-0.02317358,-0.082627654,0.025946854,0.027516985,-0.043549586,-0.11414391,-0.007077977,-0.108221814,0.09439711,-0.031016026,-0.007921649,0.017557116,0.09563958,0.16899084,0.08570911,-0.037175715,0.057543553,-0.06094626,-0.032732844,-0.09220115,-0.0671607,-0.012038001,-0.09817238,-0.16481858,-0.1605918,-0.029655417,-0.106360674,-0.10088266,-0.10454106,-0.09726091,-0.11156646,-0.08186816,0.0757418,-0.03405924,-0.07341771,-0.10102767,0.035900272,-0.079292715,-0.030376261,0.09192601,-0.05635449,0.083918326,-0.04340369,-0.058039416,-0.12516728,-0.06485444,0.03309765,0.09131282,0.04245198,0.1417006,-0.038682874,0.049392037,0.006564177,-0.087227836,0.045039505,0.013837168,0.05952672,0.006382127,-0.10233131,0.039605804,-0.048201744,0.0030341325,-0.13224156,-0.00018862558,-0.004882605,0.0016206787,0.015263615,0.015375485,0.10177567,-0.088204056,-0.056362394,0.06820536,0.06367862,0.06022743,0.024994144,-0.011742493,-0.0006553135,-0.03996146,0.0145305665,0.054245334,-0.13369168,-0.052992158,0.110966325,0.07070204,0.021592706,0.03241519,0.13250902,0.032061107,0.09346757,-0.003019538,0.054316994,-0.02903744,0.04296983,0.053519826,0.010130334,-0.048546176,-0.03283139,-0.05430159,-0.055052087,-0.06446826,-0.042521987,0.015214624,-0.05156071,-0.084425524,0.009310378,0.038981296,-0.06416208,-0.010356437,0.043888293,0.18753573,0.08481772,-0.037346553,-0.17845362,-0.08000599,-0.026521064,-0.052312437,0.08415406,0.10704678,0.17048919,0.030836679,0.0064110314,0.12199983,0.08852863,-0.07748233,-0.10689514,0.10063579,0.07739667,0.024312494,-0.067366675,-0.048335418,-0.0128365625,-0.081625655,-0.08978026,-0.15219666,-0.083271705,-0.05267976,-0.09595294,-0.11792657,-0.0935737,0.018853955,-0.07710999,0.037669547,0.1036118,0.0065409336,-0.04903814,0.052003935,-0.01250178,0.13735293,0.054145563,-0.07228638,-0.0054661236,0.04662278,-0.0071175885,-0.07122025,-0.01875146,0.034604542,0.10846951,-0.06718193,0.06336369,0.06839047,0.02476475,-0.030013712,0.0070694517,-0.08880567,0.027853811,0.025127461,0.103108324,0.10719502,-0.021232346,0.012176856,0.06596573,-0.02033387,0.058666974,0.01710894,-0.033405703,-0.0749085,0.06190598,0.13621825,-0.076725006,-0.029698053,-0.072217844,0.06531274,0.095186315,-0.07011526,-0.08894784,-0.006221952,0.14620249,0.035963845,-0.08850805,-0.052285276,0.055604566,0.009674805,-0.043483287,0.07353019,0.019671518,-0.1680808,-0.086811915,-0.07746942,-0.06866024,-0.08801077,0.03037483,0.032344885,-0.02218358,-0.030479738,-0.006097795,0.0823812,0.0788126,0.014707937,0.070737645,0.008342544,-0.059009377,0.011807847,-0.13254793,-0.10669028,-0.027068159,0.01044048,0.08007624,0.02198775,0.047886677,-0.016238365,-0.1473352,-0.07773759,-0.047869455,-0.030333597,-0.010995105,-0.040906787,-0.08443951,-0.0220012,0.013320259,-8.628661e-05,0.117971785,0.022753613,0.041565962,0.008453341,-0.042928595,0.052035354,-0.052913625,-0.03086967,-0.15835065,-0.09815647,-0.03586464,0.04749598,-0.059354752,0.075866535,0.0010262599,-0.050918397,0.07445376,-0.04295475,0.0046420703,0.06895018,0.002284578,-0.1726363,-0.14132243,-0.09700326,-0.030626986,-0.020906277,-0.13177559,-0.00058124244,-0.014990601,0.05746132,-0.01955375,-0.06519128,0.06597665,0.10188395,0.122147284,0.025817452,0.09135907,-0.005956736,0.05229579,-0.054319765,-0.02037826,-0.044865914,-0.14721957,-0.058618963,0.05558244,-0.036552902,-0.05011254,-0.07754198,0.06751171,0.06373365,0.03569493,-0.031930763,0.08322081,0.12450162,0.13485256,-0.08417321,-0.0049890163,0.04922185,0.18725735,0.07998137,0.090754844,-0.10497645,-0.045440532,-0.07744624,0.083848074,-0.05827706,-0.024379756,-0.01914271,-0.052258037,0.048671003,-0.09491625,-0.029180696,-0.03720072,-0.18453978,-0.03750063,0.04728956,-0.10266243,-0.06869692,0.0049627847,-0.06567416,-0.0074562966,0.012088688,0.050607,0.11968334,-0.06359756,-0.013957633,-0.042195067,0.062117476,0.00542695,-0.08937957,-0.122471236,-0.040049005,0.07848307,0.041222002,-0.14075845,0.0043682237,-0.049183622,0.05674354,-0.1348982,-0.118623935,-0.078312054,-0.076588236,0.036556598,-0.02883728,-0.08897521,0.007059303,0.044056606,0.013399749,0.05386592,-0.054125857,-0.0076714098,-0.024751376,0.0067391163,0.039029345,-0.026956284,0.022834003,0.029330024,-0.01748929,-0.096391775,-0.006579074,0.037580185,0.01986381,-0.0899963,-0.033851456,0.026239967,0.14639927,0.14456613,0.012293616,-0.009757594,0.10159912,0.05599073,0.08729468,0.03660902,0.024092877,0.015570318,0.051536705,0.05930001,-0.09139667,-0.118795075,-0.09507008,0.047334917,0.051062264,0.08198487,-0.06431382,-0.19895557,-0.044851415,-0.012249315,0.05745202,-0.06630977,-0.12892511,-0.05111999,0.015236223,0.032777317,-0.08542208,-0.14144199,0.041332517,-0.024331044,0.007861399,-0.08297787,-0.043383636,-0.10166856,-0.031514313,-0.19541186,0.15449534,-0.06504994,0.09170556,0.012977697,-0.05949837,0.023830406,0.02972632,0.046383195,0.036330014,-0.06983655,0.055472914,0.09905721,0.07462256,0.083339535,0.053182762,-0.10603046,0.010187927,0.057440016,0.017166303,0.10333404,-0.23464356,0.060692966,-0.05784722,-0.07598846,-0.076887876,0.11637153,0.010154971,-0.05392544,0.016858364,0.051953256,0.06675881,0.004818568,0.005983676,-0.035646114,-0.12866761,-0.0011335758,0.03338566,-0.0237368,0.038135715,0.0225853,-0.089894764,-0.10206926,0.00086033356,-0.072901465,0.07070138,0.03102,0.027000932,0.040490866,0.071765386,0.091606446,0.041520666,-0.07331183,0.01277082,0.0046926457,-0.017460516,0.005158074,0.010998731,-0.0073514353,-0.15157318,0.011240381,0.011841502,0.040766925,0.021805163,-0.06251107,0.030809896,0.0508702,-0.029534617,-0.108924605,0.074995466,0.003002953,0.026028134,0.08973772,-0.10523084,0.019904772,-0.13968697,-0.029673563,0.007875254,0.011075515,0.06289048,-0.07049304,-0.1020115,-0.02441205,0.039979894,0.039107133,-0.017334908,-0.055948127,0.03466839,-0.007260904,-0.01084426,-0.0005820655,-0.05509318,-0.0061783027,-0.017993493,0.018078592,0.12048661,0.13396716,-0.045160055,-0.0062594004,-0.06190315,-0.024046982,0.060466528,-0.024654867,-0.044763546,-0.01134668,0.017378597,0.06545684,0.015999667,0.064860836,0.008601448,-0.105736524,0.012006363,-0.0015962272,0.032699578,-0.056544308,-0.012250811,-0.061600424,0.10480732,-0.027424466,-0.06754745,0.017147604,-0.08106439,0.08196743,0.023253819,0.03630621,0.03855799,-0.15449607,-0.026562668,0.10296313,-0.027824594,0.05097749,0.0483333,-0.004844521,-0.039436396,-0.0672248,0.030208312,-0.009109282,-0.0032145053,-0.066819064,-0.08234526,0.008848887,0.009538205,0.06395552,-0.07555083,0.11034643,0.15959853,0.14257585,-0.002378336,0.010091654,0.017950362,0.04206355,0.042887114,-0.16423151,-0.038486872,-0.1906143,0.056563925,-0.013102959,-0.0824282,-0.027159106,-0.04729668,0.003303236,0.05532176,-0.06296324,-0.06279936,0.009138025,-0.010881721,-0.1401173,0.09213262,0.00578768,-0.014949357,0.035783563,0.008455491,0.01242383,-0.06469562,0.043455716,-0.004279126,0.04703374,0.027570987,-0.07073,-0.01955226,-0.11683125,-0.031867966,0.11979693,0.08988115,-0.04971285,0.011398919,0.032024603,-0.018188654,0.01181954,-0.055801563,-0.11942003,-0.011627149,0.066828124,0.059346642,-0.101178214,-0.023641525,-0.032490052,0.17464885,0.0041261837,-0.09443037,0.03134846,0.027348872,0.085578494,0.023963518,0.098852955,0.013784033,0.044360325,-0.04432028,-0.047619138,0.04698775,0.09470903,-0.05697056,-0.14018679,-0.013467441,0.013132047,-0.01224414,-0.094403714,-0.05944263,0.0811421,0.037743665,0.028866336,-0.04394719,-0.11883954,-0.06382919,-0.03762188,-0.112533964,-0.014423661,0.009342188,-0.06281763,-0.11265105,-0.09696059,0.0344888,0.15051372,-0.09383637,-0.06506899,-0.04582224,0.038437054,0.012028275,0.017858038,0.035543643,0.16268651,0.08300351,0.033218794,0.108858936,0.018805584,0.018704476,-0.00016920522,-0.0028789986,-0.039454322,-0.09592353,-0.012928804,-0.12129987,-0.21287028,-0.039057173,-0.14963146,0.07931765,-0.039088927,-0.1469254,-0.12153891,-0.11950648,-0.018579822,0.006737728,-0.014108679,-0.04788214,-0.08241893,0.00065523305,0.012227338,-0.022083037,0.0139859775,0.06673853,0.036647577,0.059656966,0.0043165963,-0.1448627,-0.17585675,0.0157193,0.008271726,-0.10379101,-0.05441052,-0.08928234,-0.13948211,-0.020118209,-0.09166819,-0.013048689,0.049295343,-0.008080873,0.0042392532,0.0074873953,0.10434784,0.00788959,-0.07476931,-0.047229413,-0.103943616,0.014809394,0.027532523,-0.10160538,-0.12253792,0.13696054,0.017706824,0.0022776532,-0.028206347,0.014151217,0.013158449,-0.015157432,-0.018398246,-0.062028885,0.16061161,-0.07009574,-0.0006489813,0.06359592,-0.06472208,0.10959438,-0.030398209,-0.041665614,0.03690139,-0.18492235,-0.028340338,-0.02349915,0.052160244,0.0038074283,-0.11201563,-0.013154334,0.021104151,-0.026925813,0.09650837,0.13904993,0.121000186,0.12106915,0.0038916445,-0.07877177,-0.04195126,0.04140656,0.07222504,-0.09190471,-0.12399536,0.014954638,-0.03609235,0.0072268336,-0.034469746,0.030934224,-0.08003249,-0.09409379,-0.07068002,-0.11426078,-0.05130696,0.0005076895,-0.12293894,0.02071566,-0.1015218,-0.068859115,-0.03449338,0.05628362,0.113173015,-0.048235722,0.04540873,0.039281387,-0.0024786233,-0.045520447,0.11975436,0.07347449,-0.006864477,-0.13092765,-0.0279511,0.022948246,0.12120803,0.15840515,0.056882955,-0.021092057,0.10253533,-0.0011475172,0.038143452,-0.06144343,-0.147144,-0.03072412,-0.027085936,-0.022542665,0.007953166,0.04302246,-0.029115945,-0.08084365,0.02890322,-0.032127406,0.08566597,-0.049474135,-0.080298685,0.053367738,0.009456448,0.04399431,0.115352765,0.11226573,-0.08405781,-0.00016936508,-0.042199507,0.0116532175,0.022205193,-0.052611798,-0.052495457,-0.050379843,-0.059088074,0.050171383,0.1407812,0.050903767,0.020541254,0.049532786,0.095860176,0.0967773,-0.013266502,-0.17747706,0.103584185,0.049620207,0.030323304,-0.044613283,-0.011422953,0.01779213,-0.050969813,-0.09454309,-0.0020576413,-0.053163227,0.013866113,-0.078064576,-0.07148295,-0.013179529,-0.030550137,-0.05776796,-0.09562121,-0.052843977,-0.13686153,-0.095104665,-0.0851941,-0.04955877,-0.035026077,0.082449526,-0.033396956,0.1019918,-0.021718249,-0.043047726,-0.025315756,-0.086820014,-0.07992576,0.07964781,0.012903663,0.02936218,0.11384474,0.02221633,0.04616689,-0.0042832578,-0.041303113,0.007875532,-0.11558769,-0.105878815,0.0036641294,-0.007918207,0.03735642,-0.023294725,0.056980606,0.057399787,0.030842891,0.02149807,-0.027000645,0.023482768,-0.069748625,0.06607948,0.027390959,-0.023986358,-0.02117604,0.012847586,0.09340586,0.027279252,-0.09727962,-0.12475546,-0.004805136,0.06704493,0.0879218,0.096666835,0.14655147,-0.00078283856,0.015891828,0.053372543,0.076180235,0.03098997,-0.05395685,0.034186456,-0.066389315,0.0972302,-0.082008004,-0.034956824,0.023638494,-0.0155731775,-0.022906687,0.030219547,-0.02770642,0.057306733,-0.0023190773,-0.11357096,0.035003107,0.026024176,-0.059860505,-0.118827,-0.04738469,-0.023166677,-0.008903978,-0.054654155,-0.14491282,-0.07247969,-0.081258565,0.0030610592,0.051179603,0.08807277,-0.06936165,-0.06405693,0.018035438,0.063946806,0.07644865,-0.112812616,0.011101402,0.03288999,-0.022771122,-0.03599642,0.11806429,0.19219209,-0.02242494,-0.08569553,-0.0026757675,0.07734172,0.08853393,-0.05949487,0.09224985,-0.03584548,0.116925284,0.010528395,0.014699628,-0.028001163,-0.06271462,-0.019180259,0.023656705,0.068566926,0.042328414,-0.0064797644,-0.10887996,-0.078912474,0.05281499,-0.008076252,-0.0013864546,-0.016205056,-0.0033576977,0.081552796,-0.061707802,-0.07664254,0.1549739,-0.008952582,0.0067772823,-0.028042473,-0.03605951,0.0028282832,0.03871597,-0.045809254,-0.015966231,-0.021827634,0.07612555,0.046104606,0.04286836,0.07915152,0.11351647,-0.035230726,-0.07524728,-0.008890091,0.004462091,-0.005575142,-0.098158285,-0.06545298,0.042412642,-0.012835613,-0.029072607,0.016408741,0.054818228,0.08856823,-0.062486336,-0.04137847,0.015402071,-0.040934667,0.09554412,-0.073852986,0.017279156,0.05410878,-0.036357444,-0.06645597,-0.093805544,0.10638035,-0.032535847,-0.04387355,-0.09509078,-0.1002815,-0.055511635,0.063051306,-0.063812055,-0.07853516,0.09634049,0.04264715,-0.0043309694,-0.045928217,-0.107177906,-0.13285159,-0.10645597,-0.12437396,0.011109144,-0.055985145,-0.036601167,0.075311005,-0.11215733,-0.15639077,0.03715316,-0.041533057,0.07519078,0.09960299,-0.030944128,-0.02562049,-0.030255932,-0.035660032,0.07740488,-0.025432646,-0.049680434,0.0064531704,0.010580763,0.05235269,0.11005815,0.046578914,0.08333463,0.09499348,0.05825253,0.09420792,0.17973836,0.15097477,-0.056851584,0.020522969,0.04588185,0.006497598,-0.06964126,-0.041155692,0.029876288,0.053351276,0.06613812,0.012639352,0.016455902,0.03787072,-0.06370006,-0.015794419,-0.13017203,-0.12729475,0.18282013,0.030125247,-0.13381675,0.045024183,0.012780583,0.19039719,-0.027138159,-0.08735165,-0.14148079,-0.036697842,0.007718676,0.04332878,0.07375621,0.0054768766,-0.041579295,-0.011111228,-0.08709411,0.07403991,-0.041629855,-0.16196343,-0.03881848,-0.012674022,0.13048507,-0.012829083,0.026579173,0.09345785,-0.14286272,-0.20649059,-0.10635416,-0.08071236,0.0034722653,-0.008777683,0.020339984,0.019004563,0.09738477,0.004407175,-0.020972334,0.04253836,0.0075844424,-0.046766195,0.020867882,0.040594574,0.10348956,0.016312016,-0.018251646,0.015618906,0.0053718737,-0.0018285256,-0.046555888,-0.07981898,0.03896272,0.021687096,0.11722443,-0.15835088,0.022551589,-0.007219356,0.07481079,0.03442936,-0.24522035,-0.014470806,-0.07346432,0.083082095,0.027280217,-0.19734468,-0.12517115,0.011321914,0.032800682,-0.030192917,0.16018626,0.02340818,0.044049732,-0.034589928,-0.038724206,0.054932714,0.039372526,0.10108325,0.01196536,-0.015551142,-0.07433269,-0.11746511,0.088639274,-0.02428902,-0.014040138,-0.113449425,0.035805013,-0.06028484,0.04973904,0.02878907,0.08180362,0.064577796,0.037654888,-0.049055766,-0.0047236625,-0.04910053,-0.07297892,-0.051065296,-0.078393824,-0.04360612,0.023095721,-0.003882783,0.118348144,0.112209745,-0.039411053,-0.19594315,-0.12818459,-0.005450435,-0.117624216,-0.16996203,-0.060968492,0.03268049,0.0033563222,-0.06522306,-0.04345824,-0.04334008,-0.04512493,0.026160868,-0.01226268,-0.11743219,-0.022017742,0.059890207,0.004497862,-0.043210436,-0.04702274,0.049816348,0.062400263,-0.041452367,0.111876525,0.12742586,0.03674444,0.06309329,0.05049051,-0.09533556,0.013376226,-0.0062252143,0.08101286,-0.03764962,-0.028232638,-0.02389508,0.028762773,0.037687648,0.06414248,0.16862409,0.09698272,0.102318615,0.028955672,0.121680096,0.1118011,0.078713775,-0.05707472,-0.008351558,-0.06429954,0.04035365,0.08099369,-0.081183136,-0.016606126,-0.028498482,-0.02074898,0.042361103,-0.003495346,0.11161518,-0.047844406,-0.070231415,0.0011551979,0.007222684,-0.014134071,-0.014077484,0.12681414,0.059249558,-0.06434664,-0.0052731065,0.024089592,0.09096653,0.20914589,-0.117505684,0.068973236,0.035026904,0.059211873,0.104992956,-0.056485016,-0.06716068,-0.10176581,0.0014556301,0.03782834,0.0077757747,-0.05292294,-0.1211164,-0.035526413,0.0077050687,-0.09275015,-0.08070569,-0.03300806,0.003745207,-0.08486509,-0.07427355,-0.038870633,-0.10130709,0.045252346,0.03486724,0.030746248,-0.10207404,0.018766224,-0.00022326285,0.021431668,0.08419054,0.10593183,-0.060159504,-0.029839441,-0.035238005,0.033876438,0.030131184,-0.03379776,0.08856339,0.10438848,0.18937439,0.070184745,-0.09472313,0.096305706,0.04723249,0.0324247,0.076951556,-0.00019955524,0.046892393,0.0040099216,0.00043158588,-0.009783133,0.13831982,-0.0669228,0.001167067,-0.12617335,-0.08215406,0.045626864,-0.06992164,-0.013802452,-0.043429263,0.045046955,0.056259498,-0.04549465,0.0406754,-0.034264635,0.019701825,0.054455426,-0.056263488,0.04014321,-0.14193057,-0.03499282,-0.015826583,0.017343974,0.005352917,-0.02173552,0.16956574,0.09841614,0.037109483,0.015447264,0.07439286,-0.018420769,-0.0039359727,0.056811385,-0.061084997,-0.0228668,0.025050884,0.04143883,-0.031517595,-0.09876996,-0.06501758,0.028360952,-0.074038714,0.083800495,0.016895555,0.0019888957,-0.012039453,0.0155678205,-0.043783516,-0.02502034,0.010271388,-0.024433391,0.049894225,-0.008689374,0.013824713,-0.0230529,0.0040995893,-0.07752739,-0.015025386,0.011005698,0.012280117,0.031410728,-0.08282178,0.011986475,-0.016129917,-0.08327025,-0.036246102,0.07264946,-0.12433796,-0.0028823402,0.0037062743,0.06583454,-0.021899028,0.00015016113,0.05417138,0.0045305924,-0.030513015,-0.13562486,-0.043162555,0.028613029,0.012282911,0.090111285,0.054251328,-0.0637964,0.13286836,0.10286518,0.1698656,0.10660553,0.07180237,0.10167111,0.083537035,-0.099077635,0.08076107,0.15427259,0.05336,0.064139724,0.08638693,0.010125422,-0.14202383,-0.12705141,-0.0008882606,-0.14779396,-0.0031459013,0.082253315,0.028416509,-0.1237097,0.08933709,0.05640943,0.056297723,0.04751087,-0.061763104,0.1589855,-0.108080015,-0.025928514,0.051345285,0.097268075,0.047142465,-0.0451426,0.008875482,0.057047065,-0.012258467,0.07668555,-0.0747342,0.04220947,0.12337262,-0.054132733,0.15038955,0.039866753,0.1191851,-0.031836502,-0.013055529,0.033162277,0.10142148,0.032815434,0.09444542,0.040422518,0.08318069,0.14230187,0.0711992,0.047873363,-0.06174926,0.0085005555,0.041943833,0.18943503,0.059246425,0.08354712,0.017704858,0.0053083277,0.10008189,0.09455854,0.062361803,-0.02742388,-0.15038547,-0.06303,0.022697575,-0.032992937,-0.10565712,0.005838655,-0.010005502,-0.037525453,-0.14349066,-0.021154175,0.082564086,-0.06515721,-0.012630788,-0.05780681,0.0062481947,-0.10805586,-0.06277829,-0.017994259,-0.0089261485,-0.050486237,-0.10045037,0.00858997,0.025103703,-0.054002322,-0.010615857,-0.066287704,0.08023231,0.1058732,0.06479385,0.13396828,-0.035286997,0.05409675,0.030048296,0.08190095,0.040081166,0.012972079,0.07200016,0.1936492,0.06569586,-0.04030366,0.085565776,0.0061644185,0.13643278,-0.05914364,0.13020884,0.0021057497,-0.04783833,-0.011085771,-0.0103348885,-0.028297763,0.057272736,0.10483607,0.017669125,0.07306462,-0.009170003,0.09566345,0.1562694,-0.064535305,-0.0550064,-0.04887201,-0.025036806,0.025420655,-0.096886925,-0.16697672,-0.0064540827,-0.05058174,-0.10194538,-0.21265157,-0.073995456,0.002617995,-0.093595885,-0.0014098699,-0.05059204,-0.09835447,-0.02161135,-0.04015334,-0.05099241,-0.092949,0.005820186,-0.03007206,0.0151348235,0.020264374,0.08300959,0.15339486,0.074652165,0.08615009,0.014120869,0.080138005,0.023522487,0.06716099,-0.035690866,0.0047797468,-0.07959361,0.026440226,0.028181618,-0.003472044,-0.01833856,0.0037114003,0.08737186,0.0066783153,-0.049547404,-0.06927008,-0.044566028,-0.022827728,-0.028563542,-0.12786683,-0.0033127062,-0.068283424,-0.017688654,0.01192869,0.04613681,-0.0037046485,-0.043085612,-0.058982216,0.017264245,-0.0011429876,0.03293881,-0.098436214,-0.11042438,-0.14206703,-0.04705973,-0.09321449,-0.17936908,-0.028842628,-0.0024501947,-0.061020046,0.032694474,0.053372547,0.031595487,0.10263647,0.09298535,0.016068239,0.038405254,-0.003816381,-0.010006653,0.07402203,0.10031579,0.034843583,-0.0059951534,-0.006353381,0.019594183,0.16965686,0.09188252,0.04583096,-0.13335854,-0.06663965,0.04131189,-0.028846655,-0.06039063,-0.09615394,-0.0072013577,-0.13192697,-0.08210175,-0.0016073182,0.06360778,-0.027627591,-0.024940295,-0.078639954,-0.11979455,0.009190061,0.027073458,0.0040409015,-0.06164363,0.0025576334,0.07257749,-0.067694955,-0.04690026,-0.016261308,0.117460005,0.026771905,0.11004742,0.068742365,-0.02956724,-0.011455383,-0.009524447,-0.027202165,0.0395547,-0.08177691,0.06990346,-0.090534665,0.059878867,-0.025307354,-0.015115512,-0.010229132,5.9620084e-05,-0.09776957,0.090590164,-0.1574238,0.040306315,-0.093361504,0.0063068513,0.009383104,0.077797666,0.06486722,0.009561663,-0.053985905,-0.12516311,-0.06320448,-0.08299418,-0.017014189,0.06768102,-0.010839332,0.059124272,0.1635903,0.011711121,-0.044515394,-0.0077798557,0.0065905997,0.016665703,0.016755218,0.03089386,0.039224613,0.032728303,0.11285974,0.085447274,-0.022588355,0.044462986,0.016670605,-0.0075140703,-0.15894172,0.044979103,-0.06169271,0.00023968503,0.04533879,0.04847418,0.028395928,0.008523459,-0.15053952,-0.04245422,-0.04181134,0.0031264373,-0.07789368,-0.010408447,0.100069076,-0.05857215,-0.03536836,-0.021762338,0.014624746,-0.21195161,-0.060369596,0.00067950255,-0.095654316,-0.07820431,-0.05374829,-0.048089128,-0.0053681955,-0.04536044,-0.047047585,0.025870705,-0.034671124,-0.06888014,-0.13401015,0.042438082,0.09237097,-0.012728475,-0.0142643135,0.008693918,-0.06891447,-0.06477008,0.0312951,0.115021415,-0.00460529,0.042433668,-0.004116954,0.062266957,0.06389284,0.0146428915,-0.006878533,-0.02560528,0.042195775,-0.013570293,-0.13596046,-0.13043244,-0.056896456,-0.06537498,-0.06812089,-0.010616622,-0.039555803,0.063577585,0.0062309233,-0.0043919063,-0.088688165,0.058294702,0.05109607,-0.054454997,-0.13097247,-0.13570002,-0.03778528,0.0075219893,-0.13090248,-0.32928318,-0.04690899,0.013771277,0.040619925,0.07217241,0.08841315,0.028376518,0.1291161,0.07325204,0.059473705,-0.013959039,-0.020433538,0.13487941,-0.0027438651,-0.07856124,0.036669966,0.039832883,-0.013654104,-0.10941533,0.007147231,0.15613842,0.040918544,-0.073315896,0.059903923,0.118940406,-0.028431574,0.09887507,0.008592663,-0.09206273,-0.006294626,-0.052595872,-0.079455376,-0.045095567,0.043197926,0.09561172,0.035886947,-0.055861954,0.028506225,0.016517509,-0.09407133,0.054359216,0.008030383,0.026879612,-0.08275649,0.018390918,0.04955792,0.029164152,-0.13348477,0.014788294,-0.032318242,-0.053573873,0.020122848,0.031596992,-0.024169788,-0.07506151,-0.11747128,0.025590666,0.0014010372,0.047042966,0.004438829,-0.013129121,0.036933426,-0.016482944,0.04747624,0.05252578,-0.039699074,-0.011236911,-0.11844178,-0.06889191,0.021323534,-0.06548896,0.08008268,-0.1270621,0.033487942,0.10632514,-0.02404151,0.07378508,-0.15537551,0.01807522,-0.029880969,-0.104657754,-0.060855772,-0.01789243,-0.0336523,0.013638426,-0.034508802,-0.03641799,-0.048851825,0.0657363,-0.069382586,-0.09847818,-0.036772516,0.04460903,0.030569673,0.119532436,-0.007039713,-0.08132763,0.005444933,-0.021881001,-0.018047139,0.03254208,-0.040695123,0.035713274,0.02537042,0.11050093,0.094437,0.06715824,0.06834326,0.061908092,0.0756274,0.023382084,0.09898848,0.010997565,-0.010814458,-0.019906253,0.095576756,0.105730794,0.008616531,0.028007628,0.102094375,0.0023283046,0.029297773,0.029220685,0.122517206,-0.049576297,-0.09409839,-0.12550932,-0.044803448,-0.20868708,-0.035922926,0.04360075,-0.030480066,0.13066664,0.12646258,0.24246134,0.013468137,0.04074279,-0.009974133,-0.020142846,-0.080956206,-0.09075706,0.06926151,-0.06571924,-0.076219745,-0.029276954,-0.036411904,-0.089020796,-0.074860126,0.09031418,-0.07495821,0.011442785,0.05026668,0.008940287,-0.10159191,-0.15194717,-0.1393593,-0.052301206,-0.11558211,-0.14088291,-0.21033354,-0.023296855,-0.0018471733,0.019533928,-0.022784233,-0.0076089925,-0.101961374,-0.11661278,0.046906788,0.043961514,0.016246235,-0.0022321944,-0.07308541,0.02711572,0.06560671,-0.13140683,-0.1215662,-0.05048257,-0.06064529,-0.037270997,-0.058423437,-0.036498636,-0.03222688,-0.08958131,-0.08548985,-0.0936551,0.03775287,0.025689535,0.04520016,-0.020744486,-0.039239578,-0.013275375,-0.015996346,-0.030547673,0.004014151,0.05758774,-0.057163812,-0.060713895,0.094337635,0.029328447,0.039167725,0.008136625,-0.012224089,0.101624995,0.015342278,0.06475711,0.0646458,0.0060809692,-0.05318239,-0.15637343,-0.15978466,0.106032565,-0.026542677,-0.018383108,0.09138612,-0.0017735785,0.035706915,0.11182345,0.014110932,0.04495759,-0.0036593843,-0.023550319,0.022304805,-0.12708443,-0.11442891,0.070524804,0.025225598,0.08180221,-0.16239788,0.082696125,0.06592803,0.010370261,0.035088383,0.059537422,0.064565025,0.068471804,0.08864159,-0.04012957,0.034554143,0.0753584,0.047820855,-0.061032392,-0.068467356,0.048547458,-0.0017017922,-0.028208653,0.00049476075,-0.1028976,-0.10884966,-0.047945935,0.047476962,-0.010781306,0.031089427,0.010190669,0.051535852,-0.026590308,0.0030609302,0.028337916,-7.505458e-05,0.0604997,-0.07887272,0.041110635,0.0958878,0.10331125,0.044913597,-0.006201664,0.02571108,0.089892745,-0.0075990474,-0.050110247,-0.022913815,-0.02024754,0.014565939,-0.06434175,-0.1050319,0.013766826,0.07118445,0.10455083,-0.028005654,-0.03677434,0.07859983,0.11351166,0.10619064,0.09080951,-0.04427988,-0.024568373,-0.018066809,-0.00841074,-0.052031815,0.035472803,-0.08561696,-0.03232579,-0.02409691,-0.0043453677,0.06939168,-0.02010359,-0.004840823,-0.1480752,-0.028576665,0.15277989,0.0036962316,-0.054762956,-0.05358874,-0.00794113,0.11056107,-0.08205335,-0.04210802,0.044071425,-0.06532423,0.03322383,-0.0128163695,0.05389556,-0.01994556,0.019700378,-0.09925665,-0.054040827,-0.032207295,0.06660502,0.070753,0.05537626,0.017853133,-0.015489101,0.022646531,0.083975196,0.040343888,0.0077901236,-0.18342553,-0.12080917,-0.023571556,-0.030027285,0.021022111,0.0005150807,-0.030834945,-0.03207021,-0.06930016,-0.09134763,-0.018893788,0.09296878,0.08558192,-0.038860824,0.051260825,0.06834455,0.045194373,-0.013654602,0.031725638,0.08053864,0.016374039,0.030588837,0.12240746,0.038560197,0.07185992,0.013893252,0.15763001,0.113438874,0.040288113,0.090630144,0.14116871,-0.05480596,-0.036780786,0.077416785,0.07866818,-0.14379416,-0.104552135,-0.07629278,-0.060615692,-0.00022941052,-0.095240384,0.016195359,-0.019073803,0.021902349,-0.060855865,-0.07583242,-0.058398996,0.0894758,0.030991323,-0.08153034,-0.09061124,0.015745535,0.08124844,0.031185256,-0.044055913,-0.016963592,0.1258607,0.115306884,-0.12225763,0.021887442,-0.02142884,0.035843167,0.018521985,0.049558975,-0.029027458,-0.028318705,0.15575156,0.016066806,-0.011473525,-0.009074584,0.02889867,0.1186374,-0.061254602,-0.08330434,-0.10034713,0.050273057,-0.08397582,-0.10864376,-0.058381964,-0.027130574,0.1594226,-0.021194136,-0.101523615,0.008903073,-0.01731214,-0.029651932,0.029126853,0.0805163,-0.0013405835,0.0579483,-0.09192197,-0.03634945,0.11301689,0.11738341,-0.039687317,-0.01493462,0.015748128,0.14449398,0.08123413,0.050651472,0.05584109,-0.06959298,-0.10686713,-0.04816225,-0.048586734,0.07186096,-0.041437738,-0.011396863,-0.06513355,0.0120066125,0.16303669,0.111589365,-0.062010974,-0.07098313,-0.13883832,0.01608065,0.088126644,-0.0019873492,-0.06320868,-0.13800426,-0.096101925,0.016371958,0.052401002,0.034194503,0.03978728,0.022903843,-0.033956427,-0.020660581,-0.033465687,-0.03257314,-0.049725637,-0.026926462,0.041569598,0.043205105,0.015458726,-0.01686563,-0.014977731,-0.005013705,-0.10111274,0.102484,-0.064569175,-0.018666271,-0.061977793,-0.024722831,0.10786509,-0.028203746,-0.011039699,0.011760957,0.05650637,-0.028331663,-0.030017788,-0.044640854,0.03146299,0.08720869,-0.05160892,-0.14752638,0.056781933,0.065011166,0.122925155,0.044003725,0.07244872,0.0007499829,0.108720705,-0.04277145,0.07395417,-0.013465154,0.019111173,0.08095582,-0.0019934182,-0.024647377,0.055662613,-0.07295887,-0.09833365,-0.103182286,-0.118291244,0.11877191,0.120733075,-0.13429345,-0.16756138,-0.012160758,0.013834397,0.027649948,0.06854753,-0.023697387,-0.050084624,-0.09961206,-0.011197573,-0.040686127,-0.11838108,-0.0630275,-0.03616078,-0.062319275,0.033525247,0.026909376,0.04904957,0.007432732,-0.09073911,0.02019607,-0.13852523,-0.0049926285,-0.14548029,-0.05429378,0.06028634,0.038069956,-0.08466529,0.02180926,-0.06878687,-0.030213067,-0.1422398,-0.2012833,0.08083973,0.05771491,0.05678039,0.031858947,-0.050777365,-0.025261287,-0.12586878,0.0069640772,-0.122508585,-0.18521462,-0.048740096,0.040232066,0.05105405,-0.09710924,-0.06926618,-0.012518693,0.015293337,0.013799824,-0.025879161,0.015032795,-0.11318796,-0.05120583,0.033034913,0.041058928,0.028990788,0.012404718,0.0055132736,0.023600314,-0.05007233,-0.040977113,-0.0071903723,0.031308275,-0.0013950024,-0.029025907,-0.109146595,-0.098602206,0.030562166,-0.08002006,-0.04703869,0.022685993,-0.034158755,0.086407855,-0.109853625,-0.10883795,0.07980726,-0.12359945,-0.059523515,0.04658628,0.09818583,0.015150095,-0.08824478,0.02943155,-0.063916445,-0.036989275,0.19502275,0.025821866,-0.032338336,-0.08747166,-0.08857664,0.12646312,0.053653046,0.004270391,-0.039986435,-0.02326837,0.046239708,0.0125267375,0.022582447,0.012185803,0.13753515,0.06815679,-0.019233104,-0.0012789804,0.025279725,-0.0022218,0.08315593,0.024889119,0.13716538,0.041433003,-0.025466766,0.104127236,-0.072087996,0.05007538,0.025357535,-0.016683001,0.05629859,-0.06308004,-0.1343059,0.03187683,-0.00029525926,-0.1603482,-0.14186439,-0.02971565,-0.091803454,-0.06695428,-0.0415094,-0.055444933,-0.06552979,-0.048658147,0.0147042945,0.029185744,0.025246497,0.040917568,0.037934504,0.020526912,-0.025810108,-0.011069632,-0.043623395,-0.038561225,-0.04400838,-0.058439292,0.0006441874,0.024071677,-0.1051869,-0.06006292,-0.0018240818,0.047888152,0.028559923,-0.12342176,0.0028856,0.12073125,0.01397376,-0.008620185,0.06408413,0.04732134,-0.037052773,-0.050019424,-0.09113846,0.00327789,-0.012838325,0.07960556,0.00011629723,-0.06136933,-0.11441249,-0.04182243,0.04374764,0.060232785,-0.06304395,-0.09321237,-0.051358413,-0.11112704,0.004229517,-0.011380988,0.03405517,-0.037097868,-0.099202335,0.054416217,-0.050961204,-0.04160996,-0.17287365,-0.01837547,-0.010788191,0.045056924,0.008477508,-0.060388666,0.08228727,-0.09891324,-0.0961159,-0.14437634,-0.12063998,0.02621295,-0.08661711,0.094338104,-0.11110344,-0.009831021,0.03705817,0.037701454,0.10957868,-0.0773681,0.045540437,0.05092228,-0.027602622,-0.082961656,0.041125283,-0.02143623,-0.006800971,-0.0028856779,0.037421748,0.09843933,0.046901233,0.094068825,-0.096188985,0.014111255,-0.0863586,0.056648605,0.06945586,0.010607878,-0.0027468551,0.01544717,-0.08944366,0.018561339,0.07707287,0.07270865,0.005696673,-0.08453861,-0.012623629,0.0980819,0.09998935,-0.06494282,-0.0077495803,-0.030400397,-0.0014438807,-0.105320364,-0.08461608,0.0157842,0.075045645,0.042573746,-0.113025986,-0.041392855,0.039484017,-0.020322148,0.124292314,0.021876208,-0.065312155,-0.0013514952,0.07999613,0.00947661,0.03627102,0.062692724,0.029320003,0.055801094,0.021831712,0.023305073,0.12112523,0.015397576,0.06292574,0.09408487,-0.07591442,-0.018336473,-0.07206299,-0.12235343,-0.08328335,-0.15256427,-0.082114585,-0.048579954,-0.07139359,0.035480563,0.008939195,-0.05005937,-0.039518405,-0.2039408,0.08083822,-0.012994349,0.027624842,0.036254067,-0.06845902,0.11191868,-0.08556177,0.03668861,0.0090644015,0.056938536,-0.11024858,-0.057843883,0.021119552,0.007694455,0.0994293,-0.022313138,0.050488453,-0.042784557,-0.0008452437,-0.041328035,-0.0094472235,0.019051088,-0.020525895,0.0617604,-0.023200791,-0.055303425,0.08309494,0.027729033,0.033177678,-0.06302129,0.020178864,0.083206885,0.042379767,0.10154589,-0.057643164,0.06354969,-0.066273555,-0.036255803,-0.08205483,-0.03417388,-0.038277533,-0.020156436,-0.05493872,-0.08248333,0.058258295,0.030561106,-0.012686379,-0.010499991,0.0820561,0.026256993,-0.01092173,0.041807476,0.03257851,0.077329375,0.06335857,0.06952974,0.07467339,-0.0011195627,0.087186664,-0.009608076,-0.1369764,-0.05270227,-0.041646652,0.03551497,0.028500445,0.08566265,-0.012387317,0.01725981,-0.103791095,0.08792332,-0.0010815265,0.013124746,0.05624679,-0.004378756,-0.04196053,-0.03106471,-0.08081119,0.059814773,0.048685197,-0.030487781,0.053678546,0.03838075,0.048012435,0.018621558,-0.10396448,0.040521953,0.05706507,-0.108758904,-0.11665193,0.0077953334,0.024691213,0.046424136,-0.03986675,-0.021020992,0.10309716,-0.08373821,0.103340745,-0.10050069,-0.064845085,-0.01780301,-0.07515571,0.040904287,-0.073841944,0.0276212,0.030326255,-0.07773256,-0.10329979,-0.17841792,-0.0289701,0.03873149,-0.00017703007,-0.07514145,0.03491319,0.081674024,0.102795124,0.0017964338,-0.028103052,0.008137636,0.065245084,0.10643317,0.05348802,-0.0993304,-0.047109485,0.028085705,0.04953536,0.0016212257,-0.1318645,-0.16070352,-0.08217774,0.027486457,-0.03120727,-0.046287876,-0.007558638,-0.1811684,-0.1461916,-0.025530294,0.0036056184,-0.08393949,-0.07019582,-0.065785415,0.10275354,0.10404784,-0.07901646,-0.050616015,-0.1097995,-0.05955932,0.027798062,0.034131467,0.046365157,-0.09852829,0.0047885366,-0.0099784145,0.007683337,-0.007505032,0.009708149,-0.06121936,-0.066110425,0.019941593,0.13710153,0.051008534,-0.09477864,-0.13269812,-0.12164984,0.029960234,0.05580945,-0.05249518,0.012409548,-0.039887987,-0.018061137,-0.022803651,-0.029998114,0.017033203,-0.012147504,0.061303068,0.071005225,0.023534004,-0.052547958,0.07670579,-0.019771554,0.009444318,-0.046661522,-0.041542627,-0.04676109,-0.05148688,-0.10111756,-0.011931193,-0.025651822,0.022062192,0.0593301,0.09647547,-0.039820664,-0.019344963,-0.06727826,-0.038333192,-0.10513885,0.050248653,-0.07855753,-0.06593388,-0.0786452,-0.20618021,-0.017566478,-0.02707813,-0.10986284,-0.095033295,-0.10548583,-0.0020430647,0.032300606,-0.15417504,-0.19003983,-0.17917623,0.114403844,0.12195931,0.05541683,-0.008933081,-0.054299258,-0.0003868204,0.06584732,0.08013049,0.09316743,-0.055423833,-0.0662319,-0.044575434,0.08071855,0.12557021,0.062130913,0.016087022,-0.22457606,-0.10779412,-0.0041385978,0.05861926,-0.012537478,-0.06786884,-0.17591505,-0.036212474,0.04206705,-0.06184916,0.07790451,0.02864436,0.044598497,0.029070247,-0.062659346,0.037588425,0.046149615,-0.011408729,0.047807857,-0.039489567,0.056553796,0.02904365,0.054733124,0.081857726,0.0067504435,0.057018247,0.014457312,0.06133207,-0.053840082,0.06825712,0.10884891,-0.102811806,-0.13325764,-0.046748616,0.019887066,-0.028426856,0.017930342,0.11386634,0.09773728,-0.055664163,0.04012046,0.06562305,0.03482658,0.035433237,0.0110421805,-0.047490988,-0.057443436,0.021073202,-0.0921529,0.042606313,-0.037353132,-0.030957349,-0.13802429,-0.2755868,-0.019125808,0.025551328,0.015743613,-0.18995194,-0.26244345,0.041668482,-0.03185467,0.05111203,-0.010202071,-0.042652622,0.026450528,-0.009871078,-0.017446568,-0.04322078,-0.1524238,-0.060671188,-0.13963802,-0.03004667,-0.07791484,-0.11297136,0.015173505,-0.07303805,-0.1418439,-0.21796635,-0.10830026,-0.08399539,-0.07726974,-0.012808089,-0.1487073,-0.1249271,0.13475831,-0.054013453,0.027881738,-0.057269696,-0.045189448,0.06459381,-0.1477244,0.0496436,-0.045407783,0.051301952,0.07737821,0.07310316,0.0639651,0.0059010475,0.0299614,-0.007021398,0.03054147,0.07878798,0.016439078,-0.016653435,0.087247916,0.10325045,-0.056442287,-0.029932592,-0.021086462,-0.00957479,-0.03777764,-0.0013285242,-0.014823751,-0.016053308,-0.023737475,-0.03013324,0.033564765,0.03424246,-0.015319427,-0.15020093,-0.08531072,-0.11277725,-0.044452902,0.052113153,0.078320846,-0.08926931,-0.08316154,-0.045614243,-0.0076175425,0.017604169,0.018122565,-0.01539359,-0.11901211,-0.006310791,0.06666275,0.002122354,0.026730135,0.0043854313,-0.07201109,0.00014148201,-0.06704355,-0.064704925,0.08903911,0.00802261,-0.052551456,-0.09186245,-0.053344265,-0.064859055,-0.082474396,0.005409611,0.018718306,-0.08065731,-0.008926385,-0.09037391,-0.005655541,-0.025666824,0.002155772,0.0806497,0.0006104143,0.021319287,-0.00059271406,0.015491441,-0.054309096,0.02227488,-0.030879756,0.093865365,-0.016023535,-0.023453556,0.019534972,0.023332443,0.079575196,0.027153978,0.08997119,-0.014021526,0.030040102,0.07045686,0.011251227,0.03485585,0.07489494,0.24043652,-0.015841419,0.051290423,0.03447628,-0.066511676,0.05751188,-0.07018674,-0.0016895479,0.058563698,0.062413055,0.0336139,-0.0605026,0.021122256,-0.018407695,0.0010332603,-0.00531577,0.013877216,-0.124581166,-0.002011186,-0.006824617,0.12403536,-0.0019948732,-0.0301721,0.038862355,-0.06817032,0.11564419,-0.08945752,0.015579274,0.03477849,-0.24195774,0.0053686653,-0.03515299,-0.110508665,-0.012943063,0.045702882,-0.0730538,0.01743606,-0.0064708167,0.045575447,0.12080742,0.058576427,0.097328685,0.070694804,0.04227738,0.08082859,0.10922007,0.22360039,0.024272524,-0.014179043,0.06197435,0.097252995,0.060803726,0.07728614,0.10692126,-0.042572647,-0.08157569,-0.16576126,-0.036292285,0.0018132384,0.054385547,-0.080312334,-0.08855221,-0.00217638,-0.030607706,-0.026566634,-0.0030479624,-0.06397306,-0.020091327,-0.04357893,0.0057697254,0.03242753,-0.040513426,0.06613526,0.022668999,-0.043575983,0.11281116,0.009509414,0.05865598,0.008524775,-0.14105031,0.1095924,-0.031694602,-0.07123553,0.037486862,-0.07769731,0.09548638,-0.049016744,-0.03522225,0.0014743491,0.01950248,0.027549569,0.083542995,-0.038709585,-0.018770073,-0.025738379,0.047599144,0.04851038,0.012210244,0.044988856,0.036790434,-0.010280464,0.047622595,-0.016787656,0.04174283,0.13888451,0.053229097,-0.00017317529,0.04205761,0.07307774,0.012400623,0.07834107,0.0837124,0.08670332,0.07562828,0.026793592,-0.04096373,-0.16192812,-0.18180422,-0.076281086,-0.06712678,-0.06014726,-0.20566401,-0.20324679,-0.03309829,-0.08187588,-0.042806022,-0.034350246,0.053947877,-0.10028524,-0.07767985,-0.053099476,0.026193216,-0.10618779,-0.032615814,0.014723193,0.006482776,0.1060658,-0.079947926,0.017739896,0.076446086,0.0021437495,0.14457144,0.011465099,0.04102968,-0.013870613,0.0918008,0.12899023,0.042458877,-0.0463408,0.08012943,0.028186593,0.11185121,-0.057300568,0.18167454,0.13893987,-0.023844963,-0.013951627,-0.013967325,0.010089607,0.064669915,-0.051188894,-0.1576276,-0.061278224,0.050282124,-0.0521815,-0.008267138,-0.03656564,-0.02154612,-0.06258819,-0.15697826,-0.04143684,-0.016285604,-0.021422118,-0.10954488,-0.09083514,0.02751459,-0.08974549,-0.085582,-0.080745034,-0.09011448,-0.043921966,0.013999023,0.08041281,0.021610877,-0.052094456,-0.0072533884,-0.04446023,-0.10975799,-0.1641658,-0.15434733,0.0011321742,0.0015690983,-0.06443793,-0.13846669,-0.029064555,-0.09411674,-0.09916216,-0.0021907631,0.0024442924,-0.11419602,-0.044822752,-0.0009040164,0.0044417926,-0.14391363,0.020206409,0.043158114,0.052312132,0.05729523,-0.057563063,0.06126311,0.093628645,0.045238353,0.083811626,0.0003266144,-0.0877941,0.046430223,0.03384437,0.010856408,-0.07907632,-0.054546107,-0.04266606,-0.046506036,-0.085901834,0.018865936,0.0056091286,0.054221503,0.033149835,-0.039831113,-0.010682019,0.020545134,-0.07395461,-0.02202462,-0.0028883757,0.0051468597,-0.009427262,-0.18474379,0.0071903337,-0.0631274,0.041636568,-0.06835049,0.11710584,0.026951501,-0.047817618,-0.09283067,-0.0831016,0.101978004,-0.052141313,-0.028117662,0.037218723,-0.061903074,0.0024834208,0.09744939,-0.046598896,0.08595824,-0.08709319,0.04878771,-0.017565234,0.07029071,0.03724951,-0.0037336205,0.0159175,-0.031142734,-0.008762264,0.012325265,-0.21294485,0.066509336,-0.05137837,-0.073657796,-0.07045159,-0.23456441,-0.13135713,-0.14875431,-0.103755765,-0.16049927,-0.13226539,0.0571674,0.02734337,-0.08100288,-0.23188972,-0.2177375,0.0388127,0.017270355,-0.027013188,0.039502993,0.080792494,0.014817487,0.012240539,-0.037247345,-0.053341117,-0.14979674,-0.030522535,-0.002964694,-0.07424617,-0.06505734,0.020231834,0.05599002,-0.09450509,0.056516707,0.085566506,0.060907282,-0.08989294,-0.046901383,-0.01128912,0.0688882,0.20449394,-0.03787089,-0.031814102,-0.0815904,-0.065174766,0.025448585,0.0501214,-0.0564014,0.007151024,0.11657672,-0.07021327,-0.015193211,0.00076481677,-0.010961936,0.04028773,-0.064981095,0.023888165,-0.10390734,-0.010290042,0.13555153,-0.03951627,-0.037225727,-0.04029555,0.09782575,0.06990268,0.03007488,0.079062335,-0.10937041,-0.066176035,-0.05213663,-0.073511094,0.108232684,-0.018589843,0.04102915,-0.09309958,-0.09867414,-0.044928707,-0.044152975,0.002434105,-0.07003547,-0.081663236,0.119803086,0.06881212,-0.0050869617,-0.054113273,-0.1139329,0.07040535,0.09126071,-0.013927651,-0.003556768,-0.06872451,0.0954603,0.050759405,0.0592573,0.06644363,0.00090338633,0.036897074,-0.04573528,-0.08809584,0.022870805,0.054153513,0.07868289,-0.01720519,-0.21279608,0.024151951,0.103445545,0.10545137,-0.15297249,-0.16613457,-0.08327403,-0.030019555,-0.037154324,-0.078730226,-0.08357254,-0.0412881,-0.04715939,-0.035909127,-0.009620283,-0.100280926,0.0016633921,-0.0018139032,0.06961136,0.11508245,0.04451278,0.0045620953,-0.075237416,-0.10912426,0.06323507,0.007819899,-0.00023249912,-0.030528184,-0.07886737,-0.14451383,0.09958216,-0.0031596282,0.025243513,0.11183009,-0.10921668,0.052068777,-0.042627618,-0.054710455,0.029467594,-0.042950954,-0.05866557,0.0031292157,-0.091034606,0.012142529,-0.029439427,-0.012581598,-0.05903214,-0.045560516,-0.06851141,-0.0027381915,0.045464467,-0.012444562,-0.1641907,0.053214494,0.11162859,0.06148455,0.021035422,0.05311687,-0.12380201,0.16429129,0.08032112,0.016598325,0.0577475,0.12780035,-0.056223746,-0.036824048,0.11635169,0.06857912,0.05071687,-0.04813779,0.02517568,-0.10370027,0.014042676,-0.032646134,-0.17891397,-0.08450597,-0.0402465,0.11618082,0.045249518,0.040379975,0.03001041,-0.09878037,0.01143749,0.080365285,0.044909827,-0.10941721,-0.024838507,-0.0012003354,0.04959366,0.08311478,0.09277461,0.06463902,0.0603379,0.03599451,-0.017316576,0.0010568607,0.087034,0.0611672,0.021294802,-0.1390201,0.021734763,-0.16865109,0.061760105,-0.058770917,-0.09198294,-0.08925749,-0.007647106,-0.12889686,-0.06641562,0.007572813,0.0116357235,-0.09912355,-0.13646941,-0.099241845,-0.024741333,0.021414133,-0.043456633,0.0075355484,-0.044264447,0.039522685,0.03653931,-0.0833299,0.013936644,-0.01944023,-0.008984029,-0.025130909,0.0045573656,0.1231916,-0.0336034,0.05009593,-0.08180742,-0.03985592,-0.07915391,0.049980853,-0.021643072,-0.09003155,-0.11380934,-0.048126087,-0.09840551,0.030806014,0.06446898,0.032010037,0.003122199,0.07060349,0.12390519,0.053113632,-0.06505125,-0.06836445,-0.04539968,0.1254878,0.060715504,-0.13221894,0.0015872697,0.04852172,-0.009797813,0.028128877,0.07236623,0.07144392,-0.055170745,-0.024547534,-0.061576568,0.09832464,0.061387356,-0.008062001,0.060254928,0.03134146,0.11754674,0.006608236,-0.05319647,-0.04833821,-0.013897241,-0.05076747,-0.07248149,-0.1007221,-0.030504901,0.16120227,0.040707428,0.010603387,0.089179404,0.09816405,-0.014241907,-0.106566764,-0.13991866,-0.10494777,0.02901997,0.03789443,0.09724434,0.1412731,-0.028144103,0.060325705,-0.112486094,0.0696198,0.02581849,0.019701686,0.0846224,0.020596944,0.13045305,0.12914188,0.01797879,-0.029812006,-0.009369466,0.05292267,0.1601462,-0.013759149,-0.1782874,-0.07325879,-0.019442882,-0.03931463,0.057833586,-0.070800826,-0.0135315405,-0.13451986,-0.120751195,0.0018319105,-0.020526407,0.0069175838,-0.024694465,-0.017528387,-0.055179194,-0.010005896,0.00977637,-0.034612715,0.041309074,0.10827935,0.06544512,-0.05072108,0.02709726,0.010787166,-0.032952115,0.056768708,0.13020816,0.044272363,-0.04017576,-0.014364364,-0.010281022,0.03632482,-0.08324381,-0.02756986,-0.016871488,-0.007310269,0.06453509,0.029255135,-0.119284876,0.013460136,-0.04359277,0.043500666,0.0064161816,-0.04110101,-0.026715111,0.019879315,0.054468367,-0.085848875,0.055583354,-0.06405042,0.0032801498,-0.012661662,0.04555659,0.05035983,0.06424236,0.014510605,0.07324782,0.015553359,0.002418842,-0.08986293,0.04886444,-0.02670343,-0.015040456,-0.030753054,-0.024507776,0.031541165,0.015386651,-0.039672658,-0.16914782,0.09418447,0.11060305,-0.06986843,-0.10725789,-0.1634222,-0.02449449,-0.000808702,0.06300024,-0.0043165972,0.032569278,0.03846271,0.11338484,0.031320766,-0.0021857703,0.028187204,-0.019712277,0.024586847,-0.014361324,0.054882135,0.001314518,0.03548546,0.09335919,0.012741393,0.021906838,0.07191368,-0.015236862,0.10683301,-0.033353414,-0.06230188,0.0006498011,0.09051083,-0.09803131,-0.01582435,-0.06852604,-0.05841758,0.018442705,-0.08952643,-0.10426026,0.0029179563,0.06974729,0.013678252,-0.024619786,0.014744349,0.13238753,0.024704508,-0.06423124,-0.09114227,-0.016617924,0.11071783,-0.09588184,-0.0145998495,0.04493013,0.1449152,0.017268945,-0.116517864,0.039754692,-0.13315628,-0.06652816,0.027543014,-0.09398388,0.023316631,0.07749184,-0.09018635,-0.102822095,-0.10582202,-0.0305563,0.044853937,0.038390543,0.09434501,-0.11318754,-0.031043591,-0.058974415,-0.0038985438,0.100028135,-0.03313371,-0.002130036,-0.055342823,0.06716203,0.020437192,-0.006320652,0.0782624,0.08443011,-0.018817615,-0.005819019,0.06516901,0.045897342,0.057855815,-0.046878885,0.045338094,-0.02434579,-0.010011965,-0.047280785,0.02534952,0.027109768,0.07965494,0.032842766,-0.0003910698,0.020175967,0.0062131,-0.098701365,0.0019896906,-0.0010812338,-0.08513881,0.008951388,-0.012114876,-0.027843287,-0.103789255,-0.09567701,0.044021253,0.034602597,-0.043311853,-0.08447687,0.03936906,-0.1643139,0.008197979,0.028246507,-0.006861589,-0.06505664,-0.05700233,-0.038384486,-0.003596097,-0.038138654,-0.022487743,-0.06467668,-0.06990852,-0.010717708,0.03725904,0.075595774,-0.094174005,0.060937975,0.051581543,0.1526451,0.054111555,0.097297706,-0.0034436856,0.15042028,-0.15954554,-0.17457056,-0.06631384,-0.04714777,0.08434414,0.062422514,0.026986599,0.058606096,0.025415646,-0.105523825,0.032870967,-0.051402368,-0.08713013,-0.090882964,0.05860822,-0.014652958,0.008664399,-0.08579061,0.007035492,-0.10671867,-0.053009063,0.035585675,-0.01872669,0.120258525,0.11365479,0.1737604,0.081196636,0.06701904,0.13356888,-0.005137688,-0.009540562,-0.019953627,-0.04566687,0.0072791604,-0.03978033,-0.07706234,-0.029987497,0.08047409,0.015974341,-0.02623789,-0.038909785,-0.107331745,0.06874011,0.090622775,0.10734632,-0.012317826,-0.13823225,-0.079850115,-0.020116612,0.17739587,-0.11057103,-0.08060489,-0.16226138,-0.06080504,0.028250987,0.02183873,0.043003157,-0.06972256,-0.06969864,0.0657023,0.08961468,0.02870839,-0.040431432,-0.00024562224,0.02159024,0.08480263,0.06653424,0.01814377,0.04371781,0.004267991,0.10851415,0.006195537,0.016625827,0.10922594,0.109848216,0.02206416,0.065516196,0.091508344,-0.019592067,-0.040554333,-0.1151522,-0.059702694,-0.0481005,0.024009824,-0.10210745,-0.04176159,-0.035409942,-0.015951715,-0.045474466,0.060870532,-0.018377442,-0.10362116,0.015643273,-0.04526895,0.016660357,-0.05580445,-0.19196297,-0.018035227,-0.031336393,-0.11084269,-0.02872875,0.0055200565,-0.118085444,0.012237606,-0.048474938,0.078812346,-0.01336364,0.03675832,-0.032584332,0.056192126,0.06574103,-0.06594801,0.19274369,-0.029516397,0.029301632,-0.03232705,0.03484343,0.14726086,-0.029249568,-0.0013353624,0.02899395,0.074960336,0.08647458,-0.00043097473,0.016197756,0.1059954,0.15877447,0.08323546,-0.1044378,-0.030414512,-0.0359769,0.0014347445,0.019955032,-0.04626777,0.024200907,-0.041000463,-0.08705853,0.052105587,0.09789826,0.01351176,-0.041291524,0.029015373,0.043622747,0.06923948,-0.024925452,-0.068700254,-0.12023053,-0.13634688,-0.003413923,-0.028292963,-0.025409939,-0.09763499,-0.10298579,-0.044377394,0.016156282,0.09910801,-0.057280455,0.030279195,0.11509193,-0.045572132,0.084247045,-0.046996873,-0.02882403,-0.010297871,-0.03186395,0.057358928,-0.07096841,0.054828223,0.13534468,0.049774505,0.063912615,-0.038418006,-0.13718818,0.09092185,0.0023433291,-0.030730106,-0.046436053,-0.113066144,-0.1385625,-0.058619116,-0.04264085,-0.079330355,0.008920987,-0.05219328,-0.10970861,-0.06892324,-0.009472176,-0.089247584,-0.052382775,0.01334056,0.011105584,-0.017841468,-0.074026234,-0.022596288,0.050253723,0.046560686,0.031068526,0.06937555,-0.024254244,-0.042173583,-0.1058737,0.002717656,-0.042505212,-0.16581635,-0.013058614,-0.028933786,0.10993672,0.06617922,-0.06341758,0.06515364,-0.07108403,-0.044655506,0.061380748,-0.04424995,-0.034607146,-0.11001441,-0.003506232,0.010396805,0.014168992,-0.13340162,-0.12510693,-0.045400754,-0.15888973,-0.14878848,-0.08457273,0.058690608,-0.12593906,-0.04880483,-0.015347776,0.0005116317,0.009433461,0.11546819,0.1055527,0.07798331,0.063777864,0.049451135,0.10782861,0.12446168,0.006978433,0.036134068,0.014136044,0.0364596,-0.04220946,-0.0038022413,-0.037123475,0.011648581,-0.0072310087,-0.045650966,0.03985459,0.040162574,-0.0007930169,0.0134434905,-0.013172163,0.03688477,0.06274401,0.047724873,-0.09498189,-0.045258157,-0.1076484,0.006312092,0.044753164,-0.02067513,-0.023100594,0.012439833,0.09160886,0.046137832,0.02768427,0.05506417,0.0947333,0.045665137,-0.023386179,0.0055094473,-0.062412415,-0.020937175,-0.012623757,-0.008465538,0.055643212,-0.09919053,-0.2372356,0.00064401317,-0.063793555,-0.00036584304,-0.004123908,0.0017700696,-0.0376628,0.059640814,0.07856324,0.09693593,-0.05351261,0.1322616,0.038777795,0.029493118,-0.001555489,-0.070962615,0.07571608,0.10479021,0.033022426,-0.0018987546,-0.09830905,-0.2608932,-0.24454777,-0.031101897,-0.03158828,-0.11195822,2.5124915e-05,-0.06883355,-0.0144372815,-0.00130609,0.040836684,0.014469131,-0.009869056,0.0053401412,-0.06504451,0.012752312,-0.05298168,0.1342551,0.10033016,0.115157634,0.08707899,0.054033097,0.060023386,-0.13251688,0.033690795,-0.039406553,0.06380671,0.11366133,-0.0042491183,-0.040562533,-0.015136139,0.011522771,0.103943504,-0.003103464,-0.06104795,0.018529117,0.06735751,0.056336425,-0.009523027,0.06745957,0.06889765,-0.00030377271,0.003076621,0.03321768,-0.014985253,0.1669217,-0.06500922,0.07850935,0.062005963,0.018332956,-0.00612619,-0.011782547,0.009107096,-0.007866665,-0.032825105,-0.11024897,-0.09371987,0.009040591,0.012255886,-0.10068234,0.033896524,0.08563719,0.029216085,0.07000446,0.0898152,0.02994603,0.005004958,0.08925315,0.035337523,-0.021195184,0.015388437,-0.02993796,-0.098366745,-0.08913826,-0.04280719,-0.118267015,0.044440504,0.066451,0.109637894,0.024547415,-0.06429039,0.095387526,-0.07721593,-0.16592297,0.05983809,0.07746407,-0.024968011,-0.0023325023,-0.051945433,0.015973236,0.013379646,-0.101896755,-0.11410442,0.06467855,-0.036053374,-0.095267296,-0.023535991,0.09080804,0.09853522,0.030284068,0.0006875723,0.07103943,0.0769442,0.05612157,-0.057171263,0.05732946,0.11964185,0.086431906,0.03915909,-0.023934724,0.028535154,-0.033274416,-0.023802532,0.030759243,0.0054494394,0.0155473,0.04258478,-0.107892774,-0.08669372,0.077685975,0.03483202,0.0423099,-0.05633242,-0.1627753,-0.10932171,-0.054400608,-0.17580946,0.031450804,-0.005245536,-0.0989149,-0.2519061,0.056315366,-0.011489981,-0.005119186,0.03774747,-0.096089244,0.02261983,-0.06389631,0.018960703,0.006079709,-0.11917817,-0.047382034,-0.03518341,0.05626714,-0.11080745,-0.0575469,-0.106077604,-0.011918196,-0.025167894,-0.11285994,-0.08738712,-0.049504075,0.089598335,-0.06505061,-0.08233727,-0.05310029,0.09501385,-0.015617912,0.066158965,0.0054631885,0.04783867,0.0009456363,-0.029089028,0.04030244,-0.011710545,-0.009644824,-0.014817235,-0.08823917,-0.038973145,-0.039689437,-0.109150074,-0.027823923,-0.019650089,-0.009678471,0.005239318,-0.1308131,-0.037441764,0.06426376,0.12943321,-0.021631468,-0.05160385,-0.03356345,-0.09670301,0.099370405,0.0659247,0.08788087,-0.12696975,-0.07780567,0.037107587,-0.015804382,0.10304554,0.05406338,0.105768204,0.0061994367,-0.080619305,-0.11391534,0.020086743,-0.03643539,-0.00073423923,-0.0411202,0.04534571,0.004278496,-0.041738022,-0.0940748,-0.014322745,-0.056462806,0.046307877,0.13347027,0.01880398,0.022421857,-0.06920673,-0.005878849,0.07293105,-0.057868894,0.014785018,-0.079595156,-0.048507504,0.005892836,-0.02987323,-0.011988945,0.027958106,-0.016068269,-0.028418655,-0.09847111,0.026930243,0.08547094,-0.022497643,0.06069331,0.02206053,0.08284307,0.025633395,-0.18979312,-0.13159604,-0.069985785,-0.04000903,-0.019306809,0.032659993,-0.071361996,-0.11546881,-0.04033679,-0.0493471,0.058691643,0.092576094,0.07605024,0.031432338,-0.041599978,0.13481438,0.10763522,0.088126585,-0.00025149054,0.0031244815,0.047412723,0.12532751,0.06846503,0.017164236,-0.026652444,-0.04691829,0.0018816709,-0.025316697,0.04553603,0.044452295,-0.042794775,-0.010221737,0.01283468,0.08407471,-0.003131566,-0.09563065,-0.078149825,-0.024141911,-0.039980855,0.028375134,-0.12280422,-0.015143542,0.021055572,0.15486038,-0.017636511,0.03539206,0.10118907,0.1282468,-0.08372584,-0.0641433,-0.26130226,-0.13422674,-0.01030928,0.0741326,0.112940185,-0.14610277,0.03349605,0.10159188,0.034603786,0.16471636,0.044523563,0.016453527,0.007863031,0.12291904,0.06284306,0.00675626,0.13134769,0.0989198,-0.040399004,-0.05981777,-0.0126690725,-0.03119731,-0.0018313864,-0.03783868,0.07018058,-0.14526601,0.013746153,0.10014049,0.06048672,0.14755563,0.075751476,0.02688294,0.024979297,0.13419725,0.03217926,0.08801319,0.097708456,0.017990658,0.043882694,0.016990008,0.0109286085,-0.04451097,-0.00070139754,-0.063315,0.01338341,-0.015108386,-0.055425085,-0.08471077,-0.08686624,-0.14853649,0.030728575,-0.050132323,-0.11625231,-0.021985844,-0.10088198,-0.045371294,-0.021097384,-0.0537549,0.060432844,0.09914413,0.034979217,-0.011899933,0.009579689,-0.01093408,0.024540503,-0.008421067,-0.019070549,0.016027339,0.10179912,0.09272637,0.012818598,-0.079318814,0.01859416,0.024324909,0.076436155,-0.062489,-0.058375295,-0.08634748,-0.05691261,-0.0676272,0.11341555,-0.14438671,-0.101430625,0.07588623,-0.039053462,-0.05210054,0.12118531,0.0963176,-0.07174537,0.051587854,0.06838793,0.08253179,-0.0117740715,-0.06568234,-0.0015883094,0.049447723,-0.07832357,-0.12643488,-0.05165415,-0.06892014,-0.055831295,-0.091665745,-0.10922997,-0.005174136,0.03163166,0.05586691,0.018046703,-0.12288104,0.024354246,0.0063604526,0.108832195,0.11699116,-0.037991613,0.00788693,0.0002490882,0.089261934,0.12788776,-0.025385411,0.05082753,-0.010418231,-0.036533967,-0.11945239,-0.2022157,-0.0928909,-0.1009667,0.09117344,0.09251987,0.042491063,-0.004598934,-0.16487537,0.071837746,0.07372766,0.042484056,-0.013181543,-0.1899694,0.030268317,0.020332538,0.014910048,-0.08173233,-0.039594423,0.05351808,0.08684589,0.11793333,0.08300599,-0.054822195,0.025634298,-0.048597123,0.08035397,-0.025221705,0.01621375,-0.0077064885,-0.11953557,-0.14818534,0.014864662,0.06903483,0.064018145,0.01735124,-0.090709046,-0.097118825,0.059286825,-0.027574647,-0.0025456953,0.08925495,0.045326542,-0.012776639,0.008325557,0.021999184,0.06650513,0.051524512,0.029559122,0.047962546,0.010708906,0.0048362534,-0.0047059087,0.19265448,-0.012739459,0.080723256,-0.116732255,-0.04047895,0.004501684,0.010051552,0.025068656,-0.011648194,-0.047956727,0.141279,0.03895373,-0.04218952,0.021366052,0.034092344,0.012476699,-0.047435064,-0.022298578,-0.009360243,0.031500075,-0.066234276,0.027080487,0.020958276,-0.08327634,-0.06983309,0.045968395,0.029177347,-0.061919346,0.07292139,0.044137597,-0.07283248,-0.00893282,-0.012987177,-0.05239802,0.06221473,-0.054715123,-0.024262559,0.019979538,0.008498457,0.011653798,-0.0752956,0.036983687,0.07065167,0.09782868,0.027222255,-0.05936377,-0.023663374,0.06497097,-0.041745227,-0.050276306,-0.067272425,0.08057221,0.00046322736,-0.120460995,-0.16421418,0.015273195,0.008391747,0.09225154,0.10030404,0.014441736,-0.015606923,-0.0019138553,0.006038099,0.07566302,0.052329246,0.09520778,0.09184889,0.02513018,-0.032006882,0.14336386,0.16606794,-0.058912538,-0.02872721,-0.011365292,-0.0027243968,0.018039513,0.029312344,-0.05147578,0.020318775,0.07116346,0.096070915,0.05270935,0.0130558545,-0.06527049,0.05311484,-0.034124445,0.102589406,-0.020535966,-0.016178248,0.0014703732,-0.06424635,0.07172852,-0.04512695,-0.09252252,0.037532922,-0.056434736,-0.011157187,0.06851933,-0.021442955,-0.09872039,-0.013267419,-0.102823876,0.110528916,0.030007293,0.026764765,0.07732034,-0.022776488,0.10208994,-0.012545477,0.060336106,0.08858709,-0.036089584,0.058432832,-0.015056774,-0.006568182,0.13991597,0.08798815,-0.013666094,0.082579255,0.026735527,0.017603245,0.03871076,-0.03656653,-0.045201812,-0.027852047,0.030874515,-0.038241815,0.0066772555,0.17064217,0.015379134,-0.17307642,-0.122790486,-0.04845595,0.07709866,0.08550114,-0.17342052,0.07502812,0.012100311,0.0072617494,0.02397735,-0.015769217,0.11340481,0.00023101257,-0.007543643,-0.029109472,0.08541565,0.051581442,0.02215564,0.023640841,-0.036415104,0.031113254,-0.0341994,-0.03245335,-0.11365476,-0.042039342,-0.0364519,-0.004897148,-0.02597296,-0.06218141,-0.036109995,0.13044809,-0.0142227365,-0.09102036,-0.09061212,0.089407474,0.062184665,-0.07602149,-0.1178721,-0.09318297,0.024595793,0.16241229,-0.008726829,-0.083587036,0.017540429,-0.006834932,-0.030304106,-0.12414235,-0.09291841,-0.052282274,0.11252121,0.13689964,0.03561797,0.14476787,0.028453121,-0.08126022,-0.026889294,0.059448965,0.034161646,-0.014519237,-0.10141128,-0.19735579,-0.014150554,0.03675823,0.02279525,-0.065904304,0.052178793,-0.007852676,0.013822149,0.09369706,0.050160777,-0.19418806,-0.0054145996,-0.013021426,-0.10812234,-0.11162097,0.08192127,0.040245082,-0.062240016,-0.05881002,0.061983474,0.16939223,0.016391346,-0.10831016,0.033636615,0.06557484,-0.011772694,0.027493495,0.054625027,0.035264403,-4.6495737e-05,0.009758226,0.08713479,-0.06710561,0.04467354,-0.13897306,-0.023059435,-0.1949917,-0.061134893,0.033878494,-0.07928813,-0.07447038,-0.07276017,-0.024688285,0.0012877817,-0.037175275,-0.0291786,-0.0060513853,0.044071507,-0.0074731805,0.09575829,0.043027364,0.10638496,0.09323203,0.07406579,0.01379419,-0.0495345,0.041401584,-0.00046525212,0.04442267,0.0614409,0.003034326,-0.07921943,-0.03318407,0.056244187,-0.054963656,-0.02520389,-0.013842096,-0.01890408,-0.0007341604,-0.11079056,0.016964946,1.0372514e-06,0.058985826,-0.057395995,-0.05354067,0.040256258,0.035786115,-0.0067996895,0.008164407,-0.09142306,-0.12631324,-0.005694303,0.03129449,-0.00015169958,0.032033514,0.045601245,-0.048483573,-0.13089943,-0.09815338,0.008508729,-0.1769241,-0.004467319,-0.08887602,-0.119827114,0.10691803,-0.10583428,-0.06811899,-0.044051606,-0.081770524,-0.014011788,-0.16892977,-0.07566353,-0.066595145,0.079516396,0.054312672,-0.073149204,-0.07050506,-0.021739008,0.038624737,0.14565837,0.018273456,-0.010524278,-0.13090031,0.07464996,0.18865053,0.14146219,-0.040406488,-0.02257738,-0.04272158,0.048324715,0.13105671,0.020283116,-0.049005143,-0.098901324,0.058231413,0.0029864172,-0.028541338,0.0343938,-0.050524272,0.02225253,-0.013357812,0.06346267,-0.0726024,-0.054985728,-0.003905728,-0.07698735,-0.16910683,-0.08844237,0.02492844,0.06530349,-0.03170458,0.046009567,-0.10010712,0.038166277,-0.06267966,-0.08239833,0.104866415,0.11226934,0.080680296,-0.043842286,-0.07746588,-0.07471766,-0.0073273005,0.05918127,-0.028181113,-0.037614398,-0.0561299,0.0075176856,0.121524386,0.08642269,0.03852732,0.064437814,0.060303267,0.026179677,0.055149674,-0.010625559,0.018188417,0.010362613,0.022732243,0.12266136,0.06814531,-0.11755319,-0.12493502,0.02889261,0.012992159,0.0026186027,-0.08337133,-0.0797077,-0.018606992,0.07822521,-0.1302337,0.0030245406,-0.08216299,0.07256267,0.09410098,-0.11439783,0.050243508,0.05576236,0.05534375,0.022749528,0.064617984,0.054636687,0.05908125,-0.0063315257,-0.0193905,-0.09999887,0.09477298,0.06265409,0.0776292,-0.028376631,-0.034585454,0.00083116407,0.09281447,0.039927375,0.08159804,-0.05876667,0.13405621,0.046112582,-0.05082915,0.03263825,-0.15403,-0.06432545,-0.14823002,-0.11423652,0.0014597941,0.041464478,-0.108815886,-0.17024095,-0.06015811,-0.095501676,0.014003518,-0.043509517,-0.06440141,-0.07855571,-0.053903323,-0.030779991,0.008154509,0.013166548,-0.0838792,-0.03165655,0.013541873,-0.08158301,-0.03376035,-0.05091316,0.018773848,-0.025062077,0.06984033,0.03170044,0.041062802,-0.018685626,0.02420458,-0.021381998,0.00908174,-0.004737322,-0.08931469,0.020176144,-0.10679551,-0.014062694,-0.008420984,0.061689842,-0.022360831,0.06375719,0.028654773,-0.056064647,-0.17096092,0.02765858,-0.015803006,0.02292389,-0.09696813,-0.0008961146,0.030758258,0.009449335,0.022205573,0.113959186,-0.028960962,0.004889543,0.06117125,0.067746416,0.0859697,-0.03680421,-0.064763375,0.27624792,0.14037995,0.0961452,-0.03749205,-0.053908225,0.031025276,0.059675522,0.029113568,0.100812756,-5.4307253e-05,-0.02638175,0.07809432,0.16831145,0.09023523,-0.029375065,0.04714845,0.027879482,-0.0888304,-0.04105591,-0.07285323,0.0742986,0.03757283,0.008224142,-0.041402213,0.039885186,-0.014298086,-0.109319955,-0.10823102,-0.0649581,0.095726594,-0.11073406,0.0033332938,0.076453865,-0.0035062013,0.075442374,0.1927565,0.031914692,-0.048520084,0.05624323,-0.09711679,0.053421095,0.05680466,0.0978286,-0.026068224,-0.007931152,0.04733111,0.1553252,0.015238236,-0.027896304,0.0075781546,0.287014,0.17897865,-0.008469196,-0.08108819,-0.018517552,0.094549865,-0.063105285,0.05301503,0.07004417,0.06070513,-0.12861456,-0.05810553,0.05867493,-0.055259276,-0.02460548,0.04710536,-0.049210966,-0.0052344818,-0.058654346,-0.041449774,-0.0661924,-0.0306555,-0.026222274,0.04758616,-0.012813375,-0.08121907,-0.08377432,0.009500511,-0.010123676,-0.05344061,-0.0018635724,-0.04405564,-0.13470942,0.041399978,0.023614747,0.015938815,-0.049058985,-0.092898294,0.030725464,0.030169941,0.012558705,0.07587599,0.051047284,0.0009819078,0.006501726,-0.03363482,-0.06305369,0.047072574,0.12825212,0.04854575,-0.02110813,0.051886365,0.1185814,-0.02309537,0.021696523,-0.082474515,0.0484472,-0.015604915,-0.087837204,-0.03221935,-0.014126541,0.08462254,-0.017197423,0.12548862,0.023219062,-0.019791814,-0.020314217,-0.05670138,-0.015577613,-0.057265528,0.060046222,-0.053751513,0.047450352,0.097728886,0.049458038,-0.13760602,-0.12292262,0.040917676,0.089174874,0.023906022,-0.16173232,-0.08917412,-0.0761748,0.015391689,-0.01324842,-0.076904155,0.0040562046,0.051641062,-0.03321275,-0.047709502,0.13267256,0.18099049,-0.009378394,-0.053698126,-0.020413745,0.13308655,-0.10159274,0.023463827,-0.024959458,0.023022322,-0.006708593,-0.020332789,-0.023188371,-0.0024282357,0.05466798,-0.0012428927,-0.002327432,0.082596876,-0.019764466,0.023501618,0.11972605,-0.012436556,0.07887377,0.081441,0.0032106985,-0.007311473,0.189121,0.05483071,-0.0024318926,-0.06334889,0.11058077,0.01797648,0.0009448934,0.033566996,-0.022841074,-0.0052125542,-0.11215319,-0.08494175,-0.018129835,-0.09084381,-0.060906954,-0.15058132,-0.059210353,-0.041052528,-0.017214412,0.07356375,-0.014502919,-0.040031794,-0.031717658,0.011433537,0.003275146,-0.020555729,0.0060233376,-0.024994265,-0.1124059,-0.068401605,-0.0038117196,0.065368645,0.011844981,0.07018358,-0.06951095,0.05694827,0.014555198,-0.042575937,-0.005710369,0.02859884,-0.0690455,-0.011764502,-0.011191933,-0.0030814123,-0.08755902,-0.07650388,0.054846127,0.072691195,0.040848233,-0.1331408,-0.06478161,-0.0485777,-0.02589462,0.032006588,-0.12763612,-0.0852038,0.12089508,-0.009180032,0.054913275,0.00868353,-0.048590664,0.0732148,-0.030297928,0.064093776,0.09239001,0.049189854,0.037997354,-0.14047776,-0.02451981,0.08564399,0.02587516,-0.0024649762,-0.10777404,0.02742354,0.06778565,-0.16157576,-0.03591212,-0.0011467604,-0.024293268,-0.098506466,-0.14877456,-0.097459234,-0.02446702,4.5281224e-05,0.008664208,-0.06703589,-0.1557831,-0.09255186,0.07310884,0.06896685,-0.029737635,-0.062149096,-0.05100621,-0.041048717,0.012413555,-0.12711245,0.009716031,0.008126285,-0.14504167,-0.031695757,-0.070447184,0.009736399,0.0046501057,0.08428397,-0.082764715,-0.12902305,-0.0071236393,0.0063999267,0.049658038,-0.064806595,-0.23368184,0.050130896,0.052918006,0.008556204,-0.10995759,0.008198401,-0.0028297936,0.08433794,-0.11854086,-0.031012546,0.056274384,0.008075717,-0.11130066,-0.091038935,-0.019230783,-0.10999854,0.08783619,0.108536676,0.038136862,0.048318848,0.021864675,0.02687934,0.03550479,-0.031796027,-0.06895323,-0.098560005,-0.029039338,0.07892747,0.04397051,0.0005812945,0.04077922,0.07647443,0.08323044,-0.007503092,0.06724343,0.051641084,0.054409444,0.0466812,-0.15004134,0.07280119,0.0641701,0.14863768,-0.03634494,0.030255776,-0.0074423747,0.08140776,0.22898374,-0.039049424,0.0280822,0.02443289,0.06434624,0.20365602,-0.004511078,-0.08041038,-0.15426804,0.03927681,0.06519165,-0.07783408,-0.07628223,-0.026715986,-0.022462493,0.1409383,-0.05472918,0.095524006,-0.053169377,-0.1116429,-0.056287047,0.13366933,0.07313532,-0.10110377,-0.010840277,-0.063684605,-0.124333315,-0.09495041,-0.16696943,-0.08851916,0.00839846,-0.02609797,0.010125528,-0.08208819,-0.07082936,-0.020613415,-0.051902268,0.049564756,-0.022553913,-0.053854454,-0.0447627,0.010451141,0.07287335,-0.050430026,-0.22001258,-0.08378145,0.070201986,0.13544379,-0.1952637,0.023688216,0.107681476,0.08546123,-0.04529446,-0.079183176,0.07533216,-0.009390991,0.08371646,0.031410817,0.026668793,0.11199825,-0.010564379,-0.07050524,0.039393336,0.001706929,0.007953999,-0.11737394,0.022907635,0.067565516,0.23718669,0.07770982,0.14059238,0.022689749,0.06470992,-0.05306084,0.0492581,0.03304012,-0.05223765,0.039025225,0.06680135,0.052984912,0.011602597,0.08444645,0.052175786,-0.10767348,-0.014249402,0.08165668,0.009669823,-0.05393194,0.08605031,0.098506644,0.10535197,0.054034133,0.06352196,-0.062162425,-0.05194923,-0.097642004,-0.025430756,0.12212117,0.020014143,-0.18481511,-0.0011227173,0.039964683,0.0483013,0.0015546221,-0.065154545,-0.118669435,-0.056378983,0.025349377,0.03905865,0.019524027,0.0707629,0.086837776,0.050397366,0.19783017,-0.02564958,0.058138415,0.17557758,-0.023736296,0.01938989,-0.045501985,-0.0065445374,0.041644514,0.04043122,-0.011887311,0.06963133,-0.09130186,-0.0791746,-0.07441432,-0.029410297,0.10180599,0.029640982,0.0075594126,-0.010120148,-0.019696346,-0.031094216,-0.062060043,-0.06443194,0.04343662,-0.045067918,-0.011871081,0.018007664,0.02118703,-0.0038152556,-0.09441079,-0.11717416,-0.00019486225,-0.05589134,-0.00060337444,-0.035424367,-0.075222336,0.013095092,-0.017981915,0.029062783,0.011246832,0.08325666,-0.023369906,-0.033051673,-0.118663356,0.036850713,0.120474026,0.0030499676,0.07064811,0.026523663,0.010107386,-0.079550736,-0.13116208,-0.05328432,0.0045169215,0.014342244,0.15842958,0.09080497,0.018768674,-0.060597427,0.08507675,-0.0016439363,0.04718522,0.06456079,0.07913203,0.08174488,-0.088504314,0.010923191,0.06164167,0.04694918,-0.029889956,-0.06455008,0.05791113,0.0599215,0.022937644,-0.067984104,-0.0050301175,0.043842573,-0.0036884847,0.13317959,0.0823091,0.053447124,-0.049602557,-0.08292071,0.038356215,0.0011056061,0.032734834,0.0046032276,-0.037278708,0.08727454,-0.013502095,-0.04352404,-0.049263902,-0.018660758,0.028649729,-0.034999076,-0.020742258,-0.009600236,0.046515938,0.027140409,0.039922178,0.077709235,-0.010429089,0.04929847,0.09667171,-0.03656651,-0.010393273,0.024980398,-0.09424419,-0.13357909,-0.025943551,0.08624313,0.122565314,-0.042800147,-0.0542588,0.14093924,0.15173301,-0.014684496,-0.029374253,-0.07376139,0.081847675,0.061743576,0.04930018,0.025095275,-0.013671814,-0.027475113,0.021095816,-0.13711593,-0.059337962,-0.055393983,-0.12227385,0.021563629,0.07405511,0.10181964,0.027755564,-0.13583414,-0.033410847,-0.030149834,0.1688786,0.06290565,-0.013865111,-0.060031764,0.020409208,-0.034817003,-0.019167976,0.02891422,-0.06458102,0.079548955,-0.016906753,0.00035222768,-0.00965338,-0.05815034,0.045762945,0.01722677,-0.05262607,0.045040373,0.049819715,-0.023805223,0.037291463,0.06299632,0.0064381445,-0.0004910003,0.010373533,-0.007787232,0.0053480957,-0.014888929,-0.006822854,-0.025573839,-0.07410754,-0.13092586,0.019793648,-0.01454326,0.041046914,-0.025495932,-0.006109515,-0.15034236,-0.001378726,-0.032670565,-0.022321207,-0.06474808,0.11734698,0.04267105,0.047295474,-0.009256377,-0.06101655,0.013291495,-0.047401693,0.003877976,-0.030004954,0.056204487,-0.0039432836,0.01677431,0.030466087,0.0547806,-0.06955795,0.061209407,-0.064705014,-0.0075208293,-0.061319117,-0.024161242,0.01702267,-0.045613687,-0.09101584,0.024762506,-0.025071451,0.031328697,-0.24695614,-0.086979635,-0.115653984,-0.1079903,0.021533739,-0.16543037,-0.08926568,-0.058507394,-0.07141571,0.013550017,-0.10912275,-0.15816884,-0.080932334,0.06071972,-0.087539926,-0.041342672,-0.088128425,0.06004369,-0.066085495,0.022252822,-0.011629085,-0.07900268,-0.028595733,-0.00907325,-0.01751301,-0.0628322,-0.07002003,-0.008345559,0.07073782,-0.032806225,-0.01961211,0.025390793,0.04627356,0.0019494671,0.024920467,-0.1086462,0.058883198,0.1541194,0.023194604,0.038845606,0.01154691,0.015882973,0.041768774,0.09870331,-0.07950411,0.055415902,-0.01598502,0.017620906,-0.05729671,-0.13716497,-0.15479909,-0.0067998315,-0.060070764,-0.00487359,-0.1269628,-0.04859991,-0.08822743,-0.05055931,0.04560048,-0.009594278,-0.020889675,-0.02355862,0.0048094303,0.08011892,-0.060757022,0.07307723,-0.08368817,-0.13946112,-0.026891166,0.08404313,0.06711485,-0.055558182,0.10848452,-0.02780897,0.071381204,0.045749884,0.0287446,0.057641253,-0.028693575,-0.0350762,0.058491707,-0.0028407702,0.048988692,-0.07312772,0.0062878374,0.053307492,0.001995818,-0.028484622,-0.021171816,0.036497515,0.073726214,0.081076525,-0.036647703,0.06287355,0.052016556,-0.0033969835,0.12770055,-0.043516625,-0.01590489,-0.0089639295,-0.080964535,0.00095952145,0.045803163,0.11402135,-0.049647186,-0.14616688,0.005199669,-0.08299719,-0.09638461,-0.0406211,0.057897843,-0.028468793,-0.12284108,-0.041621577,0.077944405,0.09205421,-0.018178783,0.06628873,0.07170942,0.11047003,0.09508338,-0.06224696,0.09160803,-0.049558472,0.052506745,-0.07564866,0.026817955,0.09072772,-0.01789748,0.008120905,-0.07942842,0.0011797469,0.028265586,0.0703735,-0.041815404,-0.1492573,-0.11832724,0.0140591,-0.07369298,-0.09294352,-0.0008479128,0.062467862,0.032289732,0.10607537,0.06667469,0.14542232,0.047785915,0.052447215,0.08808301,0.16338144,0.043603137,0.016843693,-0.050649676,0.025998514,0.06779118,0.079318,-0.10211979,0.0093390485,0.05461052,0.23590675,-0.0042743073,0.07682927,-0.046276797,-0.08967857,0.022030829,-0.07714797,-0.04154953,-0.022671366,-0.089911066,-0.14593118,0.029898195,-0.02202938,0.026374986,0.053783827,0.018066563,0.0013092653,-0.11589281,-0.08424325,-0.00089876755,0.019460382,0.0010381788,0.017207392,-0.026230574,0.022874117,0.009829336,-0.0042035137,-0.070818484,0.08289184,0.045989376,-0.017679356,-0.09919158,-0.010087928,-0.083859704,-0.10821925,0.0056510484,0.12072646,-0.075818695,-0.09745538,-0.06157904,0.07782114,0.12276504,0.03694774,0.04861547,-0.0099409865,0.09119056,-0.097393736,-0.0995329,0.024513243,-0.010934971,0.014773035,-0.07694188,-0.0040896465,0.029990688,-0.036368366,-0.07239663,0.030732121,0.13894126,0.14827624,-0.046297643,-0.18041594,0.04608347,0.12222151,0.081161804,-0.09574731,0.07836029,-0.0788178,-0.04110902,-0.0008968282,0.09449567,-0.027757086,-0.009997744,-0.041603904,-0.06293595,0.057041153,-0.040757578,-0.0059521766,0.044846583,0.00431164,-0.0049309535,0.048873994,0.04487075,0.13894287,0.06405535,0.022810303,-0.11280065,0.016618349,-0.029292742,0.03872701,-0.0076374533,0.03947768,0.14260851,0.06124625,0.040945604,-0.008265885,-0.010663682,0.06446268,0.011002268,-0.042625375,-0.06560073,-0.05372461,0.079520375,0.015725903,0.013548905,-0.10495192,0.0030320024,0.0024134368,-0.04999675,-0.022105046,0.057848107,-0.03260939,-0.07769804,-0.12923872,-0.023597939,0.19707555,-0.072690815,-0.15330014,-0.13868964,0.038688447,0.045029525,-0.08659804,-0.042134326,-0.110626616,-0.007789848,0.035250057,0.08319552,0.018777808,-0.031671908,0.010653054,0.10198336,0.09796874,0.036252968,0.03318707,-0.003141843,-0.03757648,-0.014263717,-0.12295511,0.03756396,0.0018046338,0.0033266218,0.077729724,-0.00062084734,-0.042768482,-0.021236405,0.029281998,-0.07304892,0.051734526,0.0030801888,-0.10573491,-0.1566415,-0.14336467,-0.038384814,0.13102932,-0.02026707,0.09341326,-0.044991206,0.13327006,0.107465684,0.10652088,0.14192462,0.051551778,0.12039847,0.014749853,0.021683892,-0.014890987,-0.04291905,-0.114135094,-0.09262284,0.11828833,0.12553744,0.08682669,0.01497074,0.031856906,-0.013183117,0.15200037,-0.06840697,0.02598003,0.00039606812,-0.15839612,-0.08916729,-0.030533126,0.031871453,-0.012144161,-0.02434204,-0.002410806,0.018159328,0.10794696,0.020733962,-0.08137836,-0.07299181,0.016601816,-0.05255635,0.0017362658,0.075206,0.16445233,-0.08582454,-0.10910159,-0.013169382,0.07662089,0.05094486,0.037500072,-0.0072187446,-0.011285291,0.06276707,-0.079500996,0.04413956,-0.06119527,-0.026382498,0.048710994,0.018535132,-0.052801374,-0.029735154,0.044315197,0.03045453,0.038604647,-0.05620029,-0.0371408,0.021189813,-0.038516,0.04217801,-0.052521404,-0.018683407,0.038893256,-0.036792424,0.06623711,0.06313338,-0.0009399707,-0.006463711,-0.09283463,0.08058232,0.07807995,-0.094200246,0.095029265,-0.06102609,-0.0703637,0.0872229,0.031077469,0.07305576,0.015039058,0.0134170605,-0.057188466,-0.16197236,-0.09535501,-0.08221522,-0.009427898,-0.0072961757,0.0148757305,-0.0014865297,-0.013719626,0.077018686,0.020420937,0.04391136,-0.014731605,0.06066463,-0.035699837,-0.042586543,-0.14152387,-0.052790593,-0.10013194,-0.10453354,-0.01985994,-0.05664003,-0.023534622,-0.0011293908,-0.050258882,-0.02580149,0.024796408,0.021941802,-0.12765387,0.0233506,0.018581944,-0.02515227,-0.16572183,-0.05398408,0.07501517,-0.045036674,-0.06043528,-0.02839432,-0.05242787,-0.027288364,0.060207617,0.0038827164,-0.042167686,0.023241736,-0.022423951,0.04505112,-0.0035557772,-0.031353187,0.047112055,-0.001196066,-0.05673411,-0.008423777,-0.0174469,0.00012262801,-0.07864311,-0.07636651,0.068850495,0.04808648,0.06700089,0.024289919,-0.06206779,-0.18417087,-0.020711109,-0.04177075,-0.17280087,-0.05880665,-0.12149298,0.027789714,0.06422445,-0.024056548,-0.06934846,0.035488334,-0.053863246,0.01569913,0.008660987,0.0686149,0.016499668,0.08719561,0.21408562,-0.0006513505,0.03468066,-0.026826434,-0.0005764056,0.022604736,-0.07421433,0.13276497,0.021307893,0.10739503,0.0074643893,-0.0020371573,0.094769865,-0.06901436,-0.04530483,-0.073598355,0.047714528,-0.00059472705,0.09513505,0.0016465506,0.08976079,-0.038069703,-0.050611313,0.012451235,-0.10442581,0.074645326,-0.013487371,-0.0632801,-0.19460735,-0.16049334,-0.027442643,-0.049097404,-0.00926732,-0.13642448,-0.11660697,-0.1194829,-0.08312032,0.052878812,-0.0076841265,-0.060607698,0.056367878,-0.00717489,-0.03251124,-0.056991246,-0.14051592,0.0050848275,-0.024888055,-0.040837623,-0.0074562556,-0.06315607,-0.043509893,0.069381736,-0.007306654,-0.017663734,-0.03715292,-0.022312654,-0.07370825,0.0025102461,0.0627379,0.063934505,-0.124923415,-0.086637564,-0.019622495,0.015895857,0.060345687,-0.060349032,-0.0842161,0.085222825,0.1547948,0.050840966,-0.07940001,-0.14209245,0.044600558,0.14404188,0.06671575,0.08461538,0.09852101,0.051465128,-0.025348486,-0.014112231,-0.063398406,0.02514538,0.12282636,0.11812227,-0.04781254,0.076731846,0.033706173,0.020924527,-0.069051325,-0.073891036,0.086845346,0.019855568,-0.055449367,-0.099103354,0.036336586,0.13644238,0.035271097,-0.004655016,0.0046655512,-0.050954476,-0.005876822,-0.036783177,-0.00017259287,-0.109809004,-0.025485627,-0.04636834,-0.005896293,0.035840552,0.0030425512,-0.059654005,-0.0050671613,0.019683039,-0.024789322,-0.08772736,-0.12049991,0.014066553,0.06982923,0.042738903,-0.03714563,-0.18571943,-0.17486672,-0.0550987,-0.009864181,0.11911594,0.03223936,-0.020560637,0.05897694,0.046485223,0.1374169,0.06926003,-0.063139744,-0.050469298,0.03605979,0.1366462,0.03815928,-0.07367131,-0.03615089,0.03403806,0.08738417,-0.037202645,-0.044831414,0.003258497,0.0530387,-0.053331017,-0.088530645,-0.04917417,-0.044350125,-0.049618665,-0.115066536,-0.009925851,0.0008227696,-0.0789889,-0.0036602267,0.021131454,-0.07930515,-0.15849954,-0.095556006,0.09677049,-0.052788798,-0.1199093,0.024480615,-0.03202494,0.030473681,-0.034968097,-0.06380501,-0.10803478,0.006785231,0.041625198,0.027183102,-0.032906044,-0.036712598,0.07207591,0.037236158,0.035719704,0.067756295,0.07039527,0.031590052,0.036852255,0.083384775,-0.029109232,0.15655945,-0.12002385,0.0422633,0.023611778,0.1008367,0.16284971,-0.07337903,0.077334,0.0043826066,0.15638979,0.13444072,-0.039570253,0.11035967,-0.003892348,0.16426185,0.062707484,-0.090071,0.079464115,0.0267968,-0.005499286,-0.049078073,-0.021013692,0.1095373,-0.012024006,-0.075531565,-0.0063966825,0.030319002,0.012912191,-0.09228857,0.12149407,0.005503683,-0.036928646,-0.089269035,0.024197463,-0.059469517,-0.073684946,-0.06658091,-0.09071941,0.07293077,-0.019419953,-0.092847586,-0.058322776,-0.002103828,0.000104291634,-0.01890523,-0.028885134,0.0072350944,-0.07219121,-0.0047300793,-0.04042825,-0.031003403,0.008907146,0.04013417,-0.095128134,-0.07537902,0.011237462,0.078592695,0.1229656,0.12776843,0.08225956,0.063023105,0.07093206,-0.016188102,-0.0007386485,-0.1212029,-0.07271176,-0.09722334,-0.119630694,-0.029691538,0.09505925,-0.036162335,0.1328799,-0.07579595,-0.0032182492,-0.03096243,-0.1604968,-0.23807266,0.024233498,-0.076149724,-0.059424236,-0.07891787,-0.058149654,-0.027314106,-0.032094248,-0.12987174,-0.05406571,-0.02229984,0.04024614,0.04550707,0.05912024,-0.027616754,0.06716363,-0.027179213,0.016500097,-0.053280316,-0.06924441,-0.09595078,-0.0029568332,-0.029189313,-0.05522017,0.008660306,-0.034570303,-0.0746709,-0.01758737,-0.012618722,0.05690189,-0.082720146,0.107277766,0.036240045,0.031869717,0.0585264,0.06735975,-0.058821198,-0.11570893,-0.098297805,0.11556611,0.037118733,-0.049850132,0.072839715,0.110850476,0.027021686,0.11828962,0.0077474876,-0.030000782,0.077876575,0.07438153,0.0001451605,0.0019926466,-0.03847687,-0.04718664,0.016916035,-0.024087146,0.059976872,0.02404245,-0.012906077,0.040389743,-0.03695593,0.000764706,-0.032900978,0.038505238,0.07259684,0.1155668,0.09301583,-0.015424023,-0.046258204,-0.1089177,-0.18420619,0.035695646,-0.058490448,-0.033010818,-0.08496299,-0.011275255,0.05025425,0.023618998,-0.04178812,0.02780676,-0.06712686,0.034905747,0.029629327,-0.011149693,-0.06941402,-0.112253904,-0.036839295,0.05213793,0.027432678,0.0039708577,-0.009896831,-0.043045565,-0.03120313,-0.052280772,-0.071989514,-0.06442323,0.027105754,0.04421357,0.03708887,0.09954775,-0.046469238,-0.012684295,-0.054250367,0.116018675,0.10646609,-0.055180155,0.0031881563,0.038850196,0.09671449,0.008720071,0.11184497,-0.0020095243,0.03788497,0.026346259,0.0721237,0.04808675,-0.101051606,-0.012801387,-0.034952126,0.028706983,-0.0017428861,-0.115162805,-0.081437364,0.030865824,-0.07554247,0.093091324,-0.08866026,0.027195245,0.0037326568,0.024849499,-0.091313206,-0.1129667,-0.05182,-0.06488331,0.013392959,0.12669493,0.07436864,0.08455141,0.0056800544,-0.017372265,-0.04544221,0.15128893,-0.004087277,0.05023833,0.104658194,-0.009807089,0.052537628,0.017861167,0.06844159,0.1204402,-0.034800135,-0.024093876,-0.042575017,-0.03346947,0.20115043,-0.052100133,-0.13364543,-0.16499542,0.09539046,0.03208153,0.0051176054,-0.027754081,0.043896772,0.09367046,0.078078374,-0.029139968,0.055643298,0.023780368,-0.0035228545,-0.0030780209,0.010358017,-0.0067972443,0.051056076,-0.017651409,-0.019045323,-0.062387343,0.030447908,0.013337256,-0.07995671,-0.021481192,-0.093407355,-0.04991831,-0.05316415,0.012139164,-0.06164737,-0.02799727,-0.13617279,0.05464201,0.03964318,0.04593359,0.008959427,-0.06242232,-0.10568289,-0.0535148,0.1313741,0.08810884,-0.1812759,-0.302912,-0.039872516,0.1297894,0.13159691,-0.009879106,-0.034648024,-0.0008964503,0.020249806,-0.01538974,-0.09718751,0.01762998,-0.008685825,-0.09234293,0.034249425,0.058891483,0.04887684,0.0046874876,0.029324198,0.028970107,0.08708945,-0.014680403,0.06335825,-0.06907505,-0.012927335,-0.051092453,-0.052156363,0.0026513897,-0.10341617,-0.043191202,-0.08161734,-0.054999366,0.012438631,-0.040340364,-0.07158757,-0.095676884,-0.024785962,-0.04690852,-0.09708364,-0.031078387,-0.009322651,-0.13909157,0.0019294907,-0.09603224,0.027528776,-0.06645507,-0.07868352,-0.04630015,0.020349206,-0.055368416,-0.05565441,0.15096515,-0.04417798,0.013706502,-0.010664226,-0.02290459,-0.009346443,-0.055191394,0.069721885,0.088047475,-0.10220834,-0.09409302,-0.07136449,-0.07471669,0.00061267376,-0.08487094,0.033348337,0.0022672322,-0.032729212,-0.033820927,0.06348384,0.003702679,-0.067946866,0.0817377,0.018609721,-0.06854261,-0.03031251,-0.12101864,-0.047035534,0.0139979,-0.05409544,0.00082469714,-0.11623968,-0.041193154,-0.039687052,-0.06622378,-0.057011966,-0.14275634,0.0069013783,0.0074647535,0.067789234,-0.07238114,-0.048432656,-0.040662136,-0.03883541,-0.18393232,-0.14097714,0.051113088,0.024833545,0.04849331,-0.020299077,0.05458727,0.121128656,0.021395726,0.12430756,0.003287195,-0.058836054,-0.075543195,-0.031456634,-0.13137995,-0.009107397,0.07737537,-0.009249701,0.036093064,-0.017875286,-0.031831138,-0.06666804,-0.077383876,0.031987134,-0.048216797,0.13196342,0.06760126,-0.1591974,-0.053864036,0.07762702,0.17714374,0.08606184,-0.14741142,0.014482723,0.078394175,0.030246124,-0.025215438,-0.0588306,-0.018746464,-0.15322484,0.10859728,0.08623031,0.07665865,0.060972784,-0.005621725,0.036581997,0.07391852,0.08133106,0.102928124,0.054196842,-0.07165413,-0.059493415,0.036696937,-0.05913842,-0.1626932,-0.13229482,-0.038562812,0.17923196,0.10872494,0.08383721,0.03975911,-0.08989604,0.036425147,0.050984967,0.10410566,0.048608396,0.072733164,-0.022982765,0.054298915,-0.03330414,-0.020165173,0.042342175,0.045149297,0.04580757,-0.0184321,-0.20005211,-0.0041759587,-0.095443,-0.06396833,-0.119420916,-0.021858515,0.010417793,-0.09419845,0.035145596,-0.14008985,0.07927424,-0.030710064,0.024427978,-0.08825351,-0.022130849,-0.033210114,0.056765713,0.011559379,0.06747536,0.049118657,-0.08383979,-0.022741443,0.04697394,0.046091024,0.001387464,-0.17085367,0.04424555,0.10138292,0.032889977,0.041664936,-0.05766854,0.063018166,0.079667635,-0.03899879,-0.029022295,-0.059228335,0.03990815,0.003136472,0.046843424,-0.091982,-0.0067049675,-0.045893654,-0.036986772,-0.05141844,-0.08980013,-0.07494389,-0.07325888,0.03272374,0.0174304,-0.0019257489,0.0012330286,0.19122942,0.14029218,0.025786048,0.05930137,0.065328464,0.118107304,-0.0535509,-0.06066915,-0.1409709,-0.011341567,0.04579479,0.029378572,-0.07336306,-0.05364029,-0.035759103,-0.051768206,-0.053406812,-0.017479606,0.061606087,-0.092093766,-0.007647073,-0.0892646,0.01203606,0.044482272,-0.005559658,0.016241502,-0.06304159,-0.0063753137,0.0963069,0.033478465,0.11633519,0.01691853,-0.06033838,0.0350353,0.07323225,0.02839376,0.04501354,-0.0649825,0.22700618,0.034886964,0.053573236,-0.027725827,0.044966187,0.06914358,-0.05479615,0.027231034,-0.025706237,-0.017884282,0.08125585,-0.10121664,-0.049029924,0.051548757,-0.04577809,0.02684946,-0.06519176,0.07592897,0.016715381,-0.0039683473,0.06545504,0.04161551,-0.0158986,0.10749123,-0.026618714,-0.032161556,0.044064,-0.123478316,-0.017399523,-0.052546624,-0.023362115,-0.041002303,-0.044339217,-0.15622716,0.045235913,-0.09308959,-0.036037203,0.006214995,0.00964029,0.06066402,-0.018326763,-0.016637158,-0.083713874,0.018408127,0.064940356,0.045514666,0.050506633,0.019269891,0.15105326,0.011062021,-0.085338525,0.062647976,-0.0247801,0.017760344,-0.00049814535,-0.00032142588,-0.11311175,-0.020946503,0.034417722,-0.005525551,-0.009566187,-0.042312115,-0.02638294,0.01078496,-0.059133142,0.03677416,0.102807745,0.010956147,0.11250426,-0.01051738,-0.0244563,-0.096686825,-0.093488686,0.0073562213,0.14179368,0.086920924,0.19020124,0.11512222,0.02160126,-0.05011985,0.081138045,0.041826304,0.15969384,-0.017122487,-0.018415516,-0.08752088,-0.0416284,0.028336555,0.123881884,0.085088894,0.0064977305,-0.070900895,0.06917976,0.036364578,0.016941333,0.007964516,0.063815944,0.092366636,-0.009990165,0.0058333194,0.07496673,-0.033629213,-0.081126004,0.00788466,-0.054917376,0.014139909,-0.043571167,0.05340365,0.07895263,-0.12137285,-0.027190614,-0.011066745,-0.076556124,-0.055270933,-0.05254739,0.053434543,0.08033217,0.016967207,0.050417796,0.01013377,-0.053586062,-0.046137247,0.13095118,0.038647942,0.04758691,0.0814405,-0.16838105,-0.055511132,-0.10167917,0.008352518,-0.09729415,0.05940359,0.002320509,0.09006149,0.10415298,0.025125088,0.033399045,0.057352245,-0.005584455,0.118117616,0.0928403,0.10668303,0.0048848377,0.043085266,0.003715596,0.113185704,-0.11443663,-0.1515787,-0.100615166,0.07924405,-0.04568352,0.10809963,0.14420383,0.10145257,0.07827495,0.12278927,0.05362237,0.10304592,0.019426342,-0.026554627,0.0108056525,0.02459467,-0.00084462774,0.007805685,-0.021854838,-0.04618448,-0.006288595,0.072173275,0.009865026,0.024401506,-0.010922322,0.040525105,0.0138043575,0.055330645,-0.004593002,0.059163947,-0.23104335,-0.11615771,-0.021358546,-0.09145697,-0.053530168,0.07043083,0.11718413,0.016579827,-0.047855165,-0.05713025,0.0006532622,0.019268988,-0.090513945,-0.038563475,-0.045016296,0.034893453,0.028789084,0.040109303,-0.0080932835,-0.0605822,-0.08419762,-0.07575652,-0.028237792,-0.068851665,-0.012508917,-0.04606141,-0.059045713,0.09872665,-0.067975506,-0.09389492,0.035233602,0.116643555,-0.07352023,0.055936866,-0.038181573,-0.022518361,0.11145959,0.04914933,0.056262236,-0.032075975,0.017605642,0.06001521,0.052728698,-0.022022793,-0.06965132,0.028080301,-0.032355133,0.033588886,-0.017732417,-0.028106587,-0.22226244,-0.07507563,0.0037494986,0.00961023,-0.038290046,0.032327004,0.21908703,0.09665099,-0.013909902,-0.046818078,0.06993537,0.017288065,-0.02341254,0.016103882,0.045045435,0.027611066,-0.07443349,-0.0776525,0.020538384,0.21320914,0.10243563,0.097238004,0.013756402,-0.0072176945,-0.10151998,0.08443301,0.09911655,0.13974579,0.0025312142,-0.05856865,-0.068698406,-0.007746689,-0.04089173,0.07470688,-0.019869965,-0.0286403,0.0413518,0.060369056,0.06617664,0.1323211,-0.026307542,0.09470786,-0.03906799,-0.0106583955,0.107190415,-0.010015435,0.06559429,-0.049914397,0.033368345,-0.048286717,0.06822671,-0.04912345,0.04154056,0.09085579,0.12588064,-0.025316078,-0.040881623,-0.016205387,0.098697424,0.117967434,-0.0152428355,-0.0017437296,0.06116887,0.06621614,-0.033847634,0.011805395,-0.10910072,-0.012298827,0.04062631,0.01779747,-0.04599987,-0.03356385,0.043059446,0.081752434,-0.030022077,0.114307515,0.05539453,0.014496656,0.111002766,0.060906388,0.020651223,0.105344124,0.084202245,-0.044293378,0.0091942195,-0.11849288,-0.04730246,0.056379978,0.012544905,-0.042134758,-0.05761651,0.11190541,0.04656603,0.051100366,0.026273632,0.09696317,0.0932951,0.040805586,-0.023927076,-0.029870162,-0.06476556,-0.054567754,-0.004309279,-0.09908723,-0.06476648,-0.142031,-0.02863281,0.060496565,0.044878718,-0.045638617,0.071001045,0.09969216,0.12148447,0.07254974,0.016051115,0.0057810107,-0.038084097,-0.04648711,-0.010186605,0.019988274,0.009610703,0.016009435,0.08106345,0.0070436867,0.009522082,0.00085797434,0.07734085,0.03881413,0.07176665,-0.064032756,-0.113772586,0.098149955,-0.03637806,-0.014029801,-0.10758453,0.023386424,-0.029695326,-0.016499786,0.06220668,0.03996744,-0.018913547,-0.03509569,-0.009883814,-0.0008954188,-0.053306922,-0.018577257,0.07291246,0.019183507,-0.0769299,-0.11985247,0.035343353,-0.10043556,-0.19768414,-0.03569718,-0.081548996,-0.030043043,-0.095690206,-0.048831623,-0.12646744,0.0016057072,-0.036819942,-0.056143407,0.088645265,0.01282426,0.08533631,-0.02238035,-0.088252135,-0.04659844,0.0041879574,0.08728155,0.08029851,0.037650023,0.0014114641,0.10626752,0.06395736,0.0039547235,0.025985502,-0.08464709,0.09270963,0.111664765,-0.13945752,-0.08836427,-0.09707584,0.07090849,0.055018775,-0.030778112,-0.018595438,0.041561626,0.00536234,-0.08322839,0.06983,-0.005891274,-0.068751715,-0.07166567,-0.021465303,-0.050614763,-0.0077182637,0.00048230976,-0.07229021,-0.0026169773,0.043928944,-7.01612e-05,0.050064173,0.017618833,-0.034491573,-0.19519024,0.014305947,-0.061736878,-0.009651848,0.089787476,0.089055106,-0.0047598532,0.0007482769,-0.026199756,0.0096609015,-0.04870499,-0.05038885,-0.06585037,0.06721214,-0.053384256,0.0073109264,0.060278736,0.07729949,0.07581422,0.075743146,-0.047752235,-0.0103132585,-0.008730939,0.052838363,0.013424304,-0.06631425,-0.016082158,-0.08183058,-0.07253286,-0.06339263,0.13979939,0.030387945,0.040719006,0.07146799,-0.059649717,0.09175658,-0.024069889,-0.13163863,-0.14938705,-0.11834395,0.036472958,-0.08726094,0.1915639,-0.022506256,0.015680911,-0.010805414,-0.060008757,-0.013445874,-0.012214132,-0.0101004485,0.012934517,-0.0771817,-0.012114231,-0.11469107,0.052073147,-0.066001214,0.067728624,0.119624935,0.031460308,-0.015042613,0.0032381855,0.071854174,0.06426471,0.078248784,0.07214723,0.013961139,0.10103754,0.13954449,0.025752876,-0.027073627,-0.039814554,0.15890235,-0.0037922016,-0.051927857,0.025867628,0.12579654,0.0404959,0.09471479,-0.024595827,-0.06875249,0.095566064,0.032567054,-0.10465051,0.041069318,-0.060027964,-0.0777316,-0.051483054,0.0030402946,0.01236874,-0.08326939,-0.12059778,-0.027721379,-0.01759087,-0.014255777,-0.0177441,0.011852178,-0.09776208,-0.06843349,-0.065839626,-0.09673458,0.042659204,0.017364092,-0.04233221,0.035459355,-0.04413349,0.06791148,0.055125345,-0.038030386,-0.060651116,-0.034423683,0.033505715,0.153868,0.06347852,-0.026849272,-0.095166534,0.002661854,0.04325764,-0.13030185,-0.17439348,0.05353342,0.013677854,-0.006975284,-0.0288373,-0.0037848288,-0.0383556,0.028187377,-0.025055239,-0.11687524,-0.025307985,-0.017878009,0.114169985,0.14445178,0.10012888,0.004248329,-0.06089521,-0.041284826,0.0014129936,0.039008085,-0.06692375,0.00484253,-0.08776368,0.06547969,0.07812235,0.04872828,0.09280442,0.018759627,0.04682323,-0.0016985582,-0.039043434,0.10330271,0.12377467,0.049729414,-0.024958808,-0.017981939,-0.05342072,0.012888789,-0.0155893415,-0.084906,-0.003717554,0.019842308,-0.01671208,-0.12113771,0.024096856,-0.041580025,-0.027870618,0.04187366,-0.072460935,-0.087465115,-0.026578467,-0.036461443,-0.0013620267,0.02856976,-0.07924492,-0.06081455,-0.087889835,0.07037721,-0.013025953,0.04295986,0.038397625,-0.024556948,-0.024570415,-0.020434625,0.02969959,0.014101092,-0.024385964,0.04649562,0.02043656,0.007735931,-0.058344733,0.07543769,-0.009236062,0.1311103,0.0019142226,0.064403005,-0.017334504,0.15764625,0.024185872,-0.08802487,0.03459327,-0.021295208,0.07107069,0.024534907,0.03499263,0.038278606,-0.03526169,0.07346704,-0.099902794,-0.07314584,-0.016542414,0.079511166,0.07831096,-0.016321098,0.007365055,0.0061632725,0.18682387,-0.04959885,-0.058823787,0.009750067,-0.11128594,-0.06924845,-0.006180563,-0.062287066,-0.06634684,0.0021314838,0.10846325,0.037865296,-0.039677408,-0.07038603,-0.014213023,0.02940997,0.00022998296,0.12424566,0.101179,0.10667739,0.04354409,0.020810852,0.057393596,0.10290871,0.16930665,-0.12705897,0.0155745,0.027058398,0.074476905,0.05005457,0.046565812,0.010363405,0.08318663,0.07991491,0.06729939,0.00049606984,0.10066709,-0.03366047,0.03479525,0.045610633,0.059423357,0.12196848,-0.07933764,-0.1063001,-0.069430344,-0.1280974,0.16971052,0.10648057,-0.064917594,-0.12807746,-0.06004681,0.048442136,0.04967635,-0.03448983,-0.14714505,-0.14109391,0.031174775,-0.078962095,-0.012710319,-0.062055975,-0.04796502,0.09315965,-0.022378396,0.006413322,-0.08578339,0.0044637835,0.0071040546,0.092659324,0.08361593,0.15177271,0.0956122,0.054114386,0.08285593,0.022083728,-0.052441694,-0.055881187,0.040562153,0.044614363,-0.014698125,0.025468674,0.0066194944,0.12530807,0.04010415,0.024274636,0.0054640314,-0.016105397,-0.028120136,0.17747495,0.0049555185,-0.014719947,-0.06020956,-0.17861652,-0.08763454,-0.07207178,0.0029074724,-0.030410722,-0.009302126,0.15667006,0.10216681,0.04758125,0.20889966,0.009448406,-0.027048767,0.057001553,0.16522126,0.11052884,0.03395148,-0.06481412,0.04213387,0.060042184,0.03951142,0.084883854,-0.09238109,-0.1322748,0.026598666,-0.048668377,0.0041391067,-0.012744326,-0.040605642,-0.011103449,0.040159952,-0.027246168,0.006948298,-0.003863398,-0.007373606,0.07364391,-0.0036509621,0.0041687274,0.050269756,-0.06642337,0.15769635,-0.063266166,-0.06849238,0.014001235,-0.05226708,-0.0008529508,0.07553815,0.01430468,0.07965191,-0.06970398,-0.15402867,0.027283642,-0.014370194,0.04225484,0.042522613,-0.1321636,0.017235825,-0.13767087,0.025532993,0.1586719,-0.114635214,-0.029499514,0.03227435,0.046132177,0.052165825,0.0032655988,-0.09434561,0.012425107,-0.021935433,0.0726524,-0.00030899086,-0.031737186,-0.053686157,-0.074871875,0.04801045,0.06625995,0.00732261,-0.21073903,-0.12426143,-0.08344304,-0.19093251,0.14468803,-0.052360218,-0.108982466,-0.10203379,-0.103836164,0.09578602,0.0019114191,-0.034215715,-0.04476165,-0.004398479,0.12738982,0.02022234,-0.049162474,-0.034028046,0.028407536,0.013616905,0.010133979,-0.06646985,-0.018672664,-0.10656261,0.14741504,0.018059887,-0.093149476,-0.041155253,-0.018705798,0.10843909,0.08767808,0.06250302,0.030172149,-0.009169015,0.044557486,0.05763053,0.025246134,-0.005153587,-0.039068628,-0.0058242916,-0.043133162,-0.0025719502,-0.04640555,-0.048954412,0.038792916,-0.04604778,0.03094106,-0.035662998,-0.07661013,0.022528552,0.011316571,-0.027881874,-0.02211631,-0.04523849,-0.025800336,-0.08164091,-0.047381595,0.0483234,0.038839415,-0.09511856,-0.13362579,0.030073514,0.002878596,-0.063294284,0.010876702,0.0077710487,0.035337936,0.017810125,-0.01881276,-0.020949444,-0.026818674,-0.07563207,-0.07960228,-0.018986372,0.05630865,0.21251914,0.12287294,-0.0294978,0.057896752,-0.031795505,0.09982567,0.005255245,-0.034045644,0.0012298059,-0.006698634,0.1119453,0.11606846,-0.14722498,-0.119954966,0.026998635,0.061713405,0.06313179,-0.033347275,0.0021462436,0.019329138,0.050383423,0.1289125,-0.004644288,-0.021220556,-0.009725583,-0.08218562,-0.12587847,-0.0031408898,0.0016222276,-0.045411766,-0.07687395,0.017809926,0.049299154,0.056313727,0.08831659,0.011398102,0.032231804,-0.0039112745,0.0024752042,-0.002998206,-0.03543925,0.013416133,0.13537668,0.1357544,-0.006001718,-0.03153318,-0.048736863,-0.043396052,-0.016570143,-0.013378801,-0.13967994,-0.13927796,-0.1333614,0.036859695,-0.015144897,-0.06109586,-0.049005106,-0.0768881,-0.03779295,0.035074383,0.11418024,0.06321027,-0.03937752,0.024261478,0.05591349,-0.0027585567,0.055381067,0.014354309,-0.048650086,-0.030381052,-0.02889689,-0.028111171,0.01097187,-0.03474318,0.20470034,0.14688964,0.19948278,0.099611126,-0.006855276,-0.09532022,-0.04445701,0.026796177,-0.050252624,-0.06495138,0.16342546,0.04037304,-0.034511164,-0.062011015,0.028094765,0.096116245,0.0052661565,0.057084985,0.074571855,0.1233539,0.03720937,-0.07085886,-0.022750901,0.047534604,-0.0039784834,0.0036188753,-0.010048676,-0.012922406,0.05026475,0.0013293813,0.039649457,-0.035424694,-0.0399287,-0.024048816,0.103580914,-0.024450144,-0.14508449,-0.03067266,0.05443993,-0.0017710727,-0.11171295,0.0906553,-0.014154431,0.011607628,-0.02066563,-0.00061636046,-0.050560176,-0.060546268,-0.08011061,-0.1341673,0.012048888,-0.072576836,-0.066483125,-0.04203169,0.019041514,0.001108471,0.07671892,-0.036848962,-0.021144757,-0.033458423,0.15141422,0.13001151,-0.021999009,-0.02156941,0.110944085,0.036684122,-0.019655123,-0.03048214,0.037815418,0.06444914,0.0102943275,0.072543845,-0.02970053,-0.001666163,-0.026090132,-0.042046558,-0.21160349,-0.12733294,-0.06771369,0.04830758,0.00034688765,0.075268626,0.04486184,-0.012738195,0.03545962,0.07512088,0.0028634951,0.041430492,0.056361098,0.02902663,-0.043965816,0.03935423,0.013864826,-0.015289412,0.013307218,-0.00866476,-0.043365218,-0.063237935,0.012164579,0.07287089,-0.004197611,0.14202596,0.084957846,-0.0024198822,-0.05714663,-0.04015242,0.09515426,0.053449273,0.054649115,-0.10099325,0.016775496,0.05703697,0.13663828,0.13886175,0.044235736,0.036483284,-0.0027107708,-0.0048556426,0.097830065,-0.100223795,-0.009272203,-0.05317483,0.019604515,-0.031206269,-0.0336815,0.08666108,0.021909628,-0.073830396,-0.11856825,-0.12513715,0.0762362,0.10723502,-0.10468903,-0.14064182,-0.02796881,-0.06312376,-0.14119722,-0.010268811,-0.035908602,-0.008389442,0.031195292,0.00957483,0.03666775,0.036234137,0.034530442,-0.013575225,0.07658039,0.039191667,-0.0056975586,0.00014992902,-0.06600452,0.13535638,0.058637366,0.10872485,0.065027095,0.12779728,0.15463632,0.15326443,0.06104584,0.012042645,-0.0029060787,-0.031586867,-0.078718364,-0.017644241,-0.039633352,-0.04322448,0.057086755,-0.04457122,-0.06830233,-0.0435716,0.02199759,0.08243553,-0.0024920392,-0.020114072,-0.14771277,-0.23782302,-0.13287497,-0.13824806,-0.024078652,0.0064181034,0.058741573,-0.012731215,-0.1356807,-0.05257922,-0.020118114,0.01655897,0.053149298,0.014117711,0.16212822,0.21174365,0.0386245,0.009114748,0.16567092,0.11170164,0.123420894,0.043051608,0.0052039684,0.007140963,0.0068811406,0.017816678,-0.06804054,-0.0564544,0.021736994,0.088604614,0.01914316,0.113211975,0.03800551,0.0634653,0.06842061,0.10017866,-0.016297914,0.05748303,0.03010429,-0.02974872,0.023708453,0.020599335,-0.055205725,0.05066982,-0.029200943,0.024648016,-0.061738916,0.016555658,0.047670793,-0.09547543,-0.08398677,-0.04557863,-0.071409136,0.04274721,0.0054973364,-0.0984553,0.063412406,-0.12835567,0.03499915,0.1008248,0.012183364,-0.05761677,-0.036378697,0.063342325,-0.012714812,-0.12882517,-0.006071112,0.029823948,0.014343021,0.010090934,-0.01051899,-0.009551823,-0.057269517,-0.0091138445,0.0025313825,-0.019020889,0.00676691,-0.23654974,-0.20967984,-0.1798422,-0.054197613,0.17077725,-0.15165971,-0.031952623,-0.066604294,-0.022049058,0.044761963,-0.01182402,0.001019529,0.08862443,0.022211848,0.10751699,0.058886014,-0.00581685,0.10528927,-0.020424472,0.08496146,0.02430518,0.06625845,0.03404078,-0.034523927,0.12323807,-0.12924267,-0.20572282,-0.15078075,-0.00094561104,-0.038392454,-0.023071421,0.08731132,-0.009251788,0.0147002665,-0.02324994,0.042378757,0.026002115,0.07155083,-0.00035622748,-0.010198504,0.09848485,0.017224362,-0.016274933,-0.057435032,-0.051380496,0.026033843,0.061822016,0.060139887,-0.05907061,0.08598201,-0.019404268,-0.07149494,-0.08386153,-0.089777656,-0.044062402,-0.04757012,-0.039016727,-0.008707136,-0.0027079876,0.0095711965,-0.030950435,-0.13737833,-0.10210197,-0.104915544,-0.024767993,-0.10610389,0.028109984,-0.11113682,-0.024864271,0.023326557,0.09650361,-0.014154517,-0.08713781,-0.05523054,-0.024437597,0.0148412455,-0.18316172,-0.10827642,-0.018787583,0.054828472,0.017669722,-0.13600923,-0.020343844,0.015948612,0.018213406,0.058144134,0.019155266,0.12139483,0.14481992,0.034526028,-0.041267127,0.041816268,-0.06814767,-0.0032959925,-0.08692115,-0.03379611,0.1405949,-0.017898088,-0.06837901,0.005234231,-0.027094418,-0.12037321,-0.049677975,0.07616607,-0.09543425,-0.03397534,-0.12383261,0.03676798,0.11816114,-0.008672525,0.0018727812,-0.12925915,-0.13080469,-0.009763211,0.043937586,0.092699036,0.050210774,-0.07289928,-0.04234378,0.040591232,0.016751725,0.079992145,0.07381149,-0.08991415,0.13284722,0.015475483,0.030612782,0.036063053,0.019253714,0.019931925,-0.07041047,-0.04135302,0.02010077,0.06921488,-0.057241365,-0.081692174,-0.007516653,0.037943866,0.030082269,-0.11833012,-0.08313649,0.051683053,-0.00925646,-0.079106815,-0.04767262,0.055224188,0.08345973,0.050749026,0.012812501,-0.1242685,-0.05472472,-0.19372839,-0.012790796,-0.102704644,-0.011358908,0.03961267,-0.041192953,-0.03280753,0.069125645,0.080970116,-0.014636079,0.003636461,-0.060114786,-0.119511776,-0.14392929,-0.08079427,-0.045185074,-0.043020453,-0.10284371,-0.113541864,-0.05495378,0.050276116,0.062144563,-0.015958482,-0.04179337,0.0727234,0.08253564,0.08868994,0.005832785,-0.021540403,0.0004171661,0.027230237,-0.03344423,0.0058180834,-0.043395244,0.0056638904,-0.098520815,-0.06092928,-0.14792782,0.0029694359,-0.03765511,-0.0023538843,-0.005676419,0.00022377017,0.06573032,0.03786629,0.03185735,-0.05169484,0.08385499,0.038792644,-0.014468966,0.11270534,0.01796206,0.0593801,-0.07356765,-0.048965644,0.05676833,0.04884898,-0.039811812,-0.10513132,0.001417608,0.07476193,0.077590846,-0.015369074,-0.117559806,0.042131506,0.004629805,-0.026094468,-0.010181778,-0.016887948,0.023411363,0.08370931,0.040057804,0.0027044518,-0.07909546,-0.0033343425,-0.07155276,0.07087108,0.094973356,0.064031854,0.021127013,-0.0018157018,-0.031807333,0.11190443,-0.035826672,0.07069096,0.024677303,-0.012553314,-0.10070822,-0.043904632,-0.021228218,0.023504673,-0.11895288,-0.044212926,-0.010620854,-0.031590894,-0.01730324,0.006851764,-0.0059391786,-0.071820594,-0.022725182,-0.059079863,-0.07605155,0.111029774,0.025377298,0.08728,-0.09930233,-0.034036707,-0.003204312,0.047967598,-0.022663165,-0.010203342,-0.033598177,0.019759605,0.15835036,-0.15200533,0.027246196,0.06634653,0.12061855,0.01279246,-0.15153882,0.005959156,-0.059928752,0.11515576,0.020790966,-0.06486024,0.0566505,0.05291852,0.08463815,-0.069767274,-0.08227634,-0.047562033,0.031527944,-0.02296843,0.12343874,-0.09238257,-0.09277801,-0.021282226,0.011573732,0.11522255,-0.00152307,-0.067704976,-0.08214272,-0.16556239,-0.07326154,0.056366578,0.07014987,0.056209717,-0.10810945,-0.044768687,-0.10375698,-0.13832326,-0.080617964,0.027946081,-0.007080474,-0.050358105,-0.08369915,-0.08280728,0.060132124,-0.07769787,-0.09635562,0.041573305,-0.039981633,-0.018395584,-0.01398544,0.14007427,0.071491614,0.09308664,0.06366926,-0.0077493666,-0.011569783,