0.032699827,0.026841545,-0.15547377,-0.016718889,0.044034436,0.032670554,0.013376475,-0.069563694,0.032659493,-0.053614978,-0.015008861,-0.08351617,0.0881458,0.035971124,-0.08655776,0.07865806,-0.02978076,-0.063053995,0.061866056,-0.01708967,0.14026828,0.112576626,-0.07376366,0.07302125,0.009499746,-0.011917975,0.003692166,-0.116560645,-0.08853195,0.07395578,-0.0651921,-0.14315723,-0.08695474,-0.07394576,-0.016720934,-0.08794219,-0.10586163,-0.08016694,0.023696972,-0.009381702,0.041877776,-0.078877054,0.082959734,-0.017906772,-0.0023119047,-0.07234726,0.0025192208,-0.0077714697,0.03947774,0.032346703,-0.04689581,-0.016160466,0.12501776,0.10859027,-0.039115034,-0.01451207,0.10550262,0.103921495,0.15080978,0.08927848,-0.028933117,0.017820107,0.092761286,0.13900027,0.082051255,-0.054335337,-0.17819321,-0.22997198,0.018753951,0.019871986,-0.097971864,-0.15407898,-0.16392161,-0.22990657,-0.19084677,-0.09896527,0.011542603,-0.012856235,-0.036646828,0.05026015,-0.07410824,-0.052616872,-0.17229585,0.026942194,0.009524748,-0.008587944,0.024683155,-0.057252564,0.027550187,-0.029594373,0.016719848,0.09708655,0.11653627,0.024742335,-0.050238222,0.09548112,0.1640711,0.10794816,0.01675898,0.03301062,0.075009696,0.023404213,-0.02310722,0.078112915,-0.0024298085,-0.07877844,-0.065735444,0.118348286,0.13559751,0.090404175,-0.11395962,-0.08755337,0.040894147,0.038739912,0.1450355,-0.0066907513,-0.1001789,-0.11204231,-0.01376435,-0.04236096,-0.035944995,-0.071134016,-0.046652842,-0.10087353,-0.1448636,0.03896657,-0.02482313,0.038245253,-0.055693693,-0.037892528,0.023347301,0.03178322,0.039077397,-0.030802054,0.045688257,0.0750646,-0.006627237,-0.035451926,0.03579461,0.015503496,0.076369435,-0.10730953,-0.031270992,-0.02702183,-0.078228295,0.121504806,0.048040688,-0.047767945,-0.026966412,-0.14774936,-0.024108633,0.055789664,0.093927756,0.099102296,0.059457224,-0.05301334,0.045534156,0.016183311,0.16171405,0.13294208,-0.04710096,-0.12804572,-0.104080945,-0.042022396,0.06380856,-0.0052634985,0.03569959,-0.056609385,-0.040174868,0.04170428,-0.08413751,0.03982893,-0.09654571,-0.0803222,-0.15728602,0.02653801,-0.010412294,0.020978883,0.06417218,0.088047855,0.045711543,0.15525308,0.1308734,-0.044683173,-0.048074327,-0.027262704,0.028003091,0.005445445,-0.14767347,-0.14470252,-0.03390198,-0.05725957,-0.12581827,-0.15181015,-0.0809258,-0.021523131,-0.024064112,-0.04354526,-0.005350182,0.10328912,0.0107292505,0.079344764,0.017532898,0.028715312,-0.039324094,0.060099438,0.024494175,0.05235408,0.048834775,-0.01420079,-0.05491328,0.06804496,0.080204815,0.026193656,-0.03946509,0.01616917,0.049308714,-0.1374478,-0.09659493,-0.022954503,0.041542064,0.020384517,0.07439667,0.126108,0.12385414,-0.04593881,-0.056567945,0.035546437,-0.0038013426,-0.20288938,-0.13193782,0.014663978,-0.08000664,-0.172196,-0.18454145,-0.107959576,0.06960972,0.05013586,0.046817955,0.07071851,0.12032142,0.0977131,0.060931884,0.08951861,0.13933371,0.12186852,0.15584995,0.16748218,0.13055296,0.20196833,-0.023966089,0.0768002,0.107462235,0.00058244145,-0.08161825,0.0047115795,-0.035517752,-0.034832053,0.04226542,-0.044612605,-0.03876542,-0.122656584,-0.1368857,-0.08705836,-0.119896,0.023618924,-0.114612475,-0.07857573,-0.054367807,0.038862903,-0.024791183,0.057216607,0.020053273,-0.011674227,0.072549514,0.015846746,-0.021737503,0.09337822,0.09065639,-0.012495212,-0.03507052,0.10492946,0.044552375,-0.012952511,-0.0006644012,0.08060607,0.0363423,-0.14801246,-0.029189512,-0.1756513,0.12584248,0.059081882,0.04359779,-5.633276e-05,-0.009117052,0.16486606,0.16669627,0.18079345,0.08676747,0.08334253,-0.07960324,-0.03376229,0.06185821,0.0014603862,0.12959176,-0.0010705604,0.058511067,-0.01801812,0.011959384,0.037520193,0.05340638,0.11562222,-0.0558094,0.07152487,0.07448998,0.042871453,0.07747538,0.09293026,0.053949367,-0.008624605,-0.068634905,-0.048459996,0.011939237,0.0058329743,0.041247193,-0.05132599,0.071903326,0.052300315,-0.019634318,-0.04676966,-0.14764076,-0.13483357,-0.07806871,0.052428603,0.050222714,-0.24307205,-0.26014012,0.085543334,0.08626536,0.097632304,-0.2331827,-0.086429276,0.031156138,0.09391124,0.13416898,-0.06427877,0.15306105,0.12505277,0.118914865,0.04030252,-0.0437682,0.092932075,0.044140045,0.04327606,0.07486376,0.110166475,0.13292369,-0.027005909,-0.077923365,-0.029546602,0.17197938,0.11915629,-0.104329854,-0.04215232,-0.14753394,0.08856112,0.016578848,-0.08420037,-0.10204942,-0.0991022,0.085066944,-0.050062943,-0.18041053,-0.09562681,0.025729777,0.0013014409,0.043129537,0.064559795,0.05999436,-0.04728794,0.098715544,0.06935316,-0.02813773,-0.100874394,-0.07367356,-0.13012145,-0.09253381,0.030251944,-0.07595362,-0.11102939,-0.13296884,-0.112873755,0.049462896,-0.0474778,0.043327212,-0.051553566,-0.056568127,0.062124696,0.007864421,0.08678036,-0.098019265,-0.044156265,-0.018783528,0.11167082,0.10230097,-0.09826054,-0.010206764,0.010653566,0.06786148,-0.017582525,-0.074384175,0.06906557,0.033942584,0.023598816,0.015024282,-0.017072001,0.04423475,0.0069779903,-0.04253591,-0.065849915,-0.023717595,0.04888395,0.020686695,-0.07825229,-0.12598838,0.020667072,-0.07317357,-0.07186068,-0.02515209,0.060925566,-0.06344633,-0.046003405,-0.018696891,0.042252343,-0.06254794,-0.050401572,0.0059954673,-0.0030451205,0.09904006,0.009121417,0.05516981,-0.024344105,-0.009892256,-0.23276445,-0.023216583,0.10279734,-0.17084073,-0.22487842,-0.14796878,0.026328638,0.17539507,-0.017499086,-0.12423188,-0.12889296,-0.10627478,-0.02025596,-0.10140372,0.03182146,0.004605716,-0.15625349,-0.1043744,0.059226558,0.052643575,0.100793675,-0.08006741,-0.28630564,0.048266023,0.09409655,0.0097933365,-0.011673487,-0.104462355,0.05000067,0.01579594,-0.060769476,-0.1387542,-0.1995835,-0.09756172,-0.03905901,0.03171597,-0.0909855,0.032649696,0.026741914,-0.06754244,0.011596487,-0.010223398,0.035197835,-0.031116657,-0.037338182,0.022233333,0.059485503,0.062033337,-0.0064163487,0.06737103,0.056541093,0.024051493,0.0038941663,-0.014018014,0.14636718,0.09186951,0.111817874,-0.09434237,-0.016075345,0.006874682,0.062177572,0.08873682,0.051994734,0.014502367,0.14893354,0.16074437,0.056389138,-0.057776656,0.09244825,0.033370446,0.059082914,0.02111906,0.06900075,0.050699223,0.089892566,0.026562626,0.025182934,-0.008149067,-0.012336053,-0.02871239,0.024900364,-0.05263115,-0.04935952,-0.001530992,-0.013311208,0.059945844,0.096310146,0.09513274,0.09299689,0.08290259,0.13301729,0.08794942,0.16852367,0.049368646,0.07612331,0.122376405,0.20684417,0.18216957,0.0070698285,0.018083941,0.11190367,0.053858325,0.16349536,-0.12716118,0.023362342,0.033888865,0.019559665,-0.060020644,-0.007666022,-0.12700255,0.008631279,0.025400167,0.025472598,-0.043307576,0.03221318,-0.02282783,0.010444283,-0.0142885,0.007026346,0.09466556,-0.006387347,0.026089216,-0.029787183,0.121350884,0.06294954,0.067130685,-0.026597204,0.033419788,0.020703493,-0.07301504,-0.07085742,-0.123712905,0.11557042,0.07849903,0.11414059,0.04418806,-0.00090876606,0.06267933,-0.044586748,-0.058755457,-0.04893606,-0.11082215,-0.044407427,-0.14099003,-0.055504054,-0.02032302,-0.024674043,-0.17740254,-0.00020623619,0.12471506,0.0046652798,0.004448276,-0.09404447,0.051417757,0.07262651,0.06982408,-0.054468118,-0.07641636,-0.05115298,0.07268705,0.106968194,-0.00804558,-0.05963152,-0.14594564,0.027276626,0.040873062,0.081500985,-0.0046325885,-0.017392222,-0.06434974,-0.14329222,-0.09377305,-0.03326083,-0.06563915,-0.0001938218,0.024185264,-0.1299163,0.09187022,0.06356091,0.028825989,0.097732455,-0.02906207,0.048343875,-0.12685712,-0.07734953,-0.065260194,-0.060648497,0.0018917292,0.016017456,-0.20453301,-0.10579654,-0.027852127,-0.028942611,0.1091064,0.08869013,-0.09703839,-0.095013894,-0.22071008,-0.013079407,0.032064307,0.104946725,-0.123702325,-0.13124111,-0.1293117,-0.029311849,0.017427739,0.073345825,0.006791003,0.021528447,0.017739369,-0.053196996,-0.016927363,-0.0030270433,0.07788722,-0.000757071,-0.0789106,-0.008098016,0.06374657,0.08753117,0.08836523,0.051666662,-0.0041906196,-0.09191858,0.034322485,0.160667,0.20439449,0.066680595,0.022312343,-0.10892021,-0.20134565,-0.024387982,0.1639886,0.059308525,-0.00834526,-0.091783,-0.033075206,-0.12191686,-0.034907274,-0.04799166,-0.05074634,-0.013240929,-0.01996836,-0.1222475,-0.23643193,-0.07311681,0.020537358,0.006606956,-0.0067847027,-0.10621575,-0.054453358,-0.07540534,0.013638917,-0.07522692,-0.09269924,0.041598048,0.0010966145,0.059726093,-0.008679656,-0.06527721,-0.046149857,-0.016381338,-0.09449735,0.1208141,0.08481062,-0.045318786,-0.060154594,-0.058363385,-0.026158605,0.07909235,-0.029470555,-0.034390386,-0.032682348,-0.058537927,-0.059495687,0.030898219,0.06236581,-0.01151271,-0.0011943489,0.01562629,0.055604607,0.01663462,0.054187745,-0.021452358,0.0036364445,0.048990604,0.08014391,0.05476825,-0.032173216,-0.050980818,-0.016348068,0.053224422,-0.037597407,-0.06150236,-0.12716404,-0.09972324,0.039782748,-0.06210342,-0.14490826,-0.13572952,-0.044060748,-0.014043709,0.05150559,-0.02897435,-0.12888265,-0.0948444,-0.07063985,-0.048444513,-0.08647242,-0.028663032,-0.057424005,-0.036088903,0.059529785,-0.05263316,-0.033160977,-0.16330531,-0.039860584,0.015484543,0.04458806,-0.03738776,-0.108056806,-0.061747346,-0.06370673,0.00771656,-0.052679766,-0.010020009,0.021383528,0.09268594,0.122622706,0.10044532,0.09153945,0.05144321,-0.029805742,-0.018144112,-0.08744807,-0.04378455,-0.13912867,-0.052763026,-0.021790242,-0.09152531,0.00471278,-0.069371834,0.010232837,-0.11764031,-0.08886303,-0.037968185,-0.07412892,-0.03963985,0.08990867,0.11657663,0.123743065,0.007624394,0.042256523,0.18298282,0.058821034,0.10203594,-0.0033131063,0.15560278,-0.18335587,-0.16292797,-0.0751802,-0.01500473,-0.028730309,-0.008704165,-0.029428817,-0.017665626,-0.04223959,0.048821628,0.06829464,0.12978044,0.09386711,-0.1010871,-0.14490534,0.03634127,0.008418691,-0.013829202,0.058115292,0.054217543,0.10089151,0.05188964,0.08658361,-0.0060818,0.10239831,0.06462079,0.120034225,0.06034746,0.06056542,-0.11785898,0.08453093,0.09276901,0.02490994,0.08866434,-0.027111081,0.07576898,0.045281462,0.038353115,-0.009893153,0.0481551,0.12360398,0.08377324,0.039275523,-0.019190453,0.12620424,0.06966403,0.003360923,-0.10888491,-0.12467536,-0.0432475,-0.052906603,-0.031812612,-0.019603306,-0.11392378,0.052438837,-0.09796659,-0.11854996,-0.10607082,-0.12755676,-0.16279843,-0.031001255,0.027486352,0.029086541,-0.075465776,-0.10974354,0.070438765,0.12891366,0.0881274,-0.018063588,-0.06571586,0.108181834,0.14299038,0.13140379,0.017671837,0.027358584,-0.1375021,-0.052766822,0.01759351,0.0054520476,0.075877234,-0.028497076,0.06656452,0.061374772,0.038584057,0.02021869,0.017656732,0.044006713,-0.03756154,0.029997367,-0.14038034,0.010546955,-0.07809581,0.04194015,0.040914077,0.011262568,0.108895965,0.02082042,-0.06462376,0.01965408,-0.035046935,-0.028577583,-0.0067136865,-0.054613005,0.04323123,0.14692728,-0.059176516,0.070501916,0.17574553,0.10851199,-0.012351441,-0.04361071,0.031532247,-0.18969017,-0.27172107,-0.049820144,-0.13640225,-0.19506852,-0.025963709,0.16986498,0.28313637,0.055968147,0.12964095,0.13928695,0.034730453,-0.08321973,-0.012427585,0.05296837,0.056897838,0.035481136,0.029376809,-0.0795048,-0.020025613,-0.03627398,0.044511613,0.0352111,0.034351874,-0.024397885,-0.033001505,0.010751555,-0.036472477,-0.10442083,-0.07025656,-0.044198573,-0.13524067,-0.06252091,0.054670937,-0.044638403,-0.14746399,-0.03492378,0.057142265,-0.057853337,0.075891465,-0.033172794,0.0035307314,-0.0052295607,0.059433814,-0.006161193,-0.11296188,-0.01635464,-0.021071868,0.0062725157,0.054856125,0.082829244,-0.00018250696,0.013809237,0.011116577,0.057259943,0.12852366,-0.10573963,-0.1056112,-0.060613673,0.015010643,0.041668344,0.027181951,0.05563332,0.08682492,0.09884333,0.05777179,0.07912266,-0.022680035,0.09650635,-0.0058243675,-0.061130885,-0.10178044,-0.082295105,-0.116374,-0.08387718,-0.08309195,-0.026322372,0.04950193,-0.07231615,-0.025017949,-0.044584617,-0.020538617,0.13688724,-0.050106723,-0.03945313,-0.0054004597,0.07044729,0.041145597,0.08953908,-0.0204656,0.059113182,0.040748313,0.089429036,0.0141632715,0.035739835,0.13110623,0.0393499,-0.02043419,-0.0076477355,0.08379227,0.03964564,-0.080279075,-0.051987544,-0.08688216,-0.113259636,-0.044267505,-0.08453331,0.067098856,0.06040929,-0.024143318,-0.05720466,-0.07281894,-0.046879135,-0.08098773,0.07582762,-0.029288495,0.039679658,-0.01600525,-0.03208541,-0.025958054,-0.00321891,0.09108532,0.05708133,-0.072933674,0.079740785,-0.025726398,0.024233306,-0.14323688,-0.10765381,-0.14466655,-0.2248697,-0.1299772,0.06736965,-0.11389998,0.038815968,0.14959724,0.10867202,0.07852133,-0.045652974,-0.005618885,-0.06932323,0.13045539,0.1288761,0.06953023,-0.10592481,0.1103231,0.1169489,0.07054386,0.05182224,-0.007927267,0.032454267,-0.01121882,-0.070542105,-0.003917793,-0.04185325,0.07083826,-0.014043376,-0.05559632,0.030300107,0.03733558,0.0876471,-0.031584557,0.044095553,-0.003203977,-0.05713396,-0.016765414,-0.029654164,-0.00955275,0.1395827,-0.006420723,0.075845115,-0.047360726,-0.08550074,0.06851129,0.10000804,-0.00036948628,-0.035415035,0.044725787,0.10156773,-0.0051431647,-0.048508544,0.084186815,0.052269842,-0.021567624,-0.11148475,0.033046577,0.1900647,0.17745663,-0.12422309,-0.003669683,0.037829783,0.07635693,-0.12340211,-0.038672037,-0.030792983,-0.123393774,-0.06359045,-0.060196567,0.012362383,-0.15268989,-0.0126344515,-0.09600593,0.067208566,-0.041351564,-0.30767262,-0.090614565,-0.0138741275,0.13358362,-0.13848427,-0.20218875,-0.07902129,-0.05718869,0.014487547,0.01459097,-0.064213835,-0.077620864,-0.034749813,0.031786148,0.112301916,0.15471734,0.0858359,-0.022918928,0.01642428,0.10106624,0.19417351,0.0687086,-0.08704867,-0.101079606,0.079095036,0.1606754,-0.040762722,0.0774158,-0.016493289,-0.03919405,-0.023954611,0.11665931,0.1680319,0.108541496,-0.078452475,0.014799476,0.08016265,-0.085041404,-0.08623983,-0.013951385,-0.10249626,0.04337555,0.015270092,-0.13365772,0.03349797,-0.10009049,-0.01760859,-0.05956698,-0.025815394,-0.055887878,-0.06098382,-0.042109635,-0.026187077,0.054402452,-0.05840302,-0.046241365,-0.04296564,-0.04568333,0.024310675,0.05433213,0.082248725,-0.036639944,-0.03728911,-0.035194755,0.09848281,0.028586803,0.033749897,0.021159016,0.10196849,0.095038585,-0.08134361,0.122935705,0.08998833,0.0272417,0.004836216,-0.061237637,-0.005776719,0.033354767,0.14372888,-0.09180507,-0.11325231,-0.046007335,0.0670474,-0.039333872,0.010324469,0.0120710805,0.07102904,0.05619647,0.10253194,-0.06557934,0.068163,-0.07491969,0.008164691,0.14238647,0.13541092,0.014507241,-0.04489345,-0.049978625,-0.11734383,0.084356,0.14392786,0.07717957,-0.0849138,-0.011000825,-0.009024601,0.08701199,-0.06153277,-0.0045357095,0.06343842,-0.03510723,-0.067309715,-0.020138748,-0.14672056,-0.045827925,-0.07183985,-0.10994583,0.08055499,0.085700326,0.07094884,-0.08591859,0.031756323,0.04578181,0.11445808,0.060671367,0.07062092,0.0019933416,-0.0021847463,-0.1580393,-0.09485737,0.040954284,-0.09981161,0.04786835,-0.01134724,-0.07100141,0.025010487,0.025909359,-0.11574377,-0.048723895,0.05718053,-0.0050624115,-0.050084397,0.0105905365,-0.049608424,-0.03317158,-0.011311623,-0.15947285,-0.15018879,0.043720227,0.1799789,-0.1021183,-0.093512565,-0.090819724,-0.13567334,0.057529915,-0.053693812,0.030903364,0.114369854,0.16408029,-0.036362175,0.08302596,-0.039260775,0.03759638,0.09061323,-0.09155363,0.026095647,-0.032557856,0.03998773,-0.05918528,-0.048838444,-0.14824967,-0.10177272,0.100654416,0.017465046,-0.12373032,-0.020433722,-0.042185526,0.07702823,0.07335731,0.122753926,-0.088230416,-0.019123418,-0.06746798,-0.022180082,0.060626376,0.06052743,-0.045837943,0.048410762,0.093325526,0.09916246,0.050554547,-0.06771527,-0.01630534,0.07293099,0.08432693,-0.007781051,0.018695991,-0.09691602,-0.06565265,0.036403846,-0.014884397,-0.0064075706,-0.062775224,-0.1578359,-0.075216636,-0.010263251,-0.007370371,0.055192977,-0.008813288,-0.0573129,-0.12146143,-0.11859976,0.010076267,0.022690991,0.08920801,-0.036157154,-0.095197394,0.002582642,0.0042694025,-0.019595794,0.043045122,-0.010073451,-0.1300638,-0.15054408,0.08103469,-0.01405544,-0.027583344,-0.15938781,-0.122030765,-0.14381044,0.08854618,0.10425947,0.1186964,0.13940355,-0.053266857,-0.091597274,-0.11662666,-0.16291794,-0.050467886,0.038930967,0.07258722,-7.151287e-05,-0.071220905,-0.12234288,0.07176508,0.07920967,0.058948778,0.15530352,-0.0807564,0.09196728,0.09769434,0.027226865,0.069469176,0.0068143676,0.084411904,0.18693838,0.091569595,0.095871806,0.016376473,0.11189088,-0.050297633,-0.011545702,-0.13910295,-0.14540416,-0.008506704,-0.10364233,-0.07553262,0.080817424,0.033890948,0.04048783,0.0679559,0.10861632,0.18450251,0.13136537,0.023276202,0.08899612,0.080222435,0.147865,0.10619215,0.11048314,0.11811342,0.112288594,0.0032574227,0.021080842,0.112877995,0.08104272,-0.013158317,0.015735658,-0.05465959,0.064799316,0.11047929,-0.0063280384,-0.07931098,-0.08933549,-0.044950474,0.025236154,-0.08512318,-0.056726433,-0.021483818,-0.044806235,-0.10105757,-0.099000156,-0.10800578,0.050130915,-0.008993532,-0.090050355,0.041545693,-0.056688815,0.05608258,-0.061439555,0.05872729,-0.07608094,0.024304505,-0.075700946,-0.1624871,0.014094851,0.045258213,0.020824844,0.10084991,-0.15943927,0.10521388,0.0773357,0.16142233,0.0026172118,-0.02976586,0.10040215,0.100159526,0.076974794,-0.055763446,-0.07173723,0.08424109,-0.061320093,-0.08265587,-0.1610012,-0.030892227,-0.008430885,-0.028410226,0.027463585,0.107384056,-0.008508192,-0.11404288,0.037407704,-0.016073471,0.024161013,0.045876693,0.0063674613,0.016707804,0.06455152,-0.008667773,0.047565803,-0.10186975,-0.10309613,0.04847427,0.05332025,0.08740224,0.010015502,-0.037644982,0.0021121239,-0.050349947,0.047797386,-0.08027904,0.034102786,-0.037826207,0.032379873,-0.0019280842,0.029453442,0.03244714,0.04737581,-0.08943237,0.042979114,-0.0767555,-0.15105334,-0.05136821,-0.129499,-0.0217941,-0.03737372,-0.05447406,-0.1766693,-0.12225814,-0.08190672,-0.15521848,-0.06193676,-0.00041820877,-0.08403701,-0.047404993,-0.15961355,-0.0462327,0.030513108,-0.02565223,-0.10291837,-0.1025243,0.008847139,0.03540429,0.048866753,-0.007959294,0.017815521,0.0019137358,-0.023026666,-0.07163552,-0.10094875,-0.0047936034,-0.021897973,-0.074855424,-0.033029072,-0.09298477,-0.10742479,-0.11948798,-0.060577728,-0.0028681522,-0.05637072,-0.00030526708,0.08495441,0.0003958779,-0.027376855,0.02968261,0.06316544,0.104536496,0.11638317,0.05053175,0.067683406,-0.04382129,-0.055695295,-0.025646592,0.0784267,0.06232046,0.03945319,-0.023657462,-0.065991074,-0.011526207,0.09096953,-0.07455889,-0.042050567,-0.012653592,-0.085415766,0.006709024,0.11204659,-0.024726957,-0.085893854,-0.023255108,0.016513076,0.046048082,-0.0674142,0.044588424,-0.061943825,0.05791926,-0.059193555,-0.17287713,-0.07519681,-0.081806615,-0.03794486,0.05923891,-0.07980575,-0.06636894,-0.03821181,-0.05276684,0.026107416,0.015140187,0.002959476,-0.025415454,-0.037943497,0.01562779,0.06201904,0.1858444,0.25915113,0.19115202,0.15374714,0.08874415,0.13387401,0.18466938,0.09643219,-0.04681473,-0.019016918,0.01746381,0.11246019,0.13139671,0.004190872,0.039877735,0.062257696,0.11222439,0.11877207,0.006607786,0.084856294,0.03514339,0.17663941,-0.008718078,0.03471576,-0.0947835,-0.09662971,0.08699988,0.041133873,0.029858423,-0.052075285,0.045047738,-0.011740381,0.07122772,-0.114076346,-0.07875967,0.08208659,0.022388235,0.18027833,0.048129193,-0.03263646,0.08451307,0.12959234,0.1434587,-0.046302985,-0.03401787,-0.007768466,0.117816016,0.17717904,-0.05056597,-0.10570029,-0.11755371,-0.08591064,0.0021562895,-0.16171099,-0.088133715,-0.030889,-0.07587885,0.03672549,0.04771311,0.0033955902,-0.10588387,0.05624363,0.047847867,0.14034072,-0.061578754,-0.10999135,-0.04352327,-0.06993028,0.06063044,-0.048821617,0.052148104,-0.036805276,-0.023992442,-0.027606461,0.17285232,0.21051098,0.0042965473,0.1035689,-0.08767243,0.0039705923,0.11273918,0.019697042,0.01903292,-0.14165612,0.0258448,0.037878416,-0.020076659,-0.006640371,-0.12666212,0.09129483,-0.097708024,0.014283194,0.06662126,0.01042385,0.0750639,-0.059363656,-0.010666851,0.010914111,0.032633808,-0.0017726286,-0.053013854,0.007792101,0.0673866,0.028544173,0.04378964,0.07451546,-0.017609727,-0.061054807,0.116700865,0.03949106,0.05207106,-0.16778664,-0.02048888,0.11369964,0.06152434,-0.074915364,-0.066494964,0.14568229,0.11209702,0.03240133,0.07990688,0.02181211,-0.004400322,-0.08856485,-0.058754947,0.040712878,-0.14645572,-0.024706472,-0.08368203,0.0037798928,-0.14353627,-0.13836528,-0.049667254,-0.025734741,-0.051652253,0.03209566,0.13512291,0.07083301,-0.016533118,0.029464256,0.15900709,0.15952355,0.050580435,0.02266902,0.022213705,0.18469481,0.10788825,0.024468988,0.08429814,-0.18765594,-0.13962573,-0.11706028,0.05144169,-0.09407237,-0.13017122,-0.066527955,-0.02150941,-0.007680202,-0.054070313,0.030176893,-0.02117604,-0.030627547,0.039225668,0.087248325,0.023239251,-0.101720996,-0.115097955,0.013582569,-0.0018582877,-0.044498894,-0.08924618,-0.010113935,-0.055877745,-0.004916346,-0.10956959,-0.009639097,-0.037888218,-0.08437515,-0.055472486,0.00057632517,-0.018163256,0.07020674,-0.10259605,0.07172406,0.073104925,-0.014383075,-0.013765624,-0.022726921,0.039996333,-0.04448303,0.03487488,-0.07757059,-0.041064978,0.03972477,0.08381169,-0.07687844,-0.05229761,-0.10112642,-0.018250113,0.04864861,0.20810829,0.1378791,-0.050798178,-0.10382734,0.074336,-0.06928789,-0.022677723,-0.07399153,-0.10030558,-0.004899142,-0.1815463,-0.09151472,-0.09382889,0.00043872505,-0.10005488,-0.153437,-0.00559297,-0.044706777,-0.09318581,-0.03598194,-0.05777107,0.051693898,-0.026035313,-0.05390834,0.005981284,-0.055493172,-0.0045293192,-0.027448416,0.0036374056,0.10022426,-0.020013364,-0.009720165,-0.11653646,-0.0071858913,0.016299585,0.07232951,-0.100195654,-0.008000684,0.01318085,0.070901476,0.19408455,-0.0003024984,-0.01334618,-0.07898061,-0.04307361,0.0092883315,0.01958935,-0.15275355,0.037779465,0.15908633,0.02963498,-0.10071037,0.09537213,-0.13355854,-0.13004419,0.09621241,-0.124818645,-0.044371907,-0.27042454,-0.31575653,-0.07359625,0.026670262,-0.027258046,-0.011374337,-0.09322214,-0.13490394,0.070328884,0.05816278,0.15979366,0.08572441,-0.029011799,-0.018852504,0.04495949,-0.07368085,0.036398746,-0.08292576,-0.13973501,-0.1341921,-0.016398631,-0.011541305,0.031797256,-0.062188968,0.002985014,-0.09291143,-0.062363908,-0.007563467,-0.016361644,0.13190073,-0.0043255086,0.019379124,-0.040028907,0.030732086,0.06266699,0.09141586,0.14234103,0.050324917,-0.027518276,0.027635105,-0.07790578,-0.076224685,0.068325706,0.12413818,-0.06191454,-0.0008156702,-0.07267914,0.027174128,0.007388956,-0.042904712,-0.07374196,0.015269292,-0.122558676,0.001937364,-0.008071556,-0.12722424,-0.09802059,-0.053738378,-0.025980473,0.039910972,-0.12440408,-0.071496345,-0.06377121,-0.055348136,-0.03348806,-0.053572215,-0.0285042,-0.10302571,-0.07706034,-0.05888436,-0.0386446,-0.06352188,0.05969593,-0.116181284,-0.03293276,0.09210777,0.034750048,0.023044312,-0.0017537678,0.008965126,-0.05063526,-0.023938447,-0.10678807,0.017776484,0.07351316,0.02614985,-0.059696082,-0.018570982,-0.037765972,0.016457487,0.016244529,-0.098134786,-0.16247822,-0.25801694,-0.11652312,0.056448203,-0.026789922,0.030488964,0.03293547,-0.07732987,0.052521415,0.040778805,0.05014652,0.027624993,0.016817074,0.20668814,0.04772211,0.094358295,-0.06658555,-0.11443889,0.1002046,0.13215065,0.061156087,-0.035456058,-0.026732087,0.0035506876,0.08082404,0.12551492,0.13357502,0.10566837,-0.016034266,0.17210247,0.15798204,-0.014234826,0.026531598,0.10459521,0.08144488,0.14594813,0.21525487,-0.02681548,-0.028600447,-0.03002354,0.027073996,0.15729603,-0.107219905,0.032829497,0.009434495,-0.11146894,-0.036784586,-0.027400369,-0.04342491,-0.19229351,0.029329756,0.03937741,-0.010074445,0.054152552,-0.123427436,-0.09806095,-0.06519439,0.045329817,-0.027298013,-0.05733971,0.03812823,-0.003277964,0.07416203,-0.038712397,0.06814649,0.009221132,0.09480362,-0.00027226246,0.007285928,0.071594514,-0.05550591,0.07097501,-0.10192774,0.0681345,0.036191557,-0.0665898,0.052512415,-0.065199144,0.057164416,-0.016387885,-0.117986195,-0.051802218,0.07065321,-0.011477995,-0.101953976,-0.09315466,0.06807884,0.08508877,-0.028689189,-0.13151695,-0.08852958,0.026619673,0.09243927,-0.12225663,0.057425182,0.03911117,0.05341347,0.051797908,-0.06757149,-0.08565943,-0.15639861,-0.03543892,0.030246897,-0.08588318,0.042240646,-0.124225006,-0.08397009,-0.060439225,0.07622255,0.06409347,-0.030352976,0.0039573675,-0.024842061,-0.064551495,-0.08732748,0.029501403,-0.15877652,-0.038701218,0.052601505,-0.11415571,-0.06583523,-0.10408266,-0.12817284,-0.19182578,-0.08089615,-0.02099258,-0.059201058,-0.03534059,-0.08846546,0.031686466,0.055043485,0.07807864,0.057695605,-0.058467053,-0.055229686,-0.048972264,0.14493099,0.08313362,-0.022141919,-0.010122744,-0.0010721483,0.056370635,0.056993905,-0.107562415,-0.060950737,0.078686096,0.06374269,0.04082061,0.024287112,-0.035463043,-0.010191209,-0.056177903,-0.0004989019,-0.021486396,-0.017739998,-0.0032640737,-0.06554741,-0.06680571,0.032248735,-0.014938267,-0.09603268,-0.18034266,-0.058304463,-0.06356787,-0.20408778,-0.19705552,-0.061255317,-0.131787,-0.06604634,0.056617584,-0.107797615,-0.08703961,-0.14643516,0.18000336,0.03678734,-0.06919024,0.018638883,-0.0034712176,0.06857771,0.10377581,0.07426292,-0.05641523,0.011341585,0.09530594,-0.0090957,0.10619929,0.09748455,0.0041143363,-0.078455724,0.081679635,-0.024200886,0.029207679,0.05180436,-0.019513393,0.050252743,-0.10935395,-0.019552285,-0.060849924,-0.028937802,0.0839024,-0.05667155,-0.008177389,0.10758132,-0.1714659,0.0541161,-0.094950646,0.0014785744,0.011401061,-0.08389252,0.060312852,-0.10673113,0.00097023323,-0.043896303,-0.17604497,-0.08004726,-0.054666825,0.07016638,0.09364369,-0.008148467,-0.05677602,-0.045241013,-0.066420704,0.019503258,-0.009426069,0.010230543,0.08414217,0.057617355,0.10263639,-0.033731323,-0.14624879,0.026442671,-0.07212209,-0.0030166174,0.10999074,-0.03120242,0.029070113,0.090815045,-0.07604509,0.03511558,0.078576565,0.111177616,-0.043047946,0.0351324,0.04686527,0.13634025,0.0014941156,-0.09104252,0.06642481,-0.038430784,-0.11585935,0.029981378,0.04247004,0.07126032,-0.11980328,-0.09543272,-0.01254201,0.02711272,0.013681683,-0.07372405,-0.13501702,-0.11415177,0.03887447,0.086852424,-0.11834538,-0.225293,-0.1797799,-0.06278007,-0.07732995,-0.00019734059,-0.20237575,-0.1161627,0.07456051,0.08894236,0.00090145424,-0.18229343,-0.20337863,-0.048129898,-0.14913583,0.027396314,-0.0730632,-0.11329521,-0.06567852,-0.10875336,0.08716171,-0.05476095,-0.032223474,-0.022341182,-0.0809642,0.14975612,-0.017260814,0.007712173,0.058964934,-0.02710665,0.10226891,0.022702998,0.02626177,-0.006165845,-0.04160829,0.0049413536,0.026370445,0.07052569,0.065347634,-0.025619468,-0.05831994,0.025034657,-0.02390956,-0.16468184,-0.20185332,-0.013653999,-0.06614683,-0.0599433,-0.06804703,-0.087838165,-0.017308105,-0.0393845,0.10974406,0.08422545,0.0858644,-0.109742165,-0.038280487,0.06990914,-0.09544692,-0.2078735,-0.09174159,-0.17544568,-0.1237389,-0.08675061,0.08998743,0.08522368,-0.16384828,-0.1498523,-0.01378721,-0.024191065,0.13676089,0.08403097,0.013574008,0.06468785,-0.0060909544,-0.0031206566,-0.16553685,0.09527327,-0.027628582,0.017382616,-0.1208419,0.022961313,0.19215466,-0.037419006,0.024350146,-0.118080564,0.078453705,0.14278753,0.12041137,0.08779825,-0.0034713987,0.09854694,0.005149548,0.07218133,0.024145095,-0.10688643,-0.022373464,-0.13670294,-0.079136714,-0.020523317,-0.0019320482,0.027686115,-0.10579698,0.00013955284,-0.037947513,0.037171274,-0.072114326,-0.12899189,0.045440156,0.0714404,0.021069206,-0.029541839,-0.030327026,0.103163496,0.12151851,0.016357299,-0.032125935,-0.10361182,-0.08188484,-0.028149696,-0.017437384,0.027801864,-0.004726842,-0.15340441,-0.11437283,-0.036178455,0.053300742,0.06133448,0.12929326,0.14133544,-0.022047874,-0.079307064,-0.026463408,-0.050489664,-0.012367779,0.1028172,0.04975031,0.072522946,-0.04891644,0.036442287,0.061907873,-0.023638885,0.0036952512,0.083045304,0.08384591,-0.022471076,-0.012108881,0.06525084,-0.042169522,0.03916262,-0.07035958,-0.00721615,0.081545316,-0.029141434,0.013075598,-0.0439652,-0.0030476148,0.09977796,0.019984009,0.0629435,0.029992692,0.0029973546,0.020808605,0.09103554,0.07481567,0.02713067,-0.06357737,-0.0031843157,0.0497751,-0.015098553,0.04772148,0.007839156,-0.036538873,0.083607234,0.08795142,-0.057686042,-0.04115584,0.0010165144,0.028630001,0.03962279,-0.15405497,0.028640294,0.035797387,0.08271862,-0.013772323,0.005249192,-0.021283515,0.10359739,0.071160875,0.11725328,-0.05599868,-0.04607595,-0.112981625,-0.108115405,-0.15395351,0.033322465,0.115242526,0.023793167,0.002629792,0.05792186,-0.0109451,0.18469319,0.19087198,0.084055565,0.22042072,-0.13401069,-0.124129005,-0.06442471,-0.0076076617,0.10084353