-0.0038751706,-0.013805163,0.03344614,0.012877857,-0.02968868,0.023975877,-3.0887382e-05,0.04873412,-0.001215149,-0.0073469253,-0.022102246,0.035748243,0.0087217055,-0.0152536705,-0.031107577,-0.044603225,-0.008079586,-0.046438485,-0.014296609,-0.03386383,0.030370727,-0.0070520584,-0.049195547,0.03141255,-0.033056486,0.041091654,-0.034785222,-0.028199086,-0.02102068,0.047698468,0.010494115,0.0032432077,-0.017501777,-0.0034925223,0.022334395,0.030584129,-0.011029078,0.006863202,0.016130509,-0.041226942,-0.004985674,-0.028993592,0.052066933,0.018844556,-0.012591439,-0.04109822,-0.03914751,0.032466896,-0.0131949065,-0.016179815,-0.022732068,-0.039058987,0.029109051,0.0014512998,-0.004909758,0.041171603,0.036614127,0.037311215,-0.022298936,0.013392093,0.018311366,-0.03547098,-0.023625016,-0.04443196,0.038284454,-0.033010837,-0.028846588,-0.023047948,0.027345702,-0.028539995,-0.035955712,0.026134431,-0.009791279,-0.03297804,0.006019056,0.036478348,0.051309202,0.043375265,-0.0055993292,-0.011655065,0.025492966,0.013588036,0.019432103,0.02477056,0.033484563,-0.013800719,0.04445854,0.031540953,-0.0054247463,0.036777012,0.0112566715,-0.003563935,-0.0024354116,0.044863645,0.02776728,0.027215194,-0.020007469,0.0013174735,-0.024259577,0.020370547,0.015420987,0.044083133,-0.027562125,0.047693413,0.0031387282,-0.036665805,0.04511796,-0.016164478,0.012765083,-0.04658951,-0.024568738,-0.045289416,-0.001080284,0.017008254,-0.031323045,0.039085306,-0.0036574479,-0.006710893,0.023174632,0.013301518