0.094271675,-0.1645788,0.14202955,0.025816152,-0.076168194,0.1666357,-0.08073517,0.015878964,0.14490877,-0.15606938,0.24369073,-0.22705325,-0.20777997,-0.0041094976,0.0449114,-0.120189525,-0.20640925,0.02914075,0.23559871,-0.061355267,-0.07651383,0.080775894,0.10923084,0.1505038,-0.0734154,-0.026749205,-0.16387933,0.18762475,0.12465817,-0.19775902,0.011850355,0.2268505,0.0640713,-0.14375146,-0.12091775,-0.13270965,0.03696134,0.2280218,0.044019725,-0.2500027,0.0008132281,0.069462836,0.035725616,0.21806106,-0.1795247,0.036639314,-0.08716487,-0.07005573,0.23840407,-0.079166666,-0.1680909,0.009603917,-0.23902549,-0.13067861,-0.049059726,0.16797867,0.15819748,-0.11148561,-0.153869,0.12415976,0.08954108,0.26999047,0.1490114,0.19648483,0.10257236,-0.16742775,0.14337935,0.14943863,-0.05510276,-0.122927114,-0.28168958,-0.05686945,-0.010270808,-0.03158498,0.06413488,-0.06954457,0.1597999,-0.23625411,-0.3063635,0.06224749,-0.0639007,0.12018096,0.03252423,-0.14022788,-0.09987349,-0.03526399,0.06956172,-0.18259968,-0.22792518,0.016699199,0.12257916,-0.004098047,-0.13972864,-0.15713905,-0.03819749,0.1608346,0.120499164,0.048024315,-0.2123068,-0.20161322,0.00016696194,0.105327465,-0.08627648,-0.1557818,0.08607225,-0.07383222,0.0855679,0.16985878,0.1518642,0.012362987,0.010520672,0.047725126,-0.11341152,-0.023500513,-0.053920034,-0.14483112,-0.040196255,-0.0042242287,0.52377117,-0.03321729,-0.006767624,-0.028791739,0.13406958,0.3665969,0.1397256,-0.30361804,-0.050759017,-0.19429134,-0.18527444,-0.24835874,0.0247122,-0.13860565,0.007773442,-0.08188746,0.12086087,-0.07211303,-0.04537206,0.004088453,0.10596635,0.21647818,0.0032144652,0.12218361,0.046488248,0.05374173,-0.0013663995,-0.11478319,0.036571544,0.06672101,0.076288894,0.07539916