-0.11104853,-0.1087159,-0.13215987,-0.014700485,0.06562128,-0.08898114,0.010710608,0.013857466,-0.10114044,0.16531976,0.028831135,0.0639352,0.062372707,0.06806803,0.12787859,0.007137907,0.029790498,0.13628855,-0.005291324,0.035121758,-0.011748731,-0.009612379,0.009029534,-0.05338043,0.013301518,-0.16596268,-0.23424308,-0.11097772,0.061897673,-0.023263175,-0.09883185,-0.09851589,0.038952906,0.0756819,0.046352368,-0.08652246,0.079249606,0.026320076,-0.009455686,-0.07080702,0.028260145,0.1251103,0.053131983,0.012911875,0.06292791,-0.0005477034,-0.017715445,-0.063517906,-0.09688028,0.009245788,-0.106765285,0.032507837,0.017704476,-0.08173697,-0.09693768,0.018036392,0.1267156,-0.032405168,-0.054535225,-0.07547497,0.026293367,0.013814611,-0.019253103,-0.043680765,0.05256655,0.09238599,-0.054989226,-0.02664096,0.11783417,0.051310662,0.104036145,-0.006044344,0.08054525,0.02649752,-0.14626332,-0.07341284,-0.050690237,-0.083657466,-0.035020273,-0.0076059382,-0.010133463,-0.0032782773,-0.03363067,0.085080065,0.08237263,-0.010939262,-0.047235847,0.0959472,0.010966742,-0.03491514,0.0734746,0.027734127,0.10834037,-0.0428971,-0.14174767,-0.0097456435,-0.14280537,0.008716557,-0.015449606,-0.030005159,-0.07711074,-0.018458756,-0.040414806,0.07235766,-0.048936475,0.008992202,-0.10028517,0.07442766,-0.04705522,0.13326408,0.080357015,0.04322962,-0.0029150296,-0.043995358,-0.07784098,0.014686969,-0.10378084,-0.040013205,-0.08276274,-0.1298548,-0.08912648,-0.0025303091,0.022795266,0.13071725,0.014324425,0.089429274,0.008386512,0.118291155,0.007046924,-0.08901423,0.02160745,0.0095603,0.09388905,0.0016358726,-0.12797564,-0.04096359,-0.040641915,-0.1450766,0.0076881787,-0.055577826,0.020606233,0.0016937432,0.014833544,-0.00035987629,-0.023388673,0.028703157,0.009336585,-0.06212232,0.13928634,0.09014784,-0.07270913,-0.070973404,0.001110989,0.05720416,0.11644847,-0.057796493,-0.009594729,0.04650545,-0.03133207,0.08011451,0.0059103933,0.11209101,0.019004624,0.020622551,-0.014133115,0.002964571,-0.02707405,-0.01307412,-0.035779268,0.03089319,-0.06461932,-0.14530864,-0.012150556,-0.072419114,-0.06862615,-0.09646671,0.11279385,0.008227788,-0.10608336,-0.080433495,-0.023375569,0.06573111,-0.011026512,0.08295631,0.017943164,-0.13675548,0.02139509,-0.030644683,0.11835011,0.06602017,-0.026079906,0.020551689,0.16184366,-0.047071714,-0.049827192,0.22079249,0.13202262,0.16261426,-0.013458467,0.045739315,-0.06756866,-0.17124632,-0.011028615,-0.031222695,0.0019322196,-0.008697996,0.06562956,0.016661093,-0.024288636,0.0060924753,0.08468678,0.056606468,-0.03863522,-0.017705915,-0.099126905,0.008532611,0.10431969,0.022298254,0.07409292,-7.9728015e-06,-0.0252938,0.03206376,-0.001470333,-0.033849932,0.008435704,-0.0026134169,-0.03614219,-0.15663902,-0.106310904,-0.0679136,0.0971258,0.020550832,-0.067565896,0.090527035,-0.097699985,-0.06509943,-0.0076107737,-0.01937411,-0.032803252,0.0052665835,0.04249038,0.04007732,0.06194389,-0.012097977,-0.029891549,-0.1313437,-0.02271765,0.0654298,0.0067431927,-0.0026858596,0.19850762,0.06754895,-0.13246109,-0.11095285,-0.07154087,0.09062221,0.09359898,-0.04341242,-0.11359015,-0.04330703,-0.13037871,0.07446992,0.07206621,0.016251776,0.00058214,-0.10928074,0.07911667,0.07800332,-0.013394034,0.05764986,0.058514353,0.094058126,0.118376344,0.0008938014,-0.05533309,-0.054925825,-0.06056385,0.09596176,0.066622704,0.025904596,-0.06857131,-0.038772315,0.06791449,0.040264767,-0.036814697,0.07323533,0.01408904,0.04333144,0.009229357,-0.036582112,0.11181905,-0.006021672,-0.10264434,-0.10735616,-0.098576315,0.041232705,-0.0033609986,0.004628435,-0.047972806,0.1492892,-0.0007036174,-0.026962759,0.041903496,0.0658975,0.1927465,0.055759594,0.1209895,-0.06902515,-0.0064963303,-0.09063474,0.002377058,-0.11000524,-0.11829967,-0.11716173,-0.035664923,-0.06108979,-0.03845566,-0.029914334,-0.062189993,-0.02285181,0.049288515,-0.1010987,-0.044226967,0.024938669,-0.08300981,-0.12976976,-0.04367198,-0.113054775,-0.124577,-0.15873827,-0.08952639,0.030912228,-0.06375416,-0.0009690665,0.006742534,-0.021699263,0.052523367,-0.07623256,-0.045356352,0.032756183,-0.11370783,-0.007177531,0.010681469,-0.14588156,0.059531953,-0.045543432,-0.012067049,0.05575104,0.00096810557,-0.02771943,0.001232561,0.020397559,-0.030616613,-0.012893303,0.009466875,-0.106980495,-0.036959745,0.024365935,-0.116699584,0.06594279,0.042387757,-0.017106958,-0.0037147638,-0.04056736,-0.0103294775,0.03332213,-0.025423525,-0.08367311,-0.123341694,-0.12797755,0.0064728227,-0.03047562,0.029733391,-0.118749484,-0.0783005,0.012274371,0.010920355,-0.024077363,-0.04388136,0.06448494,0.07959115,-0.0520133,0.012680851,-0.13783269,-0.013887206,-0.08468238,-0.016096063,0.07657075,0.16274087,-0.0805375,-0.046745565,-0.12075151,-0.004972822,-0.022675265,0.0107448455,-0.11834849,0.09662244,-0.020752896,0.0032712182,-0.017445996,-0.03538295,-0.06227097,0.029620543,-0.0062892805,0.023159677,-0.12264741,0.016892806,0.0067845453,0.053545117,-0.051868543,-0.039609373,-0.027066177,0.05543797,0.08951815,-0.0058015464,0.05821318,0.10852248,0.0877663,-0.014280472,-0.029877778,-0.0831867,0.0083402535,0.066014886,0.07172965,0.18511704,-0.03566145,-0.018033585,-0.025832383,0.048058897,0.00040776358,-0.11288261,0.0604863,0.03857868,-0.043544844,-0.1439774,-0.046969008,-0.0292598,-0.055514388,-0.15312988,0.014053941,0.09185001,0.093585804,-0.055182416,0.031263124,0.08145966,0.10136557,0.1783536,0.07171731,0.05697537,0.06938658,-0.06997354,0.06577552,0.10379745,-0.06464259,-0.08121686,0.10651862,9.0410176e-05,0.067930974,-0.06632806,0.04330597,-0.05493864,0.07263423,0.07165578,-0.028458105,0.0042418535,0.047944468,-0.02886108,0.020581469,-0.029398816,-0.08232886,0.07218341,0.031698514,0.15288016,0.018355358,-0.08989659,0.1292713,-0.0015547323,0.11764271,-0.037211776,0.016022198,-0.04156553,0.03920576,0.0010433733,-0.068059504,0.0681403,-0.012613045,-0.06476798,-0.061941158,-0.015296292,-0.058949694,-0.115745336,-0.015682079,0.06801368,-0.06613495,-0.089007124,-0.04145847,0.05352837,0.0424597,-0.04584721,-0.083704576,-0.06879597,0.0019562622,0.028636586,0.038975164,-0.027692502,0.046097305,-0.051213548,0.051891297,0.018595781,0.11162093,-0.10596873,-0.037076145,-0.03951,-0.13211279,-0.07625323,-0.07656472,-0.025127608,-0.08984901,-0.08939559,-0.11725007,-0.17406335,-0.09557981,-0.08260646,0.011477665,0.1606831,-0.0472228,-0.008630599,0.058974724,0.081441045,0.036001608,-0.024506887,0.0073133027,0.040641215,0.09217948,0.11011479,-0.15076967,-0.10889026,0.008633985,0.068532765,-0.07573498,-0.095151186,-0.07148555,-0.09551593,-0.056928724,-0.07861732,-0.042510506,0.09170432,-0.014346506,-0.056546737,-0.0036239245,-0.067174755,-0.10874435,-0.11677149,-0.076200075,0.019399455,-0.081394866,-0.003543195,-0.06477304,-0.15021391,-0.0067196027,0.015201635,0.015984317,-0.056267142,-0.0277861,0.04897794,0.066413455,0.050861992,-0.011543694,0.09402749,0.018873937,-0.054536622,-0.034372307,-0.0009241447,-0.09294611,-0.0011290447,0.11331495,-0.05822953,-0.0660117,0.066718966,0.07889609,0.04084147,-0.07090056,0.013734367,0.09415498,0.018277964,0.04720411,-0.113631964,0.020118143,0.08342591,0.14743124,-0.005584363,-0.13192281,0.00094590476,0.007766382,-0.04060664,0.07192543,0.10997267,0.011287404,-0.043971844,-0.053691607,-0.020691413,-0.0150008,-0.058715023,0.024315702,0.03835404,-0.017400755,-0.062125187,-0.040584747,-0.08038439,-0.100472,0.046191268,0.0026224619,-0.09196658,-0.08236941,0.014905054,0.106041856,0.050438657,0.019790785,0.05210134,0.08955089,0.033705212,-0.05213702,0.13288635,0.06542476,0.0069586216,-0.027771788,0.12128312,-0.052220292,0.06714286,-0.014416428,0.04616217,-0.01183385,-0.07620076,0.017018449,0.04151594,0.09413572,0.0420657,0.055207726,0.07390996,0.12583332,-0.005345544,-0.008745103,-0.021767247,-0.040837415,-0.03343364,-0.05738125,-0.0024378304,-0.021022636,0.0916604,-0.110941276,0.0065921843,0.07311458,0.073423356,0.15347034,0.14197882,0.104965344,0.10214464,0.03863003,0.073740155,0.015106682,-0.023735829,0.027386444,0.020606678,0.07241406,-0.02724755,-0.056696683,-0.053009067,0.0053206184,-0.0777024,0.0059727975,-0.0040019033,0.0011798526,0.071571566,-0.014577866,-0.1916289,-0.13384049,0.04105851,-0.00759622,-0.021066578,0.02387303,-0.032860268,0.049801704,-0.049967457,0.07803021,-0.07687734,-0.021134844,-0.097996056,-0.06204858,-0.0983676,0.040400386,-0.021227157,0.006375261,-0.060092393,0.09384994,0.06780774,-0.20211661,-0.030635683,-0.13939519,0.06424625,0.110062666,0.028491724,-0.04931245,-0.0132881375,-0.10329842,-0.024732284,-0.014980424,-0.07602912,-0.010278846,0.0050249984,0.07633783,-0.060684364,-0.025698172,-0.03539694,-0.10066466,-0.08918763,-0.07251523,-0.06251903,-0.05900386,-0.10405531,0.0378241,-0.025688387,-0.037068103,-0.0023822582,-0.024415111,-0.12551716,0.049066417,0.17774409,-0.045165055,-0.15355387,-0.11189548,0.029271858,0.057973813,0.024317445,-0.120253295,-0.0640864,0.038059738,0.01440259,0.08587488,0.026470225,-0.044839513,-0.03838171,0.0946389,-0.023078525,-0.027752873,0.063772,-0.1397895,0.038698357,-0.06374841,0.025247633,-0.09129802,-0.080896065,0.008691383,0.101689085,-0.08448881,-0.116152145,-0.036472194,-0.013367758,-0.045911975,0.078027725,-0.08279851,0.036525574,-0.012430927,-0.11533237,-0.06629422,-0.116517454,0.07615072,-0.0066593355,0.13390146,-0.088408306,-0.012804035,-0.123664215,-0.1537415,-0.10354791,-0.19491792,-0.12982915,-0.0049025035,0.025247667,-0.0037877318,0.08823545,-0.019987214,-0.0036361057,0.0886828,0.04612554,-0.05939522,-0.082897894,0.04990848,0.03914589,-0.014261197,0.05291113,-0.02832329,-0.07962274,0.017473975,0.11328566,-0.0018375157,0.06275468,0.025592342,0.0147400545,-0.055413652,0.01866313,-0.07857647,0.012536198,-0.031555723,-0.10137255,-0.057086136,0.0590579,0.0535024,0.07662456,0.022033876,-0.03863206,0.057687774,0.046899226,0.08068331,0.14717864,0.017694922,-0.036981177,-0.008501105,0.054692768,0.09245012,-0.08038042,0.0028693194,0.023328137,-0.111526124,-0.09723815,-0.103956066,0.09383689,0.074928,0.025323648,0.016615141,0.02038983,-0.00044675675,0.0037766767,-0.05395958,0.0066741295,0.08780847,-0.033621006,0.16441421,0.16822375,0.112880655,0.048920553,0.0062643467,0.0015138797,0.12127899,0.06493699,0.09254685,0.06985915,-0.08417805,-0.047460653,-0.061433714,-0.085419,-0.024673615,0.0034161177,0.04411815,-0.018156938,0.03546277,-0.100859836,-0.09064717,-0.10714743,-0.02505548,-0.0831754,-0.07621753,-0.09406216,-0.19214176,-0.060454454,0.019022664,-0.049158823,-0.17021622,-0.066015534,-0.04997219,0.13139732,-0.03326603,0.065052986,0.12921733,0.03463696,0.09077014,-0.053233776,-0.028773095,-0.056349427,0.06641472,-0.025803143,-0.030101273,0.0023786542,0.060009006,-0.021087201,0.024471015,0.008321237,-0.036012866,0.08124557,0.07743809,0.084732406,0.035664685,0.04441061,0.18404025,0.1721981,0.03957475,-0.114428684,0.03270351,0.15414958,0.008413377,-0.024595415,-0.0675336,0.014491673,-0.022974053,-0.026761727,-0.015472711,-0.018087167,0.042081684,-0.0395134,0.0716741,0.06759468,0.05541707,0.026677752,0.120411694,0.08758376,-0.0986487,-0.050611384,0.0567514,0.03184645,-0.09849307,-0.056891922,-0.044832062,-0.04698045,0.03489283,0.089064695,-0.13538545,-0.05324263,-0.03558514,-0.0026888784,-0.06584024,-0.06793214,-0.0820159,-0.06876549,-0.07057853,-0.010435027,-0.029368691,0.052560553,0.1648457,0.05903552,-0.05242073,0.03464081,0.069402955,0.10120792,0.22211567,0.09776011,0.0032054908,-0.06245246,-0.0089746155,0.018019961,-0.07111874,0.1648939,-0.0937021,0.021978442,0.0026615427,-0.020045055,0.14551125,0.023756469,-0.0027781497,0.09422714,0.11098476,-0.046000205,0.037708648,0.09686454,0.057366386,0.066719495,0.06878792,-0.055156533,0.13429497,0.037844703,0.0030101626,-0.03301526,-0.06849235,-0.13795911,-0.065913714,-0.10407159,0.056191415,-0.061548155,0.09239679,0.03289939,0.0039657243,-0.06870836,0.041013207,0.03602885,0.025125593,0.03406623,0.006933696,0.0016834466,-0.0642432,-0.0490937,0.01922221,0.15475136,-0.024595443,-0.0019652473,0.053391345,0.035810314,0.03054731,0.03528574,0.18906759,0.17130674,0.053417735,0.10967599,-0.010999439,-0.010208288,-0.013086873,-0.021971298,-0.0357616,0.007565331,0.031899985,0.10065231,-0.0031581726,0.019536288,0.04062657,0.13234241,0.18577792,-0.023945605,-0.021394089,0.0056005614,0.042949796,-0.025443025,0.038088076,-0.006219087,0.024353703,0.030930256,-0.03026715,0.032761663,-0.053440303,0.01402069,-0.027260754,0.064027615,-0.03465959,-0.10860554,-0.06191107,0.08504316,0.058502767,-0.089307055,0.020162195,-0.09461432,-0.05641205,-0.015237211,-0.05149245,0.020364283,0.024897808,-0.15368396,-0.09799301,0.019294301,-0.02915484,-0.041190058,-0.07584075,0.004960189,-0.021031369,-0.10324057,-0.19079597,-0.029911354,0.012446152,0.031714074,-0.13110535,0.053235706,0.08073607,0.08019593,0.066490255,-0.037924744,0.04513856,0.031298567,-0.032272793,-0.023392353,0.051149435,0.00082226493,-0.082982026,-0.116800256,0.030895172,0.08557614,0.1535126,-0.0390705,-0.02855303,0.010085795,-0.008587362,-0.008288717,-0.027373716,0.08417487,0.09898858,0.020535884,0.00960164,0.04967855,-0.042464472,-0.0069106463,0.01540391,0.029431881,-0.03685639,0.040605165,0.009821689,-0.06722573,-0.083384015,-0.016191142,-0.028479472,-0.11970941,-0.14647646,-0.09006472,-0.039473396,-0.07589627,0.101116575,-0.026964914,-0.024142452,-0.056651916,-0.0031348774,0.0035056768,-0.033153433,-0.016581096,-0.0024477914,0.1074881,-0.062701225,0.011806912,-0.02243498,0.089544885,0.05216992,-0.004465019,0.05052923,0.057701237,0.054886326,0.027250903,0.028875727,0.007469271,-0.0007347236,0.030960644,0.05704602,0.030280083,-0.0018552884,-0.07502748,0.10262153,0.08356655,-0.06113365,0.06834422,0.001637311,0.051871035,-0.013409739,-0.014428006,-0.04323917,-0.0076846764,0.089708135,-0.11987097,-0.010044492,0.054515682,-0.12387944,-0.06645841,-0.15683898,-0.07880915,0.0059494656,0.009467273,-0.012141634,-0.06844515,-0.03502304,0.0060133636,0.070954695,-0.0048677903,0.0026815261,0.04870196,0.058377728,0.035550535,-0.08976578,-0.01774766,-0.033155087,-0.046024833,-0.050093148,0.030088961,0.04932446,0.012851391,0.025122024,-0.12428865,-0.021330446,-0.0012445475,-0.10987024,-0.0907715,-0.042393092,-0.028918108,0.0039852373,0.0023176542,-0.011266012,0.012308896,-0.004368615,0.09029889,0.00718552,-0.010147467,-0.108413994,-0.07664241,0.0094325,0.008278122,-0.016893785,-0.04651013,-0.02775212,0.07681103,0.06603212,0.05873342,-0.07439383,0.029613608,0.0049724677,0.061147854,0.0105122905,0.008209853,-0.051457796,0.04019238,0.047717046,-0.016498528,-0.020749623,0.029374972,-0.021909803,-0.0036415865,-0.045446888,-0.027163792,-0.081132144,-0.009631979,-0.042377513,0.011476191,0.018338833,-0.101673506,0.0051172087,-0.07583161,-0.058231533,-0.0048945965,-0.021442816,-0.053105365,-0.08864323,0.0134892855,-0.04861926,-0.06450876,0.011625642,-0.13431582,-0.05375776,0.004190922,-0.024869366,-0.07467928,-0.03968942,0.076708905,0.054792568,-0.024806403,-0.055951327,0.0022512793,0.011150157,0.017940165,-0.014565965,-0.09659313,-0.07545702,0.016992971,-0.056916222,-0.04864006,-0.05785632,-0.036958024,-0.040179074,0.017817495,0.10016832,0.057449233,-0.0123726865,0.048667066,0.028290411,-0.15999815,-0.0059279734,-0.08279362,-0.019474542,-0.05206364,-0.021281198,0.035456717,0.057252504,0.043080464,0.0315772,-0.010338122,0.041656245,0.09683009,0.050799455,0.024228763,-0.0925916,0.02790059,0.08190368,0.08376125,-0.0169639,-0.02190283,0.085033745,0.016141215,-0.004151043,-0.10508341,-0.1374333,-0.124025606,-0.0015030864,-0.0004187931,0.007335452,0.02392686,0.01793884,0.009596411,0.05980084,0.029104657,0.03910889,0.08726187,0.02227835,0.053126518,-0.059164282,0.0538487,-0.058032963,-0.013381957,0.031108426,-0.114905894,0.12367027,0.023736985,0.03216383,-0.02846919,-0.12748188,-0.044127595,-0.032828946,0.013495006,0.1666074,0.09366389,-0.027421454,0.106827945,0.017195653,0.15818928,0.02143476,0.14750546,-0.07910352,-0.16449215,-0.041046884,-0.17370445,0.033131123,0.1537269,0.07900318,-0.11585896,-0.25701115,0.047171388,0.0021790476,0.038810384,-0.040155202,-0.12922212,0.04396902,-0.0385006,-0.09032447,-0.014850894,-0.045193188,-0.021947056,0.023308432,-0.031787284,-0.11602834,-0.041636813,-0.020240383,-0.13614151,-0.1466756,-0.12794985,-0.07990677,0.013303862,-0.08131806,-0.026155438,-0.025878064,-0.13121416,0.13721009,0.038884543,0.03841374,0.100014985,0.0047280407,-0.02902737,-0.01749284,-0.0030058892,0.021584766,0.14203508,0.0024645017,0.09180338,0.093184866,0.09496693,0.048973586,-0.1910248,-0.04690269,-0.0013613441,0.0047223116,-0.112591386,0.04045566,0.07403889,0.018618742,0.09989959,-0.049028616,0.113126844,0.09099401,-0.035707068,0.028019004,-0.021157812,-0.095111094,0.0131207,-0.0077787465,-0.10389458,-0.10799074,-0.020480834,0.064660996,-0.022271518,-0.055108674,-0.09627422,0.11145334,0.114044584,0.09194692,0.093922555,0.013783972,0.0164436,0.13978946,0.1239303,0.0709313,0.07842269,-0.08390561,-0.042763192,-0.040728487,0.14138336,0.14153959,0.038752504,0.04721581,-0.037602384,0.13597618,-0.038129922,-0.056470193,-0.0066374554,0.0981371,-0.043512557,-0.109011374,0.00083662895,-0.14354081,-0.10268143,-0.14883722,-0.06761744,0.070544496,-0.058753356,-0.0016434947,-0.016932935,0.05943738,0.05360383,-0.02220056,-0.019895066,0.06613942,0.04650312,-0.004379235,0.0816625,-0.16994843,-0.09310545,0.04837962,0.06523949,0.071311474,0.011050067,0.043586146,-0.038379904,0.017970838,0.0403239,-0.003191404,0.09626749,0.067562856,-0.021947958,0.039885327,0.011515597,0.01221759,-0.0027278955,-0.02467264,0.028246934,-0.06360542,0.050417505,0.04569441,0.087610655,0.058627147,0.08147738,-0.16054657,-0.046547376,0.032306895,0.1031986,-0.089370534,-0.06685924,-0.039260898,0.035015956,0.17297284,-0.04945718,0.02505689,0.040894303,0.035925392,0.07050164,0.040286183,0.08701496,0.1511708,0.0019517144,-0.008404325,0.075506836,0.009932995,0.11018077,0.010472045,0.032512456,0.15766409,0.052232113,0.07839455,-0.2115074,-0.12465129,-0.02394668,-0.1594616,-0.0925243,-0.0014731234,0.04295372,-0.13260883,-0.18947317,-0.11583268,0.07431079,-0.036106896,-0.011189286,-0.060052756,-0.08601286,-0.0016803466,-0.021169592,-0.10630117,-0.07989283,-0.022736391,-0.04203254,-0.0041407924,0.012045655,0.03619085,-0.00029126572,0.0041666166,-0.054086868,-0.023263825,0.015141353,-0.08697858,-0.07651488,-0.0185794,-0.06738913,0.041031033,-0.014664152,-0.01945574,-0.07949045,-0.09363904,-0.11276176,0.017033812,-0.03443504,0.11007279,0.11693008,-0.018214552,-0.09227307,0.063455336,0.043160997,0.04112417,0.009304667,0.10874287,-0.13706522,0.053766765,0.09237005,0.00806081,0.004986001,-0.0018855437,-0.025030596,0.07627868,-0.030822765,-0.14364621,0.018083988,-0.044863697,-0.035663903,0.03991025,-0.11963252,-0.065173365,0.017971208,-0.06531958,-0.069643565,0.04138363,-0.023408573,0.0050443904,-0.056374144,0.064901225,0.066750884,-0.09485462,-0.11695735,0.030037953,0.09169287,-0.07624229,-0.03741943,0.012923978,0.040657192,-0.04909684,-0.012037396,-0.0064832154,0.026461689,-0.065359525,-0.021828996,-0.021769794,0.03830286,0.02439637,-0.034448482,-0.15222141,-0.10739247,-0.026890129,-0.01802306,0.04390967,-0.06711371,0.049548764,-0.076932505,0.021822529,0.049223814,-0.04045631,0.111242436,0.05509104,-0.03277354,0.11216298,-0.05966476,0.057331726,-0.072896376,-0.032862656,0.018241327,-0.07953884,0.07057955,0.16635618,-0.032396186,-0.13618116,-0.08365696,-0.055295035,-0.021475187,0.015871897,-0.009500538,0.037401326,0.0016902024,-0.020996697,0.033168428,0.09871834,0.1896243,-0.04792551,-0.072327234,-0.1660676,-0.14670375,0.099590704,0.021582602,-0.022541316,0.097910814,-0.0071985377,-0.019158402,0.100668214,0.0040242355,0.08688773,-0.027059464,-0.04994252,-0.024674743,-0.07917094,-0.021990683,-0.08465671,-0.057857875,-0.010330674,-0.08896475,0.12195733,0.07138894,0.13540155,-0.07973389,0.006569248,-0.01434493,-0.006820002,0.0014708369,0.013633294,-0.059709787,-0.007944345,-0.036252238,-0.07627291,0.16049732,-0.016598709,0.011570703,0.026466208,0.06924781,0.03506732,0.06623331,0.14550649,-0.009154519,-0.012927068,-0.054905776,0.026975071,-0.02840223,-0.0153635675,-0.031188967,0.014103415,-0.011555622,-0.017477212,0.049851127,0.08841335,-0.0085404925,0.007880896,0.04411791,0.12049768,-0.019884417,-0.014453151,-0.0014136167,0.013203452,-0.11791799,-0.058114413,-0.13816094,0.11092017,0.00031746514,0.074498065,0.019365394,0.000965767,0.004278202,0.04568681,0.019862965,-0.030583886,0.081968464,-0.05469609,-0.06125217,0.033171434,0.002044582,-0.056980398,-0.05314614,-0.023758357,0.14278707,-0.05333253,-0.022681363,0.050070032,-0.07227209,0.018185591,-0.12560117,-0.14036751,-0.09088398,-0.050358262,0.040147953,0.0043165036,0.0018951925,-0.113426015,-0.29901224,-0.19770646,-0.033668667,-0.00323652,-0.06991462,-0.1192032,-0.10756106,-0.06465093,0.004724706,-0.11265082,-0.024444034,0.00669922,-0.058808282,-0.05542511,0.038665336,-0.14052646,0.10933799,0.1197081,0.00262691,-0.054727126,-0.034457773,0.0051445775,0.027868776,0.019512942,-0.1270456,-0.0846495,-0.014237451,0.12304882,0.08058361,-0.00036736048,0.06594231,0.0737683,-0.025341026,-0.051151514,-0.021669699,0.03339911,0.054406714,0.051850226,-0.09477003,-0.050574727,-0.0644272,0.026346475,-0.0023648138,-0.008280691,-0.031997114,-0.043405198,-0.04193727,-0.07527388,0.009891039,0.083402164,0.10465952,0.034076273,0.02557305,-0.061890583,0.00052979647,0.06430286,-0.10267232,-0.054239843,0.09915533,-0.11699319,-0.19780436,-0.1048625,-0.08847687,0.01594819,-0.06513873,-0.010938293,0.04873331,0.045494873,-0.07008345,0.08381999,-0.05396658,0.1605341,0.05561617,0.029421791,0.038852226,-0.16875835,0.036338054,0.10821145,0.07542569,0.09868043,0.009387491,-0.0015266448,0.05639519,0.0011410266,0.0044825566,-0.06060344,-0.042029224,-0.030470077,0.0568109,-0.042144034,-0.07387065,-0.052152675,-0.07888223,0.03357866,-0.02245883,-0.102373235,-0.07042172,0.015528468,-0.011604261,0.0562267,-0.08155895,-0.0075938446,0.037094165,-0.024410551,-0.017505368,-0.10884964,0.05280743,0.10269623,-0.021256413,-0.08294699,-0.14361921,-0.052590135,-0.14940923,-0.05246328,0.029357405,0.12895165,-0.08035557,-0.058058027,-0.08317988,0.02262671,-0.07700334,0.05980456,0.029640902,0.030526744,0.064539194,-0.0035359045,-0.10715802,0.062102076,0.005069106,-0.009202567,-0.07030933,-0.11354935,-0.15699919,-0.022298696,-0.065621965,0.0073899524,-0.07136464,-0.006930546,-0.05150881,0.080541976,-0.029155906,-0.027705219,-0.13166696,-0.023145925,-0.02809673,0.061301406,0.10173197,-0.047625743,0.08067611,0.07830833,-0.032828752,0.089052826,0.10346527,0.021560181,0.0071861534,0.018638225,-0.047387138,0.02049115,-0.03206065,0.06874193,0.118810415,-0.037736345,-0.12489732,-0.047463585,0.08153241,0.08427161,0.0029511992,0.01606456,0.08642969,-0.07392045,0.018534176,0.046123274,0.019706659,0.0034850533,0.06816974,0.022147419,-0.093285695,0.0448009,0.06695737,0.017072247,-0.020605544,-0.023428408,-0.05905019,-0.019222565,-0.011582614,-0.06881492,0.06902568,-0.025378479,0.029648226,-0.07092794,-0.012178306,0.054560907,0.14297199,0.107070245,0.005213861,-0.024619719,0.01089784,0.024007516,-0.011460124,-0.08162876,-0.025437687,0.05761356,0.0020241009,-0.030832374,-0.04034912,0.088448316,0.11603114,0.03625406,0.13144395,0.084973246,0.11661548,0.030369062,0.082524315,0.01513838,-0.050821323,-0.029488234,0.030393224,-0.0012159701,0.11327336,-0.010703587,-0.03878913,0.03310277,-0.03346284,-0.11250857,-0.06366982,-0.088401735,-0.03422952,0.08984237,-0.07383076,-0.0147462115,0.04349215,0.061919395,0.030575622,0.10716035,-0.013590866,0.11861048,-0.004358324,-0.012373895,0.04631135,-0.015977401,0.11674653,-0.038307514,-0.019721717,-0.05997582,0.0045013344,-0.07183446,-0.0073689553,-0.042928167,-0.0062954854,-0.08618998,-0.15916245,-0.10197036,0.05288331,-0.10848345,0.042405263,-0.040544245,0.05232379,0.12797803,-0.08003758,-0.009526127,0.052522544,-0.03545475,0.042029586,-0.050953407,-0.06254274,-0.09686531,0.041240297,-0.019749377,0.026440838,-0.015103712,-0.08695407,-0.027969604,0.010264965,-0.072147705,-0.01891113,-0.023724489,-0.11293569,0.08642512,-0.017854376,-0.0029909331,0.1079393,0.023934152,-0.0038278098,0.13996822,0.01948833,0.0474614,-0.011231644,-0.04710739,-0.06393114,-0.12516713,-0.11152027,-0.036354266,-0.036761846,-0.08402009,0.033346713,0.074046396,0.09881259,0.097385265,0.08052546,-0.06303092,-0.049529407,-0.11966448,0.012566165,0.052298825,0.06282827,0.01947835,0.03499828,-0.024738552,-0.056604035,-0.025384633,0.0812451,0.055301517,-0.036355622,-0.10120369,-0.21290927,0.040852576,0.09928309,-0.053987525,-0.021337435,0.07476719,0.118195854,0.0039708614,0.017058145,0.08592046,-0.03131281,-0.019183336,-0.06414195,0.06833205,-0.032631498,-0.03531772,-0.014902565,0.07572177,0.024195395,-0.1255418,0.033802804,0.08731241,0.018322984,0.03609574,-0.0051167477,-0.060652703,0.059707098,0.07898244,0.04348134,0.075132936,0.059991606,-0.07824379,0.003459753,-0.024747964,-0.035227958,0.012914518,0.02661754,0.00094510947,-0.061761964,0.029662587,-0.008850001,-0.026174674,0.053219333,-0.058809005,0.03231852,-0.0559493,-0.031249594,-0.04247361,0.067475714,-0.076378,0.020134287,0.13553777,0.11641127,0.09375951,-0.094803765,-0.03242266,-0.044245113,0.036255453,-0.050940543,0.045883972,0.032516167,0.012915899,0.0377101,0.03578866,0.09993158,0.0009001059,-0.024323588,0.042108405,-0.041570883,-0.015924212,-0.05452957,0.078710884,0.03558606,-0.11370608,-0.040296044,0.12916945,-0.05121875,0.041488152,-0.04768218,-0.015632793,-0.12784357,0.029643578,0.10031608,0.10919088,0.15221009,0.13511594,-0.027491285,0.077537075,0.054307353,0.1177697,0.014761155,-0.016388739,-0.026418276,0.0209988,-0.11644576,0.046224833,0.078413986,-0.1051011,-0.11464385,-0.13192382,-0.05258643,-0.046501663,-0.01580769,-0.010013017,-0.045278437,-0.020010771,-0.027666477,0.017621256,0.12675239,0.082830824,-0.09193255,-0.056273486,0.101514496,0.035205126,0.017003985,0.042686794,0.0033628957,0.03150552,-0.046398394,0.0069578975,0.021914078,-0.028535785,-0.12679793,0.02349792,-0.05621442,0.05063965,-0.01784273,-0.23095289,-0.15197343,-0.039075077,0.031947356,0.16583247,-0.009870645,0.0064986795,0.03139899,-0.024312528,-0.025344567,0.03255916,0.05807282,0.0017571499,-0.09504525,0.07108614,-0.049318556,-0.010413946,0.028319461,0.09124586,0.015619292,0.059847698,0.050943952,0.06635408,-0.107477374,-0.071741015,-0.005560202,0.030492479,-0.15215048,0.0041928366,-0.12392489,-0.17722353,-0.12092392,-0.12718584,0.08840341,0.06956133,0.15984926,0.03375435,-0.055286825,0.029545516,0.009616305,0.044494025,0.25181636,-0.04979581,-0.05212613,0.040236358,-0.05775075,0.02753828,-0.05329041,0.047677405,0.15278849,0.13448906,0.14360467,-0.06031552,0.093154594,0.01113098,0.01039338,-0.0035053454,0.09822627,-0.031239001,-0.043128595,-0.066688254,-0.025854921,-0.057348724,0.10749634,0.023914862,0.07960556,0.010387196,-0.06708576,0.060952146,0.062333044,0.061781175,-0.031511877,0.13294797,-0.124320306,0.038585473,-0.021046003,-0.13487071,0.029633746,-0.09193123,-0.14512134,-0.1735914,0.0051471866,0.009234602,0.07132639,0.009750976,-0.009661302,-0.06884277,0.020250978,0.099256665,0.13077764,0.00041916603,0.030062428,0.0071313386,0.048446395,-0.015282145,-0.03956869,-0.099604994,-0.020694286,-0.023456784,-0.01870999,-0.0069326,0.042036094,-0.058129724,-0.0066244225,0.13949357,0.005189304,0.0028353683,0.13448486,-0.00085469935,0.10206225,0.04538595,0.01904818,0.054503545,-0.008355285,0.08365813,0.111935236,0.13719893,-0.013994586,-0.03037322,-0.05316465,-0.03032548,-0.014717262,-0.049123988,0.054907005,0.032473687,-0.02777211,0.036325935,0.015255617,-0.066274665,0.041384745,-0.07498201,-0.028567359,-0.03382382,0.06671959,-0.018681206,-0.16169554,-0.037306547,-0.12200484,0.07799639,-0.06846471,-0.10533715,0.0043680808,-0.092058524,-0.033217967,-0.10645521,-0.14533336,-0.13166533,-0.09091658,-0.13520455,-0.057983465,0.01183677,-0.047905717,0.033921074,0.0713436,-0.012979314,-0.046600133,0.11134916,0.023632603,-0.02271912,0.1267659,0.054068096,-0.024239875,0.032825157,-0.018565118,0.012890159,-0.047131244,-0.14272004,-0.096611634,0.038937528,-0.09794393,-0.029385488,-0.025520446,-0.12098727,0.10107138,0.007669201,-0.064231984,-0.041878764,-0.18756767,0.053489827,0.010510481,-0.027274067,0.08521362,-0.06573511,0.047710624,0.051232904,0.061461285,0.10892573,0.0070410757,-0.0062832157,0.008156916,-0.07304562,0.03823187,-0.024091193,-0.0975711,0.04243953,0.04181494,-0.052508496,-0.0039683064,-0.17391075,0.020362543,-0.018631145,0.025736842,-0.12528133,0.07731162,-0.014347029,-0.0048407135,0.00919774,-0.018914588,0.122342445,-0.04648793,-0.06085641,0.05921804,0.0059162905,0.08734875,0.0012196825,-0.11407225,0.027076503,0.013558465,-0.03720284,0.02079398,0.04361915,-0.005047293,0.002869717,-0.05183982,0.0026046853,-0.09203833,-0.031568408,-0.21342975,-0.078766264,-0.005474965,-0.09037812,-0.04878104,0.021600667,-0.06315138,0.08399926,-0.008334333,-0.022476796,-0.0047330526,-0.04420177,0.10181084,0.115048625,0.048200008,-0.057014823,-0.015456171,-0.042487625,0.069587745,0.041947957,0.01908573,0.03586085,0.06057675,-0.055636827,-0.11221321,-0.1072023,-0.017155413,0.002080571,-0.073323555,-0.043230377,0.00018766779,-0.060480095,0.022882178,0.008195025,-0.031778753,0.07114706,-0.01035714,-0.040455896,0.0350427,0.061293807,0.022171455,0.022014067,0.028550886,-0.004973017,0.07535314,-0.00389563,0.0287706,-0.027477149,-0.017924918,-0.06471176,-0.040804043,0.0030331737,0.026583318,0.05973348,0.08008734,0.027748127,0.057223387,-0.037882973,-0.032603882,0.029611692,0.13479646,-0.01879929,-0.024417313,-0.026077144,-0.020375863,0.11169713,0.042780314,0.06832704,-0.07642019,-0.026365383,0.014919147,-0.041905824,-0.008258149,-0.03235886,-0.00786697,-0.03173161,-0.03712834,0.01223482,0.004798684,0.01037314,0.09317808,0.0019177058,-0.008253562,0.020346515,-0.006800826,-0.079702236,0.010896931,0.038379323,-0.07465968,-0.107340395,-0.038872432,-0.0924361,0.0053141653,-0.017827675,0.0837934,-0.04335507,-0.0016314494,0.05179717,0.11276051,-0.021516766,0.09031944,0.1374404,0.12817207,0.042989794,-0.073194034,-0.049246214,0.08288194,0.067526646,0.020782111,-0.13707592,0.026839929,-0.004746522,-0.023355445,0.07387288,0.10901278,-0.011037324,0.0073363897,0.032987814,0.007671254,0.009728682,0.01868341,-0.05302397,0.053737253,-0.096358635,-0.05177437,-0.08688781,0.13847724,0.026720274,-0.10758458,-0.108247615,-0.105318755,-0.14913434,-0.06935001,-0.019024497,-0.032789268,0.009998977,-0.0364797,-0.05690866,0.009331512,-0.006859567,0.055769805,-0.08392991,-0.097985566,-0.020996857,0.07434158,-0.11354571,-0.0760085,-0.058357447,-0.14168693,-0.107464865,0.022467518,-0.03795818,-0.028058495,-0.10964154,-0.0942388,-0.11941404,-0.010325199,-0.008775626,-0.07837418,0.006385737,-0.00029304228,0.028068546,0.007893755,0.062585495,0.10917351,0.07668868,0.040095773,0.030276265,-0.023628622,-0.008410339,-0.03837583,-0.040598575,-0.0017036918,0.10456884,0.043301973,-0.10327095,-0.1561862,0.07381367,-0.06446117,0.0024788657,-0.062113084,0.11618606,-0.025442388,-0.018015308,-0.052548975,0.035546206,0.039494693,0.04473891,0.010343268,-0.02289001,-0.1227131,0.10271946,0.11257422,0.0151990475,0.019118004,0.008886184,-0.03716564,-0.02082065,-0.004560965,-0.078506075,-0.043703012,0.07217507,0.015533672,0.16777988,0.2296834,0.04322074,-0.08057147,0.06953429,0.06197996,0.042630646,-0.056304626,0.08241573,-0.030501239,-0.022716807,-0.09674384,0.11715722,0.026819414,-0.03491423,-0.029454501,-0.009774392,0.08802185,0.0788199,-0.013060098,-0.012109051,-0.103307635,0.101405695,0.064131424,-0.049164016,0.0025011254,-0.05893817,0.0019470939,0.024160162,-0.10962708,-0.03229851,-0.035952326,0.047566105,-0.020235043,0.049503595,-0.022352617,-0.12392114,-0.15426499,0.03923671,0.028942714,-0.10504238,-0.035532378,-0.038230557,-0.1466368,-0.057510704,0.011151089,0.09275323,-0.004374583,0.12583771,0.18437716,0.11316095,0.008960682,-0.06596157,0.06330418,0.040478226,-0.0028694132,-0.017804481,-0.18605393,-0.004492868,-0.07044188,0.042204205,0.05049162,0.08615012,-0.11909884,-0.1279256,-0.010638784,0.037661575,0.17141835,-0.0016413628,-0.0343848,-0.116151065,-0.060905155,-0.04558203,-0.024263678,0.1283581,0.079653166,0.011503398,-0.1069352,-0.009154284,0.17328608,0.034253776,0.01959839,-0.07655624,0.005237969,-0.02035871,0.032101605,-0.017563565,-0.036276642,-0.032650433,-0.12086378,-0.004276999,0.009067817,0.04301582,-0.02783321,-0.09940406,-0.022608222,0.006798527,0.13580897,-0.049146645,-0.044193815,-0.029271403,-0.015398065,0.036833275,-0.07012719,0.044113807,0.0068808054,-0.032911263,0.22612166,0.009409255,-0.02964127,-0.118186474,-0.05597282,0.0986291,0.04293679,0.020769414,-0.06495932,0.010679384,0.024902597,0.0014710872,-0.04549662,-0.030227792,-0.0633353,-0.061581813,-0.042229205,-0.07956112,-0.09074878,-0.09060412,-0.04520711,-0.05749877,-0.07824852,-0.09187619,-0.0070572826,-0.088147506,0.051334035,0.006177898,0.024381291,-0.021470627,-0.029960552,-0.013396018,-0.0068940516,0.07463299,-0.13133827,-0.02256644,-0.054274343,0.11304781,-0.038805284,0.10677489,-0.02595986,0.035362132,0.111722395,-0.05614015,-0.2523873,0.017880896,0.026722942,0.00958817,-0.023295956,-0.12965156,0.012650232,-0.044363372,0.04820306,0.07066722,-0.09035612,-0.13322502,-0.018425347,-0.093716115,0.018533655,-0.00013885654,-0.023783294,0.06331169,-0.051238444,0.09734426,0.062645555,0.032904398,0.058023818,-0.087716445,-0.12967585,-0.085649215,-0.06963834,-0.1317541,0.048485693,-0.0218661,0.041363172,-0.060297336,0.042838957,0.009014246,0.036543623,-0.0080536865,-0.045988303,-0.047788505,-0.03704697,-0.02922772,-0.048088863,-0.068572454,-0.1032289,-0.040252715,0.015129589,-0.06157908,0.039014723,-0.09690671,-0.08429534,0.13287427,0.034129426,0.03490661,0.035299916,0.084146515,0.043084174,0.069674894,-0.09452311,0.08492873,-0.033534233,-0.04169195,-0.011953765,-0.014077004,0.08102375,0.046412695,0.032192957,-0.014767894,0.11114602,0.06393331,-0.023753872,0.026178481,0.01485688,0.09582662,-0.069770046,-0.008998262,-0.033657905,0.043615207,0.13788816,-0.11327463,-0.0010300352,0.04478845,-0.00998268,0.009614889,-0.20492724,-0.1777749,-0.15061942,0.0015545882,-0.16566755,0.06858242,0.11438359,0.13142326,0.032258313,0.0141349,-0.017287238,0.01550346,0.08465514,0.025530862,0.049222346,0.0026871616,0.045349255,0.07160425,0.0028283426,-0.042772826,0.032916572,0.009674134,0.055403892,-0.029555537,0.011414472,-0.12602948,-0.13430914,0.06683884,0.013275428,-0.04366378,-0.11590244,0.0058351057,-0.044623137,-0.022423867,-0.0017857357,0.084418155,0.08693637,0.016133403,0.05780241,-0.011756443,0.07515977,-0.031994358,-0.013087535,-0.0995768,0.02790161,0.060268316,0.08700339,-0.08280839,-0.010902022,-0.053678352,0.08977144,0.036268715,-0.0016440657,0.029196618,-0.0049673533,-0.08532819,-0.072291695,0.070278496,-0.012321384,0.069215626,-0.040296327,0.006845192,-0.040939074,0.01255459,0.04879533,-0.06738948,0.002264411,-0.084586196,0.016391147,-0.08320398,-0.025760844,0.13445371,0.03211666,-0.019339768,0.046464138,-0.11869407,-0.013021859,-0.015214219,0.03342365,0.061515253,-0.06937478,-0.111347444,-0.11857124,-0.012828517,0.050040618,0.04252816,-0.11460911,-0.11226157,-0.05646335,-0.031999566,0.016626662,-0.13328815,0.05011425,0.010962734,0.035474967,-0.14421117,-0.23846939,0.016593484,0.07689096,0.09397498,0.028807811,0.012550005,-0.022483222,-0.06131234,-0.08887324,0.104887344,0.10024639,0.12067312,-0.040391944,-0.07198745,-0.026076937,0.010283821,0.04527423,-0.07659793,0.0016626578,0.022845995,0.05466687,0.04985598,0.007905133,-0.050670743,-0.009924334,0.0029009716,0.084104456,0.07725226,0.049881693,0.07208573,0.05780499,-0.014837458,0.026686909,0.012000633,-0.04262431,0.05062991,0.020441111,-0.07435105,-0.070528686,0.07547435,0.12301292,0.09525525,-0.18682577,-0.06551875,0.10294821,0.009900225,0.00939904,-0.060846765,-0.03920688,-0.03831492,-0.0337439,0.06086042,0.022438703,-0.09919533,-0.2028551,-0.19229181,-0.1233051,-0.02784998,0.025199756,-0.08273049,0.13202028,0.113800146,0.07773653,-0.03859531,0.090031184,0.028365491,0.011445886,0.071233034,0.09623986,-0.11280415,0.0046793516,0.04656838,-0.013851451,-0.04335702,-0.0075766984,0.0025502313,0.058529682,0.083060406,0.055142395,-0.05478992,0.11065352,-0.022477033,-0.0078122523,0.064730376,0.014631673,-0.04769776,-0.24507041,0.02169944,0.04632934,-0.06952135,-0.00077866786,-0.029420422,0.020657964,-0.06622283,-0.06022589,-0.033183914,0.05007945,-0.004577341,-0.00042629984,-0.16432829,-0.16907623,0.071133725,0.013448168,0.009041716,-0.065935336,-0.040811237,0.05884538,-0.038680878,0.0016100339,0.040474907,-0.012783833,-0.008277448,0.04200191,0.14537448,-0.01821079,0.10289499,0.07803902,0.19391271,0.067499265,0.0052567846,-0.051859047,0.013854908,-0.032389592,-0.0065841703,0.023727166,0.045652788,0.10281355,0.025629645,0.0135471625,-0.017118003,0.11670013,-0.005106445,-0.07051337,0.0077489642,0.08605912,0.054727342,0.0067667067,0.18676758,0.024223227,0.060233306,0.019401193,0.05105966,-0.03763471,-0.04620164,-0.028861942,0.056924183,0.074296944,0.045133654,0.0770883,0.10472318,0.06998362,-0.00841854,0.015124845,-0.018936634,0.11060067,0.0834772,-0.0054388074,-0.040697783,-0.0020629568,0.016772045,-0.00075179973,-0.123639084,-0.075605735,0.043223992,-0.076620065,-0.042990606,-0.062108707,0.059941147,0.006183719,0.042469177,-0.1130031,-0.017334597,-0.14848949,-0.10774782,0.07429817,-0.08812879,-0.05644907,-0.035502873,-0.01858806,0.123710975,0.11570052,0.047947027,-0.042366743,-0.13244946,0.093967505,0.103436284,0.10904701,0.016239736,0.02187146,0.06347038,-0.067404926,0.036240134,-0.016009709,0.032541055,0.08203445,0.004283798,-0.02105316,0.03356361,0.05061842,0.11425708,0.028972596,0.124437034,0.0039690756,-0.012924074,-0.031410802,-0.004050804,0.013648714,0.030255852,0.023714023,-0.097903974,-0.14725076,-0.056269262,-0.02456567,0.0069169416,-0.03238278,0.035150357,-0.02559484,-0.050628692,0.20045142,-0.044806,-0.08328605,-0.02922628,0.043899078,0.19508544,-0.08574455,-0.061055303,0.09766949,0.008417662,0.11385579,-0.06770438,0.11933787,-0.0040576486,-0.015186238,0.075445876,0.034008373,0.12744915,-0.031186894,0.05549277,-0.022655843,-0.04101411,0.023993654,-0.02454087,0.044352334,-0.055380892,0.11503893,0.032400105,-0.015322316,-0.08541873,-0.08908815,-0.0472065,-0.19605538,-0.07417108,-0.04118409,0.011815565,0.099979766,0.04079506,0.059742797,0.010032379,0.009509572,0.05980369,-0.046698272,-0.05527295,0.05038837,0.061160292,0.16958654,0.030151062,-0.011276794,0.008984007,0.046980012,0.0026305893,0.015732933,0.03730557,0.04988258,-0.12327947,-0.049039353,-0.033192314,-0.039407052,-0.017057085,0.09465595,-0.1274834,0.02423488,0.08758214,-0.0042226356,0.016307177,0.005947572,-0.12645467,0.01977979,0.10725081,0.080077894,-0.011800776,-0.042836953,-0.05208267,0.016286694,-0.015838875,0.007261007,0.026376229,0.011712645,-0.02733074,-0.12798874,0.051998284,0.09344013,-0.032623272,-0.00971093,-0.1278918,-0.077576205,-0.02306809,-0.09010721,0.032088015,0.11875345,0.04254108,0.020009866,-0.12276323,-0.012367142,0.08499566,-0.0317765,0.028207934,-0.018250825,0.031992633,-0.02677868,0.024586465,0.06246403,-0.021386892,0.11528209,0.06699323,0.18145086,0.0741926,-0.11140977,-0.030713363,-0.02880962,0.05021384,-0.07894225,0.04475695,-0.03257511,-0.041360646,-0.067264155,-0.07155095,0.0014701594,-0.059453055,0.0463241,0.03594788,0.096248135,0.06711565,0.1006783,0.0031558964,0.024599306,0.03941011,0.023132104,0.027296785,-0.09432039,-0.11022536,-0.1380024,-0.0454909,0.0019511203,0.039700564,-0.06839588,0.017958932,0.058577962,0.026241386,-0.07056412,0.13326424,0.04047441,-0.061980505,-0.0030800854,-0.08411927,0.0015566794,-0.1453223,0.017922604,-0.078168154,-0.058155634,-0.02758255,-0.0022866454,0.0021330048,-0.094573796,-0.032848164,-0.0697713,-0.04652238,-0.024717903,-0.10288783,-0.006612703,-0.01279961,0.16569862,0.00033529795,0.03578572,-0.046175808,0.04762922,-0.003167249,0.1114805,0.011494717,-0.08753563,0.052055597,0.012493862,-0.081189714,-0.1045918,-0.02687626,-0.02408993,0.07905382,-0.020105017,-0.046059795,-0.09966087,-0.036906127,0.057552196,0.09057469,0.012151084,0.009913294,-0.0014182999,-0.101741515,-0.054950386,0.07783623,-0.026834747,0.05429978,0.04237968,-0.098825745,0.0015369793,-0.04408634,0.07389286,-0.0006972241,-0.0062439456,0.013785711,0.031019574,-0.077918306,-0.14054456,-0.078634694,0.009071897,-0.049238317,0.13236836,0.05594293,0.09768643,0.10628833,0.11521085,0.033884976,-0.0072395103,-0.028377287,0.09159254,-0.006563997,-0.018028948,-0.08985525,-0.03051894,0.013802442,0.015443822,-0.09959584,-0.060343947,-0.075396776,0.033737976,0.060641482,-0.04467184,0.026647974,-0.011790051,0.044505592,-0.07950851,0.22724767,0.07905884,0.03677394,0.039680466,0.10203469,-0.015752511,-0.18646693,-0.12778799,-0.13118955,0.04825204,-0.13884981,-0.004947897,-0.12121186,0.07912484,-0.045739148,-0.071807265,0.020173652,0.025911886,-0.07165724,-0.035796326,-0.039516438,0.069280125,0.05570906,0.12963472,0.00049107324,-0.12901291,0.0016036362,0.038635384,-0.011483791,-0.053255748,0.071080126,0.044827465,-0.014158182,0.07386077,-0.038690258,0.039164033,-0.036187563,0.044067714,0.01763048,0.0025838998,-0.06044859,-0.012947289,-0.091514155,0.0463502,-0.0062332265,0.17159018,0.048011046,-0.07456348,-0.0014178539,0.13018237,0.23219785,0.12933901,-0.17640726,-0.030377861,-0.090022124,-0.1109005,-0.05868078,-0.08588764,-0.16599318,-0.14337099,-0.0019417625,-0.0075814785,0.06130137,-0.07305085,0.053189103,0.042954437,-0.054167848,-0.06539959,-0.08769414,0.08563478,0.02039511,0.00504844,-0.021264084,-0.014173013,-0.08223556,-0.12308306,-0.055628583,-0.06341158,-0.11395648,-0.11508268,-0.08143355,-0.02215465,-0.023601877,0.11964661,0.08361101,0.055002563,0.004854725,0.06558576,-0.022261417,0.039415874,-0.0014304809,-0.03860061,-0.059961602,-0.046958026,0.03824064,0.013264019,0.10980519,0.06476683,0.13287656,0.060177363,0.026146976,0.16344555,0.029757814,0.045192126,-0.049474534,-0.0054936623,0.1527294,-0.038073286,0.053924225,-0.08137666,0.102132194,0.020696342,0.040804036,0.037111435,0.0056443145,0.01986031,-0.016805388,0.016595133,-0.024426559,-0.017651105,0.060548224,0.1984839,0.017332882,0.12670194,-0.09956848,-0.04364799,-0.067739815,-0.034680117,-0.03767122,-0.03204852,-0.058721393,-0.093453385,-0.13752365,0.012724133,0.048319235,-0.005202852,0.030834088,0.07946287,-0.13375759,0.025908118,0.057810184,0.036734153,-0.06761785,-0.07062876,-0.037649594,-0.0059146625,-0.14851831,-0.14169395,-0.029844282,-0.00057800306,0.032863226,0.058796965,-0.009351932,0.10310833,0.06088646,0.17414911,0.13459569,0.0025596635,-0.028614838,-0.09300775,-0.017536925,0.067402124,0.05474224,-0.020293491,-0.017530074,-0.061815172,-0.018973717,0.019673787,0.091859795,-0.005435974,0.008633361,0.084423915,-0.0057626753,-0.06370291,-0.102737784,0.050418712,0.044334017,-0.12826414,-0.085398294,-0.09676239,-0.048634563,0.074882165,0.0050180643,0.041984152,0.046015743,-0.0059521864,-0.004173101,-0.03362206,-0.054104324,0.019582087,-0.0074999398,-0.03315252,-0.033093274,-0.045633987,-0.06868267,0.033879384,0.0018413228,-0.07111037,0.054012675,-0.08734072,0.0973224,0.05127401,-0.021907372,0.04717705,0.023044132,0.052610077,0.039756894,-0.14972462,0.03413299,-0.032150455,-0.063602,0.017848393,0.009183891,-0.011474451,-0.046288695,0.09629607,-0.060247444,-0.101776816,-0.12781452,-0.037288923,-0.040529247,-0.033283103,0.020517034,0.026484516,0.008639834,-0.039646637,0.1075103,0.014298101,0.039693564,-0.018194936,0.14124587,0.06025431,-0.10951696,-0.059719235,0.008804524,-0.17126226,-0.009119904,-0.031724975,-0.13296737,0.0051284083,-0.030985242,0.0043686,0.07834452,-0.043481994,-0.01105542,-0.13020177,-0.11957509,-0.10769228,-0.12001154,-0.19480719,-0.03867372,-0.09373295,-0.044067033,-0.08994327,0.019331267,0.040801957,0.052501336,0.08330946,0.14318606,0.2024556,-0.05160224,-0.08408828,-0.077030495,0.047401328,0.10691584,0.07877767,-0.00067221094,-0.09496249,-0.058447734,0.054037306,-0.08060577,0.0046724943,-0.050841484,-0.0006291794,-0.063125856,-0.08236009,-0.08970853,-0.012367094,0.0068457043,0.07723551,0.012676179,-0.10221429,-0.04326662,0.11252814,0.120943524,0.006506312,-0.011091497,0.09786884,-0.024126653,-0.04267142,-0.04022589,-0.13791585,-0.10334607,-0.16424115,-0.07813781,0.04356709,-0.067353584,-0.10110654,-0.02316049,0.11788471,0.004886207,-0.09016499,-0.034990054,-0.0059896684,0.073368624,0.0044913567,-0.03846541,-0.0069047646,-0.02328367,-0.069673486,0.10067,0.02751792,-0.06288262,-0.08507375,0.012335474,-0.025063535,0.010944228,-0.071119346,-0.02064842,0.083287604,0.04028873,0.08981064,-0.051914643,-0.057949997,-0.0062071136,-0.0062986366,0.008865012,0.0010800123,-0.06386964,-0.11942407,-0.06850836,0.20890631,0.02208411,-0.142607,-0.01645003,-0.053818326,-0.040262703,-0.08766504,0.092871495,-0.017522562,-0.049048398,0.043738537,-0.033502765,0.014126041,0.047489498,0.09953383,0.05365466,-0.09009224,-0.12990429,-0.13070454,0.040790133,0.14486328,0.027205309,-0.11919202,0.012246216,0.1069338,0.09069256,-0.026053885,0.10017151,0.07925245,-0.08576245,0.05512639,0.034300853,0.1397408,0.064353526,0.094023585,0.06535749,-0.030631028,-0.078377046,0.042011365,0.11535337,0.10249535,0.020603582,-0.06402683,-0.053095687,0.014573244,-0.019817187,-0.03771471,-0.021470364,-0.07784027,-0.12110919,-0.099883325,0.050984487,-0.057128757,-0.018573502,-0.07611561,-0.102589004,-0.028387593,0.073203415,0.03670291,-0.15540579,-0.021437075,0.09165649,0.1460375,-0.045714125,-0.087535895,-0.04164346,-0.02331306,0.027472889,-0.050713878,-0.010589561,-0.06586019,0.024543114,-0.14904007,0.17517105,0.02633188,-0.05932209,-0.013448492,-0.028297277,-0.11272659,0.039608978,-0.030136226,-0.016867206,-0.015820326,-0.06684941,-0.06929978,-0.060738344,-0.049677547,-0.020742206,0.013808131,-0.013266573,-0.066498056,0.19433971,0.16627535,0.04457693,0.025037384,-0.028302556,-0.03941178,-0.06955567,-0.02388845,-0.05485899,-0.020368328,-0.15689446,-0.08851312,-0.06874037,0.0069141802,-0.037322447,-0.080776855,0.0020662863,0.016571498,0.05437404,0.014917705,-0.04975657,-0.041979406,0.062837414,0.062146086,0.03274282,-0.09102921,-0.04745623,-0.06735423,-0.10483405,-0.029237948,-0.029149277,-0.0053628003,0.0235531,-0.06617631,-0.0653505,-0.017127914,-0.080990456,-0.043628536,0.017532824,0.036012046,0.058423433,-0.05381526,-0.060443215,-0.013823732,-0.033384662,-0.062422466,0.062222727,-0.04828331,0.034018632,0.021543162,0.09064511,-0.016924772,-0.032454614,0.10308768,-0.016752822,0.021246973,-0.03545801,-0.151216,0.075744964,-0.015257765,-0.0072355377,-0.091951735,-0.14089464,0.10619774,0.0061340034,-0.018969584,0.032139983,-0.010254651,0.10519775,0.07958162,-0.033074744,0.021956248,0.009406171,0.018526055,0.037449416,0.07715871,0.0026754308,-0.15861174,0.027577652,0.11325617,-0.064194694,0.048484348,-0.036263462,0.064407706,0.08755438,-0.018019563,-0.075924784,-0.012985435,0.04878185,0.09489397,0.020061428,0.07049029,-0.04587907,0.022421438,-0.07976463,-0.029858196,0.045977373,-0.007082252,0.033244096,0.073375806,0.041218355,0.06641956,-0.056205608,0.0041903807,0.0146376295,-0.071393676,0.0011058546,0.19799356,0.07031452,0.056531727,-0.025058791,-0.026710792,0.09281013,-0.012033739,-0.016976718,0.08461529,0.03300624,-0.047259696,0.037084002,0.04162052,-0.008824813,-0.05673319,-0.10738031,-0.04148534,-0.024708077,-0.03254602,0.05717806,0.12224588,-0.089203745,-0.08317942,0.032193657,0.02740184,-0.077191435,-0.0759901,-0.007165987,-0.0053689973,0.044991057,0.012512969,-0.045888525,0.08198936,-0.041011013,0.0015433686,-0.04083487,-0.094683364,-0.081207775,0.021669948,0.06535698,0.0033889404,0.07956452,-0.0714898,-0.038878243,-0.121440835,0.06319497,0.04583728,-0.05051435,-0.19280604,-0.09857173,0.06072908,0.070372306,-0.017296437,-0.13449003,-0.08895701,-0.011257435,0.010837215,0.006620931,-0.04978981,0.043788422,0.17381456,0.045398217,0.09604023,0.05335479,-0.05411522,0.17988679,-0.09883818,-0.0023685417,-0.14994538,-0.120880924,0.028387973,-0.11130019,0.14050095,-0.09747852,-0.050752528,-0.08005938,0.12298274,0.015639653,0.042862285,-0.086194664,0.07586407,-0.058897525,-0.111638196,-0.039665017,0.07068009,-0.015488571,0.02188177,-0.01958747,0.05669889,-0.0034260056,0.03970964,-0.027930846,-0.094579875,0.0013619525,-0.042221546,0.08388989,-0.057205673,0.051198892,0.06427414,0.09430769,-0.019829953,0.01826737,-0.066845365,-0.019292166,0.12373414,-0.044641715,0.04389978,-0.0422214,0.005101222,-0.026198132,0.09795462,0.044767067,0.0556018,-7.040085e-05,0.08117268,0.108181186,-0.0011131931,0.061840065,0.06803161,0.010456714,0.03796824,0.0046268706,0.0090331035,-0.04584723,-0.024767023,0.04812748,0.04944996,-0.0077680764,0.040233016,-0.06366489,0.060370095,-0.07906404,-0.0033229778,0.024028886,0.0534569,0.06947887,-0.012562777,-0.020177735,-0.04948327,0.0750556,0.070122026,-0.107592374,-0.09892798,-0.011740416,0.10950644,0.12938201,-0.08429807,-0.00034747535,0.01150713,-0.019396713,-0.06734216,0.013922486,0.008851416,0.03995963,-0.03901688,-0.06025874,0.033701368,0.034688085,0.06351,-0.023336755,0.06488867,0.049217865,-0.028358426,-0.0790973,-0.10226255,-0.03252533,-0.034035463,0.1277983,0.0017666917,0.028522734,0.02332229,0.0322015,0.050199408,-0.022009633,-0.066913284,0.026270315,-0.033799794,-0.092399746,0.013908897,0.13067555,0.09988015,-0.07638827,0.037549514,0.034596786,0.047760334,0.0380246,0.016703023,0.0035179977,-0.020663649,-0.036394574,0.07641465,-0.13506688,-0.014631014,0.019572033,-0.06341104,0.036286652,0.08763755,-0.11707241,0.08313445,0.026344523,-0.027163206,0.023407822,-0.028222153,0.008407116,-0.031448107,0.04878313,0.041575126,0.10111784,-0.04570349,-0.071817316,-0.015787,-0.06126491,0.045144513,-0.05538177,-0.0968919,0.031017214,-0.069769345,-0.07663522,0.0065428433,-0.07026883,0.012168885,-0.009350979,-0.009292678,0.01483655,-0.07823742,-0.007374129,0.06659816,0.1384439,-0.00074618653,-0.036939073,-0.06578916,-0.061060075,0.057827312,-0.036954146,-0.06830918,0.10766334,0.09764032,0.009257763,-0.07417875,0.03411645,0.06126746,-0.0660478,-0.11052308,-0.045226846,-0.06976474,-0.15591982,0.08609278,0.11174266,-0.054159492,-0.0634603,-0.004632729,0.08362898,0.06605342,-0.04900158,0.044415884,0.02344282,0.03962175,-0.028195882,0.04288794,0.029752718,0.09044313,-0.10523773,-0.11687397,-0.029227536,0.12109341,0.019680845,-0.23385693,-0.08527107,0.029018888,0.100078054,0.17809953,-0.04825061,-0.017976128,-0.03038535,-0.1721595,-0.06904455,0.15314701,0.024895078,-0.026265332,-0.13648954,-0.1135459,0.12540562,0.11295219,-0.046739817,-0.104652725,-0.050243046,0.07547938,-0.02578978,0.030988036,0.012687013,0.04823581,0.15479742,0.17836839,0.073172085,-0.08839126,0.005764304,-0.11706017,-0.014486375,-0.0004058034,0.044803463,0.05740259,-0.0642685,0.001754108,-0.026550122,0.071984395,0.07421731,-0.014571107,-0.027314002,0.07815491,0.026759245,-0.09034725,0.057912014,-0.008221827,-0.08218338,-0.045021694,-0.0045765555,-0.0333395,-0.06294396,-0.13317218,0.011018488,-0.08701699,0.045295235,0.016243922,-0.10880799,-0.06784446,-0.011027338,0.10011304,0.07660157,-0.028793616,-0.04915808,0.022516167,-0.06604266,0.034693338,0.118075974,-0.04273857,0.0791769,-0.07380414,0.011098861,-0.026424859,-0.19150084,-0.061523326,0.035515547,0.06159885,0.01726705,0.02720747,-0.10511369,0.029206218,0.09120915,3.2077992e-06,0.10519277,0.058864307,-0.08374612,0.020059612,-0.08841988,-0.00092803926,0.010944095,-0.051649548,-0.016028687,-0.006397608,-0.08052209,-0.09177935,-0.09307474,0.065418996,0.151455,0.022674773,0.055179883,0.15988141,0.08767323,0.044052295,-0.14885828,-0.13692531,0.09866783,0.1533339,0.07959356,-0.06954831,0.027785135,-0.0704518,0.038113892,-0.022615861,0.017548274,0.008351536,-0.11055781,0.030097801,0.119783714,0.12099267,-0.037658915,-0.14673886,0.015262594,0.05391935,-0.0672632,-0.05856494,-0.06171161,0.03789159,0.123977885,0.16192004,0.117644906,0.10223584,0.14160366,0.021242138,-0.01999838,-0.03703381,0.11669514,0.027989535,-0.14653794,0.031571895,-0.05014969,0.11136814,-0.063803636,-0.009328143,0.13658755,0.15419517,0.040952817,-0.028095393,0.01833318,0.045423213,0.04108656,0.051899213,-0.023656754,0.008660793,-0.06755671,-0.18516877,0.040340498,0.008105758,-0.08992711,-0.070896745,-0.1048313,-0.008480843,0.091580786,0.007943264,-0.04950801,-0.056019746,0.15657918,-0.00049347465,0.05127427,-0.10054361,0.06443164,0.02422718,0.14357689,0.01827077,-0.033571485,-0.016096428,-0.016648823,-0.004706535,0.09319275,0.024685899,-0.00641218,0.0782552,0.021182138,-0.08846419,0.009599336,-0.107339695,0.02618823,-0.025535787,-0.07175705,0.07377078,-0.030947896,-0.024649598,-0.040862456,0.0043492154,0.03447875,-0.095091745,0.020844208,-0.038442582,0.07096214,0.017175844,-0.066844985,-0.0734728,-0.09785083,-0.09960401,-0.11483841,-0.027587393,0.08796219,0.08995726,0.05898895,0.053416688,0.009546085,0.12650426,-0.031197777,-0.06518295,-0.012832263,-0.024728436,-0.0048134625,0.06501732,-0.124139994,0.02491229,0.04224026,0.050267365,0.033405457,0.021714475,-0.02328379,0.04517116,-0.022010585,-0.037312895,-0.017319735,-0.19089971,-0.108192906,-0.07306432,-0.019088771,-0.026742043,0.03745955,0.07042212,-0.07055671,0.027443178,-0.039388236,0.077460796,0.036302146,-0.055050697,-0.0057979394,-0.054079954,-0.1354773,0.0079749,0.10391061,0.10122147,0.09939634,0.11254983,0.035427045,-0.04516841,-0.040283743,-0.015700936,-0.026594855,0.08510279,-0.04204248,-0.07076669,-0.11964998,-0.040477213,0.04351661,0.09035745,0.09414871,-0.03476297,0.034815002,-0.090490945,-0.012336855,0.11824126,0.09380259,-0.07961667,0.034329638,-0.052497778,-0.012357768,-0.01264671,0.026411604,0.05595307,-0.0036641017,0.0011104076,-0.015828302,0.020457057,-0.103531286,-0.095450744,-0.056073077,-0.007563249,-0.050490193,-0.024425033,-0.1024522,-0.04040294,-0.10159796,-0.023027232,0.046670076,0.010162104,0.05032317,-0.09683397,0.023747683,0.07089542,0.018991964,0.007274371,0.061773214,-0.0033750872,0.12165214,-0.1632541,0.042304352,0.06774947,0.030933194,-0.07953909,-0.011533461,0.13500686,0.035864573,0.029457027,-0.013679354,0.10616984,0.013319668,-0.021758633,0.057067305,0.06809499,0.05608235,0.017454447,0.10361283,0.07374496,-0.05365473,0.14565529,0.066725686,0.07211043,-0.00909156,0.058409568,-0.10002095,-0.005265416,-0.092507675,0.05830541,-0.094101265,0.016311496,-0.08883309,0.019988894,0.061423615,0.075137585,0.0047252853,-0.043094914,-0.011303531,-0.05073649,0.08421639,0.0026629686,0.11842853,-0.009596415,-0.091565534,-0.076157175,-0.06343885,-0.008615432,-0.045542832,-0.05309951,0.052722633,0.032243837,-0.08957656,-0.017463617,-0.0063720252,-0.020014416,-0.066288225,-0.03406911,-0.078966424,-0.12273506,-0.06114528,0.0015587226,0.03566072,0.086534865,-0.055775892,-0.08941949,-0.04724401,0.0963976,0.018721974,-0.16898401,-0.0114908125,0.08225213,0.05446785,-0.05410491,-0.07920997,-0.07638631,0.13594243,0.14250332,-0.002344644,-0.04133656,-0.070095494,0.044784512,0.09556486,0.062187597,-0.05986347,-0.11865749,0.04108506,0.10714834,-0.006515646,0.07959673,-0.11275727,0.062678196,0.06660397,0.1021172,-0.086852595,-0.11600075,-0.013930177,0.08987818,0.13042003,0.0017715924,-0.07090253,0.010593714,0.060746446,0.11835016,-0.019642381,0.0011868628,-0.07625005,-0.14269051,-0.089426175,-0.12978224,-0.035963155,-0.031642098,0.010275973,0.08058109,-0.04656281,-0.04631086,-0.018561417,0.023446903,0.03599727,0.08035064,-0.052179907,0.06757886,0.031158047,0.042166375,0.0049710986,-0.050726857,0.010436174,-0.028061619,-0.07277675,0.033491667,-0.07121534,0.03574624,0.03939911,-0.0329238,0.19128987,0.06955986,0.031119091,0.058196947,0.049968667,0.06024998,0.056428738,0.08614796,-0.1393963,-0.06046155,-0.02113811,0.057478372,0.0042514373,-0.02785185,0.07480179,-0.015093343,0.039699048,-0.057937875,-0.060207676,0.038230296,-0.030024307,-0.02829106,-0.19734895,-0.06261661,-0.018328913,-0.036920823,0.07848268,0.071360394,0.13246092,-0.015046829,-0.09543269,0.022579888,-0.003993002,0.025440581,0.019184263,0.043318786,-0.09599937,-0.02946882,0.030510537,0.060609885,0.02438039,-0.04771214,-0.10814229,-0.10343245,-0.026574085,-0.043139473,0.0014032853,-0.057669673,0.024407217,0.07378474,0.08130907,-0.040761203,0.07175485,0.07233948,0.1100366,-0.09819783,-0.060755573,0.20692441,0.0050080735,0.10952039,-0.0148376655,-0.056497846,0.03142679,0.017135339,0.10048866,0.006837365,-0.069624744,0.019477919,-0.009907563,-0.050537124,-0.038068827,-0.1075824,0.07307967,-0.033704974,0.03118061,-0.02354756,-0.049053773,-0.014700167,-0.004521294,0.04531276,-0.0034534957,0.05875505,0.015355185,-0.098131664,0.0033580547,-0.022165218,0.10260685,-0.01045304,-0.03458195,0.03296127,0.049406078,-0.016358936,-0.051758572,-0.124423996,-0.07993232,0.05965807,0.010859745,-0.12839301,0.019830698,0.052332014,0.044513036,0.045770735,0.008356404,0.12000265,0.1164482,0.059253782,0.08004337,0.15793131,0.17023613,-0.046327453,-0.06481526,0.05226847,0.07736053,0.06253808,0.013592435,-0.055765662,0.06407556,-0.08619666,-0.012175828,0.09061082,0.012649348,0.08198948,-0.01207406,0.09299957,0.006992039,-0.025395885,-0.051197805,-0.12567216,-0.08439953,-0.09180851,-0.085918725,0.09517386,-0.1201495,-0.11151834,0.021510584,-0.054953635,0.02901962,0.07524299,0.027369913,-0.07721953,-0.064092785,-0.01921702,-0.043294903,-0.223693,-0.023929436,0.035299476,0.052557945,0.02097467,-0.06445627,0.007413255,0.051751625,0.19791815,0.051734075,0.038439892,0.014799855,-0.008799468,-0.027600763,0.12869424,-0.024117548,-0.016281473,-0.14501807,-0.05859493,0.065909766,-0.09957602,0.057011172,-0.028512897,0.06695542,0.011197481,-0.04348153,-0.04290402,-0.10267968,-0.029105593,-0.05944628,-0.04140693,0.02251346,0.087446116,0.021406328,-0.01577668,-0.050534632,0.0075195115,0.12440233,-0.009572614,0.035974387,0.041031703,-0.0025138315,-0.056526754,-0.08483682,0.014040735,0.034066226,-0.09317172,0.062215205,-0.06156231,0.15740459,0.0010067308,-0.09442086,-0.017182894,-0.08515184,-0.02476083,-0.10438589,0.08387086,-0.13308904,-0.026919536,-0.15190199,-0.13092051,0.011355567,-0.090657555,-0.030156044,-0.020356968,0.020126479,-0.037887763,0.13829423,-0.0081924,0.025740251,0.049345687,-0.072532676,-0.005758195,0.008721946,0.053945452,-0.019731607,-0.056302242,0.0025640244,-0.03589367,-0.0051367152,0.021353748,-0.111090645,-0.06127105,-0.1227755,-0.0026602987,0.11369977,0.116908796,-0.09716264,-0.0129748965,-0.09120663,-0.04877425,-0.05615671,-0.15605305,0.08878726,-0.08072185,0.021692395,-0.04731013,-0.0798043,-0.06514225,-0.0026905553,0.026181366,-0.0074060066,-0.075322844,-0.06770735,0.07441077,-0.08225178,-0.11829195,-0.07137737,-0.06571556,0.021248147,-0.06437901,-0.024445862,0.071340464,0.010294569,0.09449924,0.07583914,-0.002226196,-0.025419801,-0.094842054,-0.01999568,-0.06642615,0.03856603,-0.040925574,0.015780343,0.0628713,-0.0024868597,-0.038391437,0.119330786,0.0018759797,-0.13495405,-0.119450726,0.06612715,0.12482023,0.054266915,-0.1481624,0.0066701053,0.033079877,-0.05728849,-0.13928947,0.084135115,0.032863118,-0.031695645,-0.11646452,0.105617926,-0.07034446,-0.04026243,-0.06746382,-0.05827695,0.14345959,0.0395359,-0.055011697,-0.024761332,-0.031546295,-0.035379805,-0.09173193,-0.09211305,0.00803081,-0.14095142,-0.032477345,0.088756226,0.044298384,-0.013724237,-0.11829078,-0.0053751264,0.054566354,0.029557701,-0.09689596,0.020397516,0.010362335,0.005432659,0.06593886,0.07513599,-0.02811258,-0.032459203,0.062518604,0.043418016,0.019340968,-0.04214089,0.05072308,0.03439031,0.09498269,-0.029557526,-0.014282651,-0.12123113,0.069546565,0.16082282,0.07740255,0.040365547,0.03253009,-0.04606823,-0.09147182,-0.019669753,-0.059426118,-0.0053815017,0.07648064,0.07900575,-0.029317835,0.07702796,0.010023352,-0.0074157165,-0.0052942876,0.010588778,0.026047096,0.050548676,0.0077571617,0.008146722,-0.045852527,-0.046499003,-0.10631693,0.005657388,-0.06453338,-0.12188701,-0.11769839,-0.031118015,0.018406792,0.036362853,-0.07997809,-0.051108416,0.011080371,0.13247818,0.0044900924,0.01366481,-0.0064119757,0.049201906,0.056080926,0.05524026,-0.064792156,-0.06562557,-0.10937104,0.023158258,-0.055297468,-0.008223105,0.04681093,-0.09443136,-0.0002139009,0.03344799,0.18778741,0.044329688,-0.08103258,-0.009970943,0.08396345,-0.09666569,-0.06477079,-0.07613321,-0.041169703,-0.055856615,0.07034157,0.032669224,0.087790824,-0.10768452,-0.0416636,0.115081474,0.07991561,0.046897803,-0.011607668,0.06497698,-0.12647216,-0.0636636,-0.048842307,0.09401319,0.17940517,0.14015411,-0.08868075,0.0040614316,0.05204028,0.10583513,0.12664416,0.060572382,0.034692537,0.050685223,0.07608833,0.0147405565,-0.060382538,0.013951615,0.022133153,0.10365094,0.11143055,0.018462332,0.06543551,0.070914656,0.10735166,0.0030600657,0.04709142,0.017932633,0.015539112,0.066636235,-0.029819269,-0.035099298,-0.12506247,-0.096435145,0.11966897,0.119083315,-0.03349915,-0.10258868,-0.027878363,0.0713183,-0.06474044,-0.14932132,0.028693145,0.03806901,0.0789954,0.024597254,0.01592481,0.03759424,-0.02794104,0.0141312815,-0.017190006,-0.0030257164,-0.038330186,-0.20516069,-0.060196873,-0.02240238,0.0887211,-0.078922704,-0.068117276,0.026786722,0.113668,-0.102120504,-0.061188355,0.037148118,-0.032210167,-0.1705629,-0.098573506,-0.10024008,-0.030222416,-0.113538355,-0.078446336,0.005381852,-0.038600683,-0.009131698,0.064422876,-0.018576516,-0.029030314,0.031668868,-0.020509461,0.005961474,-0.12679921,0.028261444,-0.0015490262,-0.0034190768,-0.0070712706,-0.03578982,0.120909564,0.10860053,0.03400939,0.007694292,-0.08935767,0.083429195,0.024150837,0.106654,0.0562466,-0.031829778,-0.10424002,-0.018302152,0.025806915,0.02185592,-0.011227037,0.057160284,-0.023453986,0.060246438,0.0016978019,0.08392724,0.028813336,0.07268011,-0.07880557,-0.033917397,-0.055084325,-0.11692998,-0.08592768,0.10836064,0.07522188,0.03646748,-0.024803596,-0.06016626,0.048996896,-0.109181456,0.031892158,0.03077327,-0.012186645,-0.060844634,-0.057534125,0.04687246,-0.01926713,-0.024980024,-0.00060132967,-0.0014182732,-0.07824612,-0.05365137,-0.17094946,0.025708912,-0.062114492,0.048700184,-0.01784543,-0.040710773,-0.0011535747,-0.022846198,0.044042144,0.041521724,-0.016040837,0.017489819,0.024355138,0.050624795,0.0049603796,0.002686279,0.029319592,0.137285,0.031235233,-0.0878383,-0.010888428,-0.09013896,0.05136839,0.036302157,-0.074146494,-0.11163738,-0.1362449,-0.032308508,0.06567624,-0.15036282,-0.022897419,-0.06620189,-0.023844484,-0.035306726,-0.111776836,-0.03254178,0.054165483,-0.06989823,-0.027960712,0.010892972,-0.015357451,-0.061797906,-0.06733607,0.08309484,0.114081,0.05569023,-0.039803833,0.053353462,-0.026397223,0.024915446,-0.0004024693,-0.033410314,-0.08122915,-0.038545825,0.004731328,-0.03461314,0.11985053,0.1280188,0.09473314,0.12352019,0.09502118,-0.091199405,0.0105242105,-0.007347697,0.048338596,0.15235977,-0.06570822,-0.0063088406,0.0048518805,-0.12765428,-0.020204771,-0.06877854,0.034193635,-0.10948805,-0.005863894,0.04522891,0.0082558505,0.08447165,0.017613828,-0.045291137,-0.013560055,0.01163695,0.0458418,0.028298106,0.046600305,0.031786237,0.03011264,0.0256919,0.08703412,0.059674866,0.035753395,-0.037914887,-0.05454674,0.036893167,-0.05629128,-0.017551336,-0.0143666295,-0.011646589,0.009242814,0.014272035,0.0031748163,0.014085757,0.17788924,0.05230145,-0.104512155,-0.090859935,-0.041105837,0.09099354,0.06876645,0.0011844548,0.12357942,0.05270027,0.08966896,0.03733913,0.048696313,0.035066344,-0.0059464024,0.07067944,-0.010514272,0.13330041,0.09607084,-0.1074315,-0.015569214,-0.0011872603,-0.0965962,-0.056223445,-0.024835737,-0.011247159,-0.04450861,0.007873994,0.05134262,0.06814608,-0.019814452,0.06067388,0.07705196,0.12231451,0.004236776,-0.07921789,0.09825678,0.030524254,-0.017627966,-0.057271987,0.06435831,0.050242297,0.08179272,-0.07395909,-0.015698884,0.056908235,0.109615594,0.009330185,-0.16478594,-0.012073198,0.06765986,0.042523645,-0.04440272,-0.07989229,0.107729085,0.049318142,0.021508954,-0.05516889,-0.084985286,-0.0122744525,0.0121006565,0.032778338,-0.04678322,-0.110229336,-0.07070568,-0.038616493,0.021763328,-0.039043806,-0.031414613,0.005722968,-0.035737656,-0.06956319,-0.03651165,-0.05931601,0.008361331,0.07636355,0.039045714,-0.028269056,0.035198644,0.087527245,-0.033626582,0.049269956,0.010423018,0.0076762396,-0.034523256,-0.02161493,0.029505359,0.030449217,-0.016735574,0.07078639,-0.08076378,-0.04141489,-0.006778372,-0.046701808,-0.025607435,-0.06401189,-0.1380698,-0.035760228,0.033013113,-0.071927,0.022860931,-0.10193608,-0.1275715,-0.051447023,-0.16120574,-0.08818883,0.04780615,-0.039836504,-0.01965354,-0.025618825,0.01271252,-0.02903991,-0.05218056,-0.01891154,-0.009970012,0.027182855,0.09230538,0.07301172,-0.023848997,-0.015558801,0.0032706526,0.007888324,0.018087959,-0.006844881,-0.1502505,-0.07270561,-0.116532706,-0.045384955,-0.14730053,-0.052416563,-0.038904216,-0.09604533,-0.12979664,-0.051742636,-0.015479072,0.11933495,0.079735376,0.084366,0.020955363,-0.10581707,0.073412925,0.02242447,-0.070095025,-0.1516208,-0.034263726,-0.06307097,0.037754867,0.08690895,0.08632604,-0.06752186,0.07871547,0.03985017,0.12732878,0.06715637,-0.087061055,-0.13613144,-0.05974233,-0.030505862,0.0051188176,0.013567228,-0.07155762,-0.09128836,-0.10459938,-0.029081384,-0.0074833366,-0.045434114,0.1433815,0.0041335463,-0.10424644,0.061262585,-0.071546465,0.044772096,0.071385846,-0.013807708,0.055589944,-0.070667736,-0.08592453,0.037983615,-0.062853105,-0.028304165,0.13044004,0.09190313,0.0147328405,-0.097722255,0.008060304,-0.07339273,-0.041943356,-0.005914531,0.072305426,-0.03260352,-0.026905492,-0.08988967,0.04855617,-0.01289026,-0.08514895,-0.052193098,-0.047739305,0.034150995,-0.016852729,0.017792353,-0.06342265,0.046634696,0.009933082,-0.04249838,0.044225235,-0.03719766,0.10475337,-0.06610423,-0.04530375,-0.035469197,-0.13644958,-0.22583662,-0.12597892,-0.10511224,-0.004001028,-0.086987704,-0.06146018,-0.05421189,-0.07977468,0.012809737,0.09395298,-0.06384031,0.01266992,0.029747387,0.07466073,0.012716472,-0.028994547,0.008641821,-0.13469267,-0.03245652,0.15517144,0.11407444,0.04898965,-0.097789034,0.03598568,0.054978497,0.104815535,-0.029965192,0.046044283,0.035065245,-0.03211557,0.070821464,-0.084430754,0.14694287,0.00829732,0.04659253,0.13089193,-0.08066577,-0.02400447,-0.06858031,-0.053519286,-0.019944638,-0.12332083,0.010501172,0.017192524,0.093565606,0.11356729,-0.0068201777,-0.06776673,0.020992333,0.020834371,-0.054729708,-0.027317299,-0.059413265,0.084191225,-0.08944953,-0.11488913,-0.0020681955,-0.043987423,-0.053061083,-0.061656736,-0.1366323,0.009119791,0.06531144,0.019157935,-0.016595352,-0.038180046,-0.09188255,0.024369093,-0.18750328,-0.12963474,0.042081207,0.05048945,0.14847422,-0.0650069,-0.03129259,-0.0003559828,0.018228143,-0.07907425,-0.035925716,0.00937661,0.029875476,-0.0010701574,0.09454668,0.03318989,0.06539029,0.01047241,0.024153883,-0.013532765,0.05135465,-0.034087207,-0.18805481,-0.046729658,0.019100945,-0.11810636,-0.097416036,-0.25802502,-0.15918496,-0.18857804,-0.10432295,0.024613906,-0.0027604038,0.011431997,-0.12941396,-0.06715973,-0.03989379,0.062442224,-0.016209483,-0.11960492,-0.030249238,0.048909634,0.015516116,0.027039453,-0.09110773,0.040046655,0.08671135,0.01230945,-0.11972773,-0.06297187,-0.014102681,-0.004093271,0.053243317,-0.16266912,0.0012189597,-0.012533057,-0.0023114039,-0.00513416,0.036305744,0.016938686,0.11027798,0.07320555,0.03831717,0.048768792,-0.046277385,0.044749286,-0.06609867,-0.07755376,0.011615301,-0.12604792,-0.0425971,0.027232781,0.0043763677,0.0122775,0.099499285,-0.23106237,-0.12379366,-0.1670878,-0.13724749,-0.13407327,0.041591465,0.033454914,0.0023215818,-0.018421998,-0.12532221,0.057715546,0.08987422,0.050897937,0.015507476,0.0593008,0.049874004,0.04062575,0.006526107,-0.06390973,0.08206276,-0.055145577,-0.014634954,0.0036202406,0.12248138,-0.0009898485,-0.13275167,-0.034140874,-0.036987893,-0.07883321,-0.19808535,0.00983672,0.044810705,0.016287439,0.035202183,0.059184883,-0.07318508,-0.027174292,-0.064822294,-0.059743408,-0.04555131,0.014581348,0.059814256,-0.024860665,-0.15017828,0.0056422497,-0.036816742,-0.004895114,-0.016768336,-0.09963533,0.05006538,-0.060728896,0.035985187,0.067177214,0.06934681,0.035303775,-0.017415082,0.06749221,0.0087323915,0.001042089,-0.08133702,0.0046200966,0.06401931,0.012819549,0.0500337,-0.08491855,0.0355655,0.03949411,-0.008046853,0.015997589,-0.0817008,-0.05901986,0.058615383,-0.025228327,0.03879188,-0.10261791,0.049762692,0.12532291,0.06366027,0.09623,0.108440645,0.22040766,0.041632477,0.11581624,-0.047919255,-0.10648973,0.08221188,-0.034738835,0.10281162,0.04436523,0.015091848,-0.049811505,-0.024708988,0.055491984,0.040887475,0.12896025,-0.1083809,-0.09690904,-0.09626598,-0.02400309,-0.007156058,-0.12077265,0.021572165,0.036570214,0.059045482,-0.083239645,-0.033714384,-0.101563625,0.065696225,-0.03148291,-0.010558642,-0.034806203,-0.06278559,0.02340496,-0.062139772,-0.011361427,-0.073688544,-0.08595677,0.032702,-0.086534925,0.016765887,-0.030262375,0.03455706,0.0786855,0.019343432,-0.040494833,-0.030275397,0.078471206,0.012720747,0.0037905886,0.01913876,-0.06620148,-0.14612281,0.15053113,0.02064404,0.017320795,0.14377424,0.007852372,0.014407107,-0.07100289,-0.00051593035,0.0026758856,0.006055469,-0.047628947,-0.10713814,-0.21254402,0.0290813,0.062004928,-0.07257236,-0.13672481,-0.087242804,-0.00089553033,0.072522014,0.04945827,0.019886494,0.002459523,-0.06224311,-0.10750453,-0.033667307,0.14068052,0.09168076,-0.054121688,-0.1213954,-0.060505405,-0.038680762,0.047599964,-0.006033352,0.024597602,0.013203024,-0.05841431,-0.02002123,0.029974466,0.12023573,-0.0711041,-0.072860144,0.09942222,0.08625442,0.04100759,-0.06633241,0.10782261,0.06463437,0.14987637,0.05782111,-0.02878019,-0.11310845,-0.18575497,-0.09403143,-0.06216406,0.05491877,0.07121846,0.008654306,-0.1904089,-0.021369912,0.03779472,0.11049196,-0.012583315,-0.117635414,0.06672525,0.092341915,0.05043752,0.080113776,0.12647758,0.066894226,0.08099055,0.0915943,0.029935416,-0.012266697,-0.0327974,-0.14065073,-0.06340957,-0.028086485,0.10263049,0.12410696,0.10619305,0.004337742,0.027133226,0.06811692,0.08266253,0.04070394,0.18775965,0.04285494,-0.08120002,0.10037355,0.061702482,0.006113583,-0.03463714,-0.013638872,0.06740903,0.038519584,0.0023030143,0.015874187,0.037302185,-0.093026124,-0.01047543,-0.016712325,0.028752081,0.047877382,0.13974985,-0.0022789596,-0.1725007,-0.031727705,0.028152449,0.055286154,-0.056894053,0.06482829,0.041541122,0.052967794,0.065391324,-0.036019947,0.0067493897,0.07338978,0.055524144,-0.03492445,-0.013852394,-0.06711195,0.06448994,-0.036605913,-0.06954406,-0.012880525,0.06377858,0.02831227,0.086177275,0.09554015,-0.02152291,-0.05402795,0.044929612,0.049311653,0.13846175,-0.007418763,0.12383699,0.024838086,0.021360544,0.12154405,-0.043017942,0.0105838645,0.045092452,-0.034560177,-0.079546355,-0.07200329,0.026888382,0.0042011603,-0.15810564,-0.08036613,-0.07593945,0.08694496,0.1578145,-0.061463654,-0.083786115,-0.04760173,-0.037969977,0.0045569045,0.07347798,-0.044566058,-0.0231224,-0.062449317,0.045899786,0.08835506,-0.07441789,0.05402007,0.01912697,0.021861188,-0.018688742,0.07448388,0.03283429,-0.03642131,-0.035507105,0.039420445,0.087195866,-0.13681293,-0.1725487,-0.17454772,0.091185525,0.1002201,0.028161908,-0.01994133,-0.16520996,0.040578194,0.07112922,-0.04812859,-0.0966178,-0.14631933,0.07563919,-0.051272333,0.046840396,-0.045851782,0.0052825212,0.03579853,-0.046338223,0.018273463,0.07779779,-0.044336103,0.01255077,0.06430264,0.011744573,0.012681973,-0.11602735,-0.13532294,-0.099865995,0.03247541,0.010322007,0.025110088,0.041405927,-0.030987566,0.018330248,0.0032783288,-0.14810781,0.048069537,-0.019747317,-0.045579612,0.0971788,0.08160897,0.062261086,0.08153684,0.07603353,0.061445028,0.014514411,-0.03268064,0.045830697,0.010816333,0.09719975,-0.08370129,-0.03358014,0.040398043,0.089493535,0.07840891,0.027605087,-0.043499764,0.06949792,0.009263244,-0.055131245,0.049825754,0.096223116,-0.06001763,0.04900739,-0.0018654733,0.08932228,-0.04828249,-0.0035415757,-0.033520095,-0.033388898,-0.027276533,-0.12456685,0.049927376,0.05069469,0.06728187,-0.039221946,0.021351406,-0.030865557,0.051970966,-0.011006673,-0.0045663854,0.0007824834,-0.057405744,-0.08376497,-0.121287815,-0.03076415,0.009074811,0.029134957,0.07064625,-0.058806114,0.08612354,0.04799204,0.112567574,0.0604483,0.046997078,-0.03765393,-0.022030776,0.004193125,0.016038742,0.03391002,-0.0060577868,-0.1753322,-0.11912438,-0.043582935,-0.057511803,0.164222,-0.12632307,0.028033694,-0.06647026,-0.033186752,0.02599013,0.019320464,-0.016016344,0.067264095,-0.045662683,-0.05715885,0.12995353,0.038715087,0.008672445,0.016155105,-0.08269485,0.083938904,0.063409224,0.07981294,0.07854068,-0.017788254,0.07140183,-0.02028405,0.048471373,-0.05946445,-0.104287006,0.008853277,-0.06621916,-0.12172628,-0.03961706,-0.068946674,0.045200158,0.069514595,-0.048718173,-0.1266462,-0.125233,-0.09794738,0.103170455,0.06258635,-0.029295184,-0.13082981,0.019399801,0.04525541,0.04773266,0.116627716,0.12812664,0.06681522,0.114466675,0.008538793,-0.012635062,0.019517403,0.09288415,0.034988463,-0.055046313,-0.081992544,-0.035912532,0.08655234,-0.13987106,-0.20921893,-0.093034506,-0.07746685,0.004973631,-0.010363819,-0.065106206,0.0020717802,-0.051371798,-0.00029381222,0.05645758,0.10211673,0.039098725,0.018858915,0.064714804,-0.009823789,0.040601034,-0.011390644,-0.029976677,0.0205629,-0.023220554,0.05547157,0.036424275,-0.0024456554,-0.17193677,0.06653295,0.011755722,-0.089636706,-0.0111637125,-0.038682334,0.084682055,-0.0062167435,0.014764199,-0.029699076,0.022283921,-0.056393515,-0.017853985,0.08552897,-0.13004246,-0.036128137,-0.07195709,-0.04731218,-0.05224625,-0.07219973,-0.031922475,-0.110405214,-0.25054726,-0.038216773,-0.04991462,-0.07949565,0.012801693,-0.044721905,0.0066039558,0.14110182,0.116541594,0.07662026,0.1581247,0.026330996,0.13482374,-0.019367663,-0.010916928,0.06474398,0.09643837,-0.104599625,0.12373735,0.09639294,0.013088663,0.015133526,-0.075894654,-0.063585244,-0.07104948,-0.11032635,-0.102485545,-0.03708975,0.038020983,0.073952205,0.038786285,0.0048340377,-0.03875822,-0.13812244,-0.020936156,0.016231222,-0.0357554,-0.016570326,-0.039404266,0.07220784,0.01915557,0.0026316878,-0.068527356,-0.1027575,-0.07550411,0.11392658,0.06668604,0.1213349,-0.009621152,-0.087444484,-0.062471848,-0.019929595,0.07906755,-0.045080654,-0.13147353,-0.12359564,0.032323144,0.029401334,0.09513525,0.0055891452,-0.20842095,-0.14905821,0.06594129,0.006587641,-0.010354727,-0.023261745,-0.00555508,0.098866045,-0.021187048,0.12502275,0.00707864,-0.01874785,0.031971112,0.008406345,-0.04511881,0.012350724,0.05682771,0.040463854,-0.0386615,-0.032493293,-0.039462857,0.037319306,-0.017923959,0.009294542,-0.035772517,-0.096410155,-0.020243002,-0.08618078,-0.013579202,-0.15918776,-0.10276417,-0.02463038,0.013974036,0.011024112,0.00046516213,0.0651394,0.0005532457,-0.017399775,0.013225783,0.058814935,0.054986253,-0.044392258,-0.0145491,0.102591455,0.040179007,-0.0036829016,0.045722757,0.03157897,-0.109396674,0.004234734,0.04308943,0.12147563,-0.0015727949,-0.055198427,-0.08737132,0.05809952,0.13104449,0.050599415,-0.0116223395,-0.016556397,-0.101794116,0.01737632,0.069854036,-0.04155302,-0.081755616,0.007672177,0.006062493,-0.034625605,-0.011886213,-0.08746347,-0.009512649,-0.051554356,-0.07062416,0.0009562897,0.13961703,0.002993046,0.047703777,0.12586688,-0.153819,-0.08053612,-0.014709049,-0.04119531,-0.07739701,0.0015800678,-0.0152415605,-0.007302387,-0.11968636,-0.11214923,-0.051305592,0.030963633,-0.09524588,-0.1649468,-0.015961535,0.0487328,-0.026016781,0.02638395,-0.053115934,0.05166537,0.039405536,0.14179374,0.12530765,0.1089015,0.1401304,-0.11075361,-0.11867016,-0.09683524,0.0059070224,0.13021785,-0.06965638,-0.13754971,-0.026461963,-0.072322056,0.021445066,-0.052063145,0.022452895,0.055285413,0.041678775,0.02068883,-0.0047822716,-0.08030984,0.074993335,0.04193493,-0.059522513,0.03623295,-0.03616097,0.073957965,0.026005697,0.087827094,-0.02091421,0.04499215,0.06540068,-0.04675015,-0.037519734,0.013808758,0.035009,-0.020907562,-0.037949342,-0.08170614,-0.026811305,-0.11605831,-0.07004809,0.13327642,-0.08632501,0.061086833,-0.057892606,-0.0073352223,0.047866065,-0.11597964,-0.09757506,-0.12636799,-0.027098184,0.022470273,0.0930399,0.029453013,0.04728977,-0.06899624,-0.038761117,-0.04337967,0.06695176,0.030353649,0.030385995,0.086140215,0.07578485,-0.012900948,0.025150144,0.036722574,0.11371608,0.09993655,-0.082023695,-0.011112379,0.06150673,0.06589466,-0.035557754,0.06688429,-0.02500225,-0.09484063,-0.24102418,-0.14584805,0.033897944,-0.10262966,0.027802482,0.06939838,-0.032191146,0.025056846,-0.058234982,-0.066679515,-0.03978838,-0.06535205,-0.03893591,0.02247065,-0.03680385,0.09046744,-0.031014906,-0.028596252,0.104724646,0.09388735,0.040626116,0.038335875,-0.07637755,-0.0013175153,0.016961614,0.009733867,0.00036493913,0.008794278,0.09767245,0.06968624,-0.101043515,-0.05398149,0.12497419,-0.006221734,0.03230811,0.06972235,0.060021814,-0.015849048,0.00028289075,-0.08869091,-0.044019293,0.007196983,-0.0047463984,-0.053291738,-0.016436309,0.049934655,0.015057219,-0.1162952,-0.06901598,0.0254868,-0.033975244,-0.09894261,0.025769478,-0.009481047,-0.017245611,-0.07143854,-0.044820815,-0.022455418,-0.07754038,0.078823626,-0.008155808,-0.04728868,0.08495141,0.06870597,-0.045362584,-0.05800847,-0.038955264,-0.09307592,-0.017896973,0.035972424,-0.12757064,-0.13487613,-0.043191608,-0.16112396,0.018184502,-0.111512534,-0.1457245,0.020071728,-0.038612183,-0.0012251419,0.011238843,-0.056266245,-0.07358832,-0.058601584,0.023146449,-0.057102304,-0.093420364,-0.029164389,-0.026574578,-0.12010742,-0.0696032,-0.052693214,-0.14200267,-0.1285953,-0.0625061,0.053259816,0.08961629,-0.027685435,-0.07853503,-0.050948054,0.020443423,-0.08146906,0.10562951,-0.012529248,-0.06286837,-0.094829954,0.036722742,-0.053816468,-0.100249246,-0.0020953016,0.0077022207,0.0682519,-0.048206892,0.03663974,-0.036306113,-0.06945801,-0.032648712,-0.04548412,-0.029207388,-0.042883445,-0.12437808,-0.14328876,-0.24266024,-0.16364856,-0.08897771,0.034139525,0.014201397,-0.009966738,0.053884916,0.007904501,-0.007543143,-0.042072874,0.045695487,0.069738336,0.03063704,0.017104784,-0.020671688,0.03720207,0.036534864,0.01604244,0.08049729,0.06116673,0.02227168,0.018085316,0.06694703,0.11273929,0.13215394,0.04239272,-0.06409897,0.011671752,0.043020282,0.044413056,-0.12248793,0.007838482,0.030921748,-0.047491226,-0.07229498,-0.04882059,0.02522747,0.04858307,0.055917677,-0.030543821,-0.035426646,0.114596575,0.01948329,0.037105504,0.14031135,-0.018230524,0.09498947,-0.06390549,0.035721254,0.08918027,0.029208597,-0.073687695,0.022601474,-0.028932143,-0.028306898,-0.015300496,-0.11955595,0.03289996,0.07455964,-0.06976606,0.034514263,-0.011375086,-0.17689592,0.03265093,0.00021476569,-0.04204839,-0.056808244,-0.08758059,-0.023872081,0.047393184,-0.16537295,-0.0858183,-0.02310181,-0.07142066,0.0029233007,-0.064655475,-0.07099577,-0.025640327,0.027606877,0.02589391,0.0016532226,-0.18131645,-0.13609256,-0.0033294559,-0.13113624,-0.05902472,-0.031677287,-0.12822221,-0.13519798,0.0041129272,-0.07527655,0.0981133,0.0513961,-0.061409075,0.06393618,-0.024142891,-0.068365015,0.018411586,-0.018409634,0.0059277723,-0.066695385,-0.027283533,0.082606144,0.14094965,0.13471527,0.08004498,0.025015797,-0.03309686,0.07646321,0.06836206,-0.043198094,0.08161308,0.015067066,-0.052883267,0.04091256,-0.055544432,0.043544333,-0.11214332,-0.017118646,-0.11681822,0.07669093,-0.010169197,-0.09647905,-0.0852766,0.010894864,-0.06224825,0.03884691,0.09728218,0.04166576,-0.003494856,0.024502808,0.09690717,-0.06694017,-0.12856412,-0.07043525,0.10694244,0.10986126,0.11021919,0.056900926,0.020029288,0.023291131,0.120984055,-0.042266592,0.08467071,-0.009274625,0.060991302,0.111179836,0.0073563843,0.039438393,0.033072803,0.074012615,0.05742674,0.020659637,-0.13042012,0.03231591,0.008753996,-0.035809882,-0.08573642,-0.019799653,-0.07780414,-0.058959823,0.020575024,0.029321844,-0.0822558,0.07456877,0.037527964,-0.023163628,0.09302313,0.0038291363,0.0688295,-0.09402177,0.02332371,-0.07018919,-0.012691543,-0.0511995,-0.061021578,-0.1613559,-0.005846219,0.21533865,0.14319554,-0.02493723,-0.035096664,-0.053006675,0.048139717,0.041334253,0.07895618,0.027288768,0.11126913,0.07392274,-0.011657755,0.059593096,0.047079854,0.12205621,0.007334756,-0.01569509,-0.084943414,-0.12907885,-0.037620068,0.020177247,0.082901604,0.16837032,0.044173144,-0.044946477,0.11801175,0.027407223,-0.0018860297,-0.06033626,0.048140842,-0.045045886,0.0021898593,-0.002218403,-0.024361579,-0.0765854,0.090480365,0.061473608,-0.023989888,0.0119823115,0.025208218,0.05153673,0.022256372,0.08092642,0.06545252,0.07046537,-0.08210417,0.009294756,0.060801577,0.02512129,0.02084247,-0.018549327,0.0107811,-0.0948277,-0.09188373,-0.008360944,0.026957627,-0.05795321,-0.05306613,-0.030680502,0.021633526,-0.057261154,-0.053125624,-0.0930411,-0.035223372,-0.10197187,-0.05160219,0.07338324,-0.19492339,-0.084327295,-0.00048650318,0.01447124,0.10087624,-0.016909346,-0.027834311,0.071347624,0.03900975,0.05258239,-0.053608738,-0.035261825,0.12758261,-0.0031556496,-0.005583512,-0.07768645,-0.0811051,-0.0398742,0.03596357,-0.053777277,0.021013463,0.043965377,0.066309,0.028553063,0.01883815,0.05357016,0.13210796,0.073056415,-0.01478245,0.074398614,-0.082353055,0.056331757,0.05691267,0.008547282,0.1048338,-0.02869869,-0.0055646556,-0.09000787,0.1371678,-0.16838866,-0.11031844,-0.09823139,0.100005366,-0.008131667,0.010521743,-0.039559193,-0.07600063,-0.022483217,-0.011569461,-0.034687128,0.018695598,-0.02419829,-0.011202207,0.06650799,0.12694328,0.008630047,0.07184198,0.10862705,0.16648352,0.26491567,-0.077990234,-0.13672118,0.03014338,0.014940289,0.0614925,-0.102342546,0.007940049,-0.008534616,-0.039407928,-0.123177566,-0.037196033,-0.023454273,-0.06315118,0.021664267,0.10845505,-0.1498822,-0.008103153,-0.0012423764,0.02303617,0.024572033,-0.12169266,-0.016320312,0.11945468,-0.03366633,0.014826003,-0.003158829,0.03713795,-0.097300574,-0.047874667,-0.10033752,-0.009445528,-0.03647099,-0.03935435,-0.03809679,0.13938376,-0.0032213978,0.061687462,0.040360793,0.11014325,0.04472258,0.047346428,-0.05350594,0.020870173,-0.065630086,0.033524774,-0.018832093,0.027299188,-0.03182972,-0.04772442,-0.057282753,-0.09504966,0.054399293,0.046843737,0.0943792,-0.14836776,-0.1128267,-0.030115314,0.027738007,0.037970588,-0.08683458,-0.014229012,0.011750859,0.0765337,0.027157018,0.044040114,-0.06853647,0.035559367,-0.012008718,0.059247993,0.10221838,0.045707803,0.0009769072,0.08109412,0.019308219,-0.0035127106,0.06635761,0.18743622,0.072560005,-0.09071463,-0.17205045,0.07044304,0.01647534,-0.013365495,0.03454348,-0.08549675,0.14993744,0.050012253,-0.025580391,-0.07421088,-0.04786515,-0.11613852,0.033332795,-0.0066570835,-0.06700878,0.0360399,-0.024178365,0.034651056,-0.05669347,-0.0026267767,-0.10458874,-0.11629046,-0.048762456,0.019679913,0.06996062,0.16690148,-0.09882637,-0.012416647,0.12137575,0.06778181,0.13021258,0.006330585,-0.062097825,0.002913364,-0.013674461,0.05276262,0.016504275,-0.06947808,-0.030278131,0.09752753,-0.07098281,-0.109835245,0.009703163,-0.023066169,-0.089235276,-0.09889995,0.02660498,-0.0043733064,-0.044471346,-0.06859511,0.050566413,-0.080635376,0.048057847,-0.015808547,-0.06758892,0.03493732,-0.014053191,0.01700176,0.056219675,-0.05899944,-0.10849338,0.031410594,-0.04498493,0.0066966666,-0.05795071,-0.023464272,0.028885363,-3.7653917e-05,-0.010951968,-0.09340213,-0.07571225,-0.10997327,-0.082038365,0.0912701,0.039474435,0.003449195,-0.08952748,-0.144352,-0.15994045,0.013495556,0.024047237,-0.16135009,-0.22498369,-0.10750632,0.014868211,-0.042124815,-0.046708398,-0.09815394,-0.14392738,-0.12531477,-0.08239252,0.027551075,-0.008020857,0.021350378,0.138822,-0.027773777,-0.024491813,-0.06389032,-0.012502759,-0.036635984,0.040226024,0.0051317303,-0.098470695,-0.10073138,-0.05114993,0.05430793,-0.051318794,-0.05871182,-0.037197627,0.027845519,-0.058061957,0.029980933,0.09725613,0.040948045,0.038363587,0.029820997,-0.0041590477,-0.0026648643,-0.05998734,0.03660328,0.040514346,0.05451383,0.124751806,0.0039687054,-0.02704815,-0.23833907,0.07281778,0.07649264,0.09780361,0.02286468,0.029018918,-0.07291244,-0.0246033,-0.046292048,0.021585468,0.02011386,-0.022713935,0.019995056,0.035255242,0.06368697,-0.003690741,-0.06999348,-0.061567854,0.057679236,0.050297342,-0.07816005,-0.05428945,0.024948603,0.0041503496,0.13750982,-0.025769332,-0.039641023,0.114584215,0.0800063,0.02254404,0.08415708,0.097655155,0.024934102,0.09105574,-0.0005250233,-0.0115881385,-0.059609473,0.019892313,-0.111897126,-0.0767559,-0.035004437,-0.09238225,-0.026932895,-0.02868291,-0.07163519,-0.042781048,0.090167016,0.091954075,0.07015503,-0.037826695,-0.030878432,-0.06240721,-0.055187296,-0.078121595,0.021097986,0.08004525,-0.007708615,-0.016217919,-0.0014862934,0.003648669,-0.008981551,-0.04961068,0.014242884,-0.039201517,0.08630748,0.06881189,-0.086070806,0.050920904,-0.031134121,-0.028810939,-0.0017535463,0.012675597,-0.1362703,-0.03330417,-0.026874393,0.050880156,-0.16338766,-0.13176475,-0.22128217,-0.015712537,-0.10854008,-0.09488073,-0.016237715,0.008105574,-0.021984182,-0.023869414,0.0115824435,-0.034502953,-0.18115467,0.03830182,0.028368922,-0.01952345,-0.018860357,-0.052986413,-0.016961558,-0.03557181,-0.021063833,0.03993301,0.07264403,0.040573638,0.034831583,-0.060012065,0.012442195,0.017295482,0.087784626,0.042860728,-0.055063047,0.0315536,-0.003133226,-0.033433013,0.042634357,0.07428801,0.035037465,0.07462995,0.07579004,0.021827243,0.059933808,-0.00293197,0.07401989,-0.017584562,-0.095956214,-0.17113759,-0.10459738,-0.12360655,0.028206406,-0.04382186,-0.15599297,-0.18415067,-0.14662576,-0.021902623,0.016976487,-0.2562209,-0.18526742,-0.17933023,-0.031355288,0.060429405,-0.049814243,-0.039208405,-0.07554305,-0.019304333,-0.0024948574,0.025377551,0.0029232628,0.092368655,0.0994379,-0.03535217,-0.08626363,-0.046115637,-0.019071316,-0.0944494,0.017115284,0.11926114,-0.015709538,-0.016178964,-0.011801406,-0.12583548,0.06694251,-0.0050173462,-0.08882418,0.014941791,0.035036206,0.07865848,-0.053346843,0.033605114,0.007518826,-0.017558645,0.012038612,-0.031117309,-0.02447704,0.0014986963,-0.03698233,-0.09768003,0.03108846,-0.007272401,-0.031229164,-0.04261992,-0.13527136,-0.058929242,0.01820205,0.05186813,0.11023591,-0.11311017,0.04668665,-0.027125483,-0.024857603,0.053417586,-0.027687294,0.0059186765,-0.0040846993,-0.03892682,0.014819223,0.025476579,0.0076965466,0.1657166,0.08160121,0.040018167,-0.019770686,-0.025882756,-0.038216658,0.017473029,-0.0398615,0.016496778,-0.076612726,-0.15767598,-0.018588725,-0.0682225,-0.014897474,-0.07217638,0.014075692,0.006667533,0.025762131,-0.04178352,-0.0073937597,0.05131811,0.034182217,-0.099503465,0.028046085,0.011449091,0.067367084,0.0009701917,-0.07006403,-0.042866345,-0.0008082561,0.033093326,0.019477302,-0.030875338,0.11998973,0.17173922,0.059556216,-0.018494092,-0.031151561,-0.050550465,-0.041350745,-0.01206644,0.09056116,0.0032492885,0.05446919,0.058300767,-0.10224637,-0.100672826,-0.16202952,-0.036988314,-0.0069660977,-0.031016553,0.024629323,-0.07605765,-0.020730482,-0.045042466,-0.04323481,0.059915323,0.0056331255,-0.039356615,-0.15109149,-0.014406017,0.06923373,-0.015542949,-0.026056433,-0.039048724,0.031744774,0.012921445,-0.15627357,0.0032012677,-0.06445516,-0.08851101,0.017168725,-0.14729676,-0.011283793,-0.008407723,-0.050112627,0.03518014,-0.02154279,-0.014412687,-0.07954153,-0.014197151,0.09548823,0.034716163,-0.12130501,-0.067109786,0.0134748155,0.09268002,0.12673178,-0.05645737,0.0044785915,-0.11958377,-0.04037391,-0.075526066,-0.039372474,-0.04780119,-0.047372013,-0.062003657,-0.10595772,-0.029741991,0.037276775,-0.031401124,-0.0064946655,0.00992983,-0.010116876,0.04694593,0.08077107,0.09214565,-0.000700506,-0.0076296125,0.034921262,0.048149683,0.03713615,-0.08164026,-0.020332301,-0.00936339,0.17376795,0.022790672,0.08013369,-0.024830032,0.009377848,0.087053314,-0.004468818,0.023560852,0.074699536,0.1194728,0.08126821,0.04307906,0.048946813,-0.03257371,-0.13997915,-0.07243506,-0.046017528,-0.042417105,-0.10180155,-0.068364695,0.03910245,0.040810935,0.007502586,-0.027413812,0.016376996,-0.080872625,-0.060568817,-0.06153799,-0.09581482,-0.0036361278,-0.044782564,0.055353757,0.1651152,0.14003359,-0.03712275,0.06114125,-0.0042076446,-0.028619608,-0.08819336,-0.23110528,-0.0102666505,0.14874853,-0.016105048,-0.0534802,-0.038218662,-0.0013212919,0.066217855,0.10880793,-0.05960627,-0.058201853,-0.06076603,-0.037635166,-0.050322436,-0.025686326,-0.0489285,-0.09565239,-0.13491663,-0.08810993,-0.0025804117,-0.05162589,0.02597315,-0.0390085,-0.18787527,-0.08456965,-0.06238256,-0.025354454,0.023226175,0.030281598,-0.097908676,0.059093263,0.032541893,-0.014219405,0.023541685,-0.026842503,-0.084378496,0.018900935,0.009366288,0.08168857,-0.047436178,-0.09028088,-0.11689105,-0.08333666,0.024844646,0.021213876,-0.0289421,-0.10853959,-0.08197495,-0.0132445535,-0.034195043,-0.03233432,-0.015533988,0.054360136,0.021671847,-0.1297449,0.01908969,0.071155295,0.120056786,-0.15615246,-0.12733836,0.041341852,-0.027650405,0.049215846,-0.059730798,-0.025892304,0.0034147096,-0.009007764,0.105430156,-0.08332057,-0.0021900772,-0.044694215,-0.057134908,0.08594368,0.07931433,-0.13429649,-0.08527332,-0.043732487,-0.12718709,-0.12517422,0.019920748,-0.1328989,0.058362365,-0.049758207,-0.12025019,0.018061128,0.00041013074,0.06919855,0.1609921,-0.001385103,-0.033747062,0.009210678,0.03198958,0.08433725,0.11968058,0.023342505,0.110183276,0.06593469,-0.00968255,-0.03174251,-0.061189726,-0.11435107,-0.004765019,0.061730035,-0.088317215,-0.19221261,-0.065625034,0.07191876,0.10148514,-0.032086104,-0.084780574,-0.17006284,-0.05869212,0.013091817,-0.06969935,-0.019334523,-0.03448936,0.07248927,6.351103e-05,0.11395776,0.06776055,0.009491822,0.03036104,0.03427766,0.07206448,-0.16987564,-0.11430194,-0.2620739,-0.24945906,-0.068353124,-0.119804285,-0.0885473,-0.06319755,-0.036919557,-0.09703673,0.013769205,0.032133628,-0.116249695,-0.048915677,-0.026483022,0.0804434,-0.052903198,-0.05985692,-0.03373525,0.04129063,-0.046378348,-0.008824889,0.038838245,-0.0022229683,0.027851498,0.08033909,0.036274705,0.12711808,-0.04856287,0.07002421,0.0722831,0.02653212,-0.18977842,-0.046676014,0.03019802,0.11688655,-0.0013701773,-0.025363669,-0.051731233,0.06667164,-0.038739137,-0.08784157,0.043864433,0.054961212,-0.03027267,-0.01900931,-0.003950047,-0.027692331,-0.013562555,0.06590576,0.042268842,0.043136574,0.074378096,0.028740512,0.017779693,-0.035682134,0.0026582552,-0.03454765,0.00418538,-0.03385795,0.07025832,-0.0406836,-0.07763443,-0.1655427,-0.11933976,0.022728328,-0.040712733,-0.045729052,-0.09923244,-0.048927803,-0.07841382,-0.036072154,0.044789966,0.08188221,0.08348249,-0.071616836,0.0143258935,0.057586197,0.063432194,0.039928894,0.02180201,0.04955343,-0.10542054,0.03623791,0.013997573,-0.09057203,-0.024951374,-0.018993737,0.016298927,0.20895824,0.015660983,-0.113364264,-0.056829404,-0.05598304,0.03219605,0.074926555,0.027802039,-0.093581036,-0.10605186,-0.00012724593,-0.021514859,-0.0074045043,-0.004671033,0.12515292,0.05604966,-0.018233163,-0.042789802,0.082803704,0.08609621,-0.10991353,0.0008813183,-0.01764739,-0.0017394546,-0.0120461,-0.12269428,0.005087202,0.0387644,-0.026880428,0.06942941,0.091421455,-0.046450086,-0.009577714,0.07209152,-0.018648759,-0.048512135,-0.007359993,-0.024945604,-0.034968525,0.07406474,0.042259056,-0.063239664,-0.11339312,-0.077644594,0.14582822,0.051577147,-0.011840397,-0.032572962,-0.0282206,0.07399328,-0.12251522,-0.08794722,-0.053194262,-0.023921702,0.020283597,-0.022410184,-0.096444435,-0.072242655,-0.17340134,-0.083478145,-0.0066430955,0.00033867548,0.010953799,0.04514071,-0.058051668,-0.06381133,-0.09020979,0.045347173,0.036636308,-0.10160728,0.004442335,-0.032814916,0.0016053573,0.16893609,0.12725635,0.078345664,0.012181944,-0.053678717,-0.030052364,-0.120064795,-0.0017162998,-0.059913486,-0.06932225,0.027949119,-0.020422513,-0.13088451,-0.14490834,-0.0048849434,-0.1276464,0.080393456,0.08284303,-0.093297616,-0.011065906,-0.027407795,0.005847188,-0.091383964,-0.017337801,-0.057699136,-0.128534,-0.030402783,-0.18370435,0.013412707,0.017262671,-0.04363609,-0.069938935,-0.08546781,0.038485337,-0.03458193,-0.030995896,-0.04508266,-0.03642862,0.056172445,0.039870583,0.014013521,-0.0072867107,-0.046842422,-0.044007085,-0.049854014,-0.057083372,-0.020382574,-0.09527985,-0.032506928,0.05386258,0.019773662,0.078735195,-0.045765117,-0.0948892,-0.048248734,-0.12403547,-0.015251973,0.00043162768,-0.069393605,0.052301962,0.09727179,0.11084977,0.0048499675,-0.22174525,-0.2074886,0.07098698,0.053675357,0.111672945,-0.10620502,-0.011429,0.036584157,0.033483565,-0.0058705425,-0.07179812,0.03629868,0.04606223,-0.05433668,0.033496927,-0.1707992,-0.09083325,0.032690957,0.009900534,-0.0212943,-0.08078293,-0.0443545,0.060098972,-0.10773334,-0.16542593,-0.063769564,-0.048651464,0.0162556,-0.12170519,0.009996553,-0.03581912,0.08758461,-0.03713775,0.04508688,-0.020479627,-0.07384162,0.007487159,0.012919406,0.021657089,-0.14139192,0.12498662,-0.08242059,-0.029662574,0.049477596,-0.085889265,0.059568577,-0.029426597,0.08066973,-0.08119835,-0.088898465,-0.09954756,-0.094524786,-0.03212377,-0.01141686,0.029546235,0.059848554,-0.07533954,-0.02344522,0.04300968,0.0039832843,-0.064825535,-0.010901289,-0.0462658,0.007797342,-0.060592532,-6.664444e-05,-0.07969293,0.092741586,-0.021644076,-0.19484948,-0.06181684,0.027945176,-0.030783365,-0.11352037,-0.14027274,0.09257597,-0.07930702,-0.062058847,-0.075856216,-0.0312866,0.08227958,0.05765497,-0.06858608,-0.046754133,0.123564295,-0.013086486,0.007963478,0.030106673,-0.03639752,-0.01646353,0.033971664,0.025116574,-0.0057062265,-0.040815447,-0.056775037,0.18458006,0.050134636,-0.040418245,-0.059927482,0.049124625,-0.15689802,0.03463166,0.049512085,0.05942806,-0.11487755,0.0054102177,0.14483704,0.1421682,0.04444877,-0.08893439,-0.077888,0.096070215,0.060728643,-0.025876941,-0.057156548,-0.05568089,0.032768894,0.00547416,-0.00622162,-0.016751407,0.02919862,0.11943494,0.002898114,-0.027812922,-0.053042896,-0.0073694973,0.034915417,0.09818201,0.028032746,0.03218289,-0.033457678,0.10404424,0.007894389,0.018758507,-0.07702474,-0.0010244258,0.094399825,0.062323682,0.008527534,0.009457821,0.04145631,0.0734886,-0.019201035,0.012748831,0.075911894,-0.0906707,0.019182488,-0.08083569,0.06817162,-0.0008989841,0.08928093,0.07836835,0.051056214,0.10672717,-0.10430492,-0.071905844,-0.046100248,0.022132115,0.044779684,-0.005993331,-0.026430115,-0.06359241,0.12625672,0.018313901,-0.06183604,-0.028687252,-0.04451504,0.013096568,-0.10244744,0.0635089,0.037635192,0.06484608,0.059400905,0.06835228,-0.06860565,-0.13381903,-0.104946464,-0.11231719,-0.017000716,0.10868389,-0.19260928,-0.21343619,-0.08898774,-0.00650299,0.006809854,0.050115813,-0.0058217915,-0.029258076,0.0034564002,0.08140696,-0.0027390984,0.08091044,0.03523988,0.09464644,0.041865844,0.05629392,-0.041563384,-0.058241095,-0.023900649,0.04608755,0.08020708,0.026398297,0.0853696,-0.045386937,0.13681199,-0.006995801,-0.0683927,-0.1590673,0.067113005,0.05302468,0.09939444,-0.04526559,-0.09720688,0.025857005,0.025675911,-0.027465353,-0.019712774,-0.015452648,-0.022267332,0.048227545,0.025891194,-0.05000624,-0.014022708,0.06976808,0.10543129,-0.15579705,-0.121058784,-0.15165415,-0.060290135,-0.102168344,-0.10508445,-0.15059122,-0.0019536598,-0.013105384,-0.00057925715,-0.11210568,-0.026714409,0.037345767,-0.07761118,-0.117400475,-0.009988278,-0.043569967,0.083260246,-0.009740085,-0.039745584,-0.032633483,-0.008460306,-0.06750069,-0.009775392,-0.08258728,-0.02227717,-0.07815339,-0.0056802356,-0.055555917,-0.083924204,0.017620603,-0.0898386,-0.09245367,0.025762185,0.035439536,-0.048798934,-0.15053643,0.00633171,0.1778967,0.13395515,-0.031113379,-0.060188387,0.09132116,0.09144866,-0.08306001,0.0013235743,0.09622205,0.07854691,-0.01720893,0.041856855,-0.1962429,-0.05936234,-0.022963008,0.1811836,0.19816388,-0.084766865,-0.035420015,-0.045088816,0.043441948,0.17924349,0.03285784,-0.05215821,0.051115114,0.08051736,-0.10060037,0.037846513,0.06370093,-0.07084469,-0.05525555,0.045150656,0.065746404,0.09404851,-0.06735446,0.0029663623,-0.150576,-0.0007515536,-0.07312974,0.112973824,0.097555436,0.03531289,-0.17942676,-0.13175823,0.011074077,0.08392273,-2.8968605e-05,-0.124622315,-0.031491168,-0.05341565,0.04761374,-0.1270986,0.09582639,0.0056751664,-0.05325237,-0.076328166,0.0042844336,-0.08502217,-0.039156526,-0.004806649,-0.042558625,-0.13257371,-0.030884365,0.028389877,0.037315674,0.00034756085,-0.13372965,-0.0436715,0.14821272,0.06279357,0.06804521,0.029077148,0.014285684,0.047951914,-0.0026085675,-0.16196793,-0.051045083,0.10226136,-0.05016581,-0.025724748,-0.054362334,0.00049841346,0.0034451233,-0.023820505,-0.14714205,-0.05899854,-0.058663104,-0.013700046,-0.11344044,-0.15387145,-0.05630688,0.01473226,-0.117653,-0.042585034,-0.091525346,-0.06043269,-0.07327058,0.04444381,0.023082362,0.1290582,-0.03838581,-0.13341583,0.05877501,0.087582536,0.0855601,0.12352762,0.010263907,0.04150563,-0.028875755,-0.024927923,0.05800726,0.20762342,0.0057215006,-0.11328267,-0.045173384,-0.08784602,0.005927633,-0.031454988,-0.042670574,-0.004352357,-0.04013736,-0.11764315,-0.001043764,0.0050134957,-0.079335436,-0.19338492,-0.017380172,0.031818803,0.11281859,0.033783134,0.01463662,-0.026228074,0.03575388,0.10517754,0.16493896,0.095978834,0.012996921,-0.053764135,-0.024618186,-0.014191358,0.064794436,0.03873317,-0.05284052,0.03773955,0.043725297,0.026326848,-0.018641619,-0.046679996,0.03835996,0.07926751,0.053339694,-0.028330345,-0.04066625,-0.048949044,-0.025336292,-0.022431508,-0.09648065,0.036862236,0.02449653,-0.022539852,-0.014586785,0.008305201,-0.0009031121,0.061208706,0.016650572,-0.097559534,-0.057430625,-0.12342367,-0.027906293,0.024556166,0.12923679,-0.03813624,-0.1540104,-0.006511078,0.11624972,0.071093135,-0.041671947,0.07858639,-0.14053616,0.057927534,0.06843679,-0.14223158,0.09161037,-0.056379505,-0.05524177,0.022010783,-0.035176657,-0.08125528,-0.07372232,-0.07033787,0.017720157,-0.10768349,-0.06323946,-0.12841304,0.050044984,-0.012337339,-0.10276195,-0.044333715,-0.012965508,0.038011696,0.0071691885,-0.13800143,-0.04480844,0.021957224,-0.00092406024,0.0049499134,-0.028800443,-0.035695415,-0.054953266,-0.073799364,0.008413173,0.12485017,0.005897533,0.03067734,-0.11359761,-0.01732016,-0.07631195,0.009897436,0.051310476,-0.048169672,0.068832554,-0.025836911,0.0032674912,-0.010725587,-0.08697693,0.024494205,0.057084214,-0.01750041,0.057058267,-0.11241449,-0.1149717,0.040195268,0.10936195,0.15296654,0.08577166,0.032174014,0.109962635,0.040300444,-0.004330418,-0.009335333,0.057062767,-0.06455991,-0.022236453,-0.0129390415,-0.07047814,-0.17802756,-0.12761082,-0.059023224,-0.022079522,-0.024571806,0.036369186,0.005746992,-0.036764383,0.13660552,0.20711389,0.11857219,0.09992346,0.019048415,0.015724065,-0.038147397,0.028850697,-0.03428615,-0.071351536,0.05132885,0.058561716,-0.0016909402,0.068738885,-0.08014799,0.05500219,-0.03884174,-0.016816143,0.043484166,0.12000235,-0.05085631,-0.0059944093,0.0040049334,0.22261442,0.015972925,-0.010265656,0.007601654,-0.03076263,-0.019415703,0.011106916,0.026310103,0.07562467,-0.030402502,-0.049122658,-0.07601381,-0.16626103,-0.02820463,-0.07759574,-0.09324511,-0.03576101,-0.033802062,0.011547419,-0.11044271,-0.09338619,-0.038868908,-0.02359521,-0.116726086,-0.12986307,-0.003539704,0.14936781,0.07200206,0.0043069436,0.058699653,0.024630852,0.04378704,0.06270844,0.054354325,-0.022399573,-0.07812317,-0.031735726,0.09972688,-0.027710268,-0.005596201,0.03852383,-0.02958443,0.025859863,-0.08848164,-0.02196095,0.02274626,-0.0032416913,-0.11094299,-0.046346907,0.11384325,0.06285933,-0.045427058,0.043978617,0.07188323,0.0041114776,0.039089262,-0.033516247,-0.07773061,-0.09691791,-0.062253322,0.05820896,0.060222358,0.097561866,0.08202084,0.09696523,0.07715,0.046779875,0.13946962,-0.017444663,-0.07360238,0.09885548,0.049813315,-0.018510262,-0.0652782,0.08522533,0.13120872,0.019317867,-0.0055383327,0.02840457,0.028321149,0.11094748,-0.04756209,0.05211356,0.06696811,