0.019274713,0.014126774,-0.032285742,-0.019604709,-0.017139021,-0.004125567,0.03934162,-0.020651074,-0.026380412,0.03880315,-0.043116238,-0.016114082,0.041319396,0.017232677,-0.018834831,-0.0032796413,-0.03488729,0.023455657,0.022791801,0.04142608,0.0009487097,0.01591887,-0.04430611,-0.037805904,-0.050439555,0.008428081,-0.03526376,0.03757816,-0.023882829,-0.0072098924,-0.04480448,0.0014365537,0.0070966035,0.011776627,0.043675292,0.021408236,-0.03979685,-0.04553292,-0.0018112566,-0.013338317,-0.019205952,0.012120879,-0.04310469,0.03837073,-0.029781803,0.008109937,-0.0049123173,0.0046302825,0.04432055,-0.019437889,0.028107265,-0.01338881,0.022436026,0.0041152043,0.016361516,0.018723404,0.04988651,0.027628295,0.03825322,-0.02609701,-0.040341057,-0.054335654,0.041229546,-0.016114533,0.032759134,0.031886876,-0.041799832,0.02330758,0.041808423,0.020439306,-0.013981413,0.025669754,0.029962074,-0.005459817,0.01845585,-0.032489825,0.011525318,0.038672537,0.043801133,-0.034076367,0.016383363,-0.015524671,-0.039047103,0.013381605,0.0063434807,-0.024672335,-0.035105877,-0.032751128,0.041463196,-0.045475967,-0.0144913355,0.038465794,0.02472624,-0.040062252,0.040437218,-0.0062306942,-0.025768913,-0.014139391,-0.0012380286,0.010164386,0.045710225,0.011929739,0.010616714,0.048182588,-0.0037506847,0.04037139,0.012405716,0.0050914804,-0.03886903,0.008394644,0.0412563,-0.010879972,-0.030673258,0.032569267,-0.0367474,-0.00811238,-0.02335783,-0.0063381884,-0.038514845,0.010967839