-0.06486938,0.079977304,-0.08839736,0.05621548,0.08757029,-0.06982318,0.08153972,-0.048319753,-0.09247507,0.013531801,-0.07528314,0.06506029,0.024717676,-0.03338214,0.04800801,0.078132525,-0.008617396,-0.078164004,0.041867882,0.07848236,0.023799941,-0.013154461,-0.04263766,0.070125915,-0.049430814,0.05151064,0.062627114,0.0042080753,-0.05597246,0.06263725,0.0924793,-0.024948299,0.053018905,-0.04309048,-0.055455912,-0.076386765,-0.072024256,0.021636248,0.05355631,0.072042495,-0.06185699,-0.042597335,0.06266696,-0.040692683,0.01830467,0.04165614,0.047257114,-0.06386106,0.08298248,-0.07162568,0.004148878,0.024063751,-0.059503417,0.063801,0.08403192,-0.08165211,-0.004644786,-0.056654543,0.08653878,0.026116833,0.0765947,0.07215668,-0.08793027,-0.07346978,0.07517105,-0.04905452,-0.0782845,-0.054350037,-0.045545507,0.082047544,-0.033457875,0.0021309962,0.04921135,-0.05993745,0.036873467,-0.02925024,0.07221957,0.053387605,-0.08072714,-0.0071520954,-0.072161555,0.041431926,-0.02751731,-0.0337306