0.04150166,-0.07586166,-0.08509102,0.11060035,0.034067277,0.12298693,0.010084931,0.040812653,-0.08645011,0.06386346,-0.07122741,-0.080649346,-0.05344544,-0.094124176,0.0006084253,-0.06591051,0.065525666,-0.050886326,0.12366575,0.027508937,0.027174849,-0.14566568,-0.17253545,0.06657968,-0.0139078405,-0.04741787,-0.01895561,0.061949816,0.14767624,-0.106008336,-0.02599283,0.13230652,-0.100980446,-0.04294761,0.10937484,0.04920576,0.0394301,0.113034755,-0.12222687,0.08498816,-0.009306853,0.011866541,-0.030377226,-0.06022677,-0.020865148,0.06630976,-0.09759786,0.08017837,-0.019733384,0.027233403,-0.10471025,-0.06432674,0.06806013,0.0041396488,-0.11843691,0.120726906,0.12815866,0.12707484,0.11987878,0.041848723,0.021596178,0.108496465,-0.050020218,-0.09119943,0.050920945,-0.04812897,0.064217284,-0.0021930793,0.11788535,-0.06356068,0.036221802,-0.020046812,0.055597097,-0.085751824,0.1699588,-0.16883907,-0.15763892,0.0717398,0.084125794,0.0033896728,0.006033901,0.089036256,-0.06762034,-0.023899341,-0.028849049,0.038690377,0.049903642,-0.018492568,-0.16147903,-0.19847363,0.14007722,0.063229375,0.11734993,0.03907739,-0.064704254,-0.012203392,0.09418925,0.049316883,-0.04053786,-0.0008588812,-0.04159781,-0.13743524,0.029912721,-0.00017048985,0.08291464,-0.066348106,0.02420189,0.093304895,-0.05003613,0.043346163,0.094645634,0.15639286,0.10912231,0.057993345,0.08309935,-0.048413347,-0.1175056,-0.021716423,0.022619566,0.10372324,0.02182239,0.03787071,0.032522436,-0.06453553,0.024549445,-0.04101739,-0.12322672,0.19765283,-0.039793503,-0.039737232,0.013690012,0.15367433,0.022602567,0.11322557,0.07115757,0.12400141,-0.0806915,-0.13679522,0.037545267,-0.10424275,0.054694373,-0.11486523,0.106189646,-0.17379855,0.024206994,0.03247046,0.16663839,-0.092196606,-0.013060071,-0.0717847,-0.012210057,-0.062281717,0.047448285,0.0432894,-0.026034044,0.21806383,0.046741646,-0.13851026,0.06889082,-0.00083841546,0.1365569,-0.13171385,0.061058626,0.017807603,0.03514185,-0.08832481,0.06496889,0.045319133,0.07398884,0.031473618,-0.074078076,-0.009002462,0.05771435,-0.018506175,0.060271453,-0.032375265,-0.11540829,-0.09393917,0.015874354,-0.0399791,-0.027559688,0.02444289,-0.13969815,0.10374733,0.036621667,0.05010733,-0.0028592222,-0.015242813,0.00064003456,0.025137099,-0.18737574,0.010499662,-0.13088815,0.068196744,-0.14219578,0.10365033,0.091806754,-0.049811084,0.111219026,0.044805005,0.09671319,-0.052301742,0.089425944,0.11277751,0.18984473,0.012775653,-0.014908998,0.01885837,0.011071124,-0.0055746757,-0.08453521,-0.06264991,0.029780833,0.0194712,0.06461,0.04022018,-0.10809812,0.0860082,0.0021395872,0.024332147,0.12670209,-0.030565169,-0.07483003,0.011417658,0.103724435,-0.056461822,0.06559457,-0.02521454,0.08975991,-0.044885553,-0.0991791,-0.098184675,-0.059962686,0.030995276,0.040655006,0.07732961,0.0533347,-0.02056431,-0.13989724,0.037903726,-0.06702402,-0.03958381,0.011736714,0.044703923,-0.090722695,0.056230497,-0.11725388,0.13902833,0.082688674,-0.17038791,0.067228176,0.054992866,-0.13273832,0.09139178,0.049390197,0.05302123,0.09580347,-0.07595583,0.07323971,-0.078549094,-0.15414946,0.119246624,0.033007957,-0.10604689,-0.049941804,0.085817106,-0.028606955,-0.005685495,-0.09743163,0.091929466,0.1791891,0.022273287,0.123394586,-0.051677357,0.014351689,-0.04856219,0.011148947,0.00029795832,0.02031972,-0.084017955,0.033600982,0.057592865,0.035971027,0.08503895,-0.12921962,-0.00249449,0.10837765,-0.13792425,-0.15379685,-0.05115126,-0.01503647,-0.03189648,0.032411743,0.013050694,0.09037619,-0.08036579,-0.036231797,-0.033955738,0.15566678,0.055454064,-0.121052906,-0.14244746,0.05513835,0.07832043,-0.035249386,0.06515906,0.12050551,-0.06115514,0.06321155,0.17353438,0.017104402,0.025594378,-0.20669052,0.055895016,-0.089272164,0.064258434,0.10064117,-0.10034152,-0.037319798,-0.057538472,-0.104387775,-0.031776033,-0.07141677,0.10807267,-0.017362779,-0.019402403,0.033758722,0.16567607,0.08764799,0.0434379,-0.11420148,-0.008012265,-0.018053757,-0.011511722,0.042467367,-0.033774756,-0.12840185,-0.110702224,0.00031551652,0.1666654,0.02243711,0.011558006,-0.07442656,-0.14898735,0.02102465,-0.026563676,-0.047503654,0.040783044,0.09988377,-0.024052486,-0.025487231,-0.07261161,-0.00867156,0.004278094,0.057411887,0.0048623,0.047318496,0.10341649,0.05811185,-0.0074753417,-0.11836126,-0.043576267,0.04301758,0.0889164,-0.15383117,0.0634029,-0.020395037,0.24119617,0.00391315,-0.07054038,0.0010567764,0.07136412,0.10743189,-0.058322724,0.13649432,0.10062248,-0.10949549,-0.081168406,-0.024026703,0.06865723,0.09477792,-0.1173201,-0.013029363,-0.06520492,-0.008257668,-0.09991168,0.1515206,0.012550335,-0.03623541,0.007493993,0.054454207,-0.02029079,-0.015293036,0.10805867,-0.11589727,0.2334593,-0.18854032,-0.07946225,0.08640967,0.03268303,0.13895166,-0.06141833,0.13936156,-0.07618117,0.011336819,-0.14995596,0.003909559,-0.06496607,-0.0319885,0.07231021,0.10419463,-0.057298142,-0.0684265,0.037809525,-0.017628144,-0.00044103182,0.10326517,0.124498315,0.032531474,0.035874456,-0.035944372,0.032843273,-0.17036954,-0.08003886,0.066568375,0.018597394,0.028881148,-0.014699031,0.08818977,-0.053996794,-0.157098,-0.07098388,-0.07717492,-0.038390197,-0.04058295,-0.11812411,0.018366018,-0.013874294,-0.07903324,-0.020665782,-0.009718259,-0.04859301,-0.03470949,0.0053497595,-0.10570756,-0.0413659,0.016784735,0.033003114,0.065100275,-0.011886198,-0.03962312,-0.034032054,0.16717093,0.026499128,0.028460162,0.09794692,-0.037083197,0.007650066,-0.11219617,-0.056756847,0.06970829,-0.0005893464,-0.063068554,0.02355636,0.1407076,-0.042028856,-0.07060699,0.042132717,-0.07285169,0.05020484,0.03508486,0.08261643,-0.051834922,0.012603414,-0.085351154,0.19521537,-0.19060358,-0.11235469,0.02652055,0.017714392,-0.10753635,0.05518111,-0.10647553,-0.26116627,0.13909318,-0.09250757,0.18882355,0.06669197,0.08591798,-0.0038936355,-0.04307685,-0.00881743,-0.073784485,-0.07710924,-0.056408793,0.08228442,0.00082164636,-0.05181601,-0.08906249,-0.009672012,0.11763139,0.08896919,-0.061490797,0.007421337,0.049615946,0.07428339,0.12268251,-0.030930148,0.006066934,0.05301546,0.050747987,-0.059374586,0.036154516,0.18773137,0.11773737,-0.048896622,-0.039605603,0.08667342,0.034782883,-0.028049488,-0.052983887,0.046359263,-0.010402454,-0.0671518,-0.069451496,-0.05117787,-0.26858988,-0.12327964,-0.07108751,0.07126263,0.09421639,0.097365476,0.011413447,-0.06404663,0.16482541,-0.04772696,-0.08970401,0.0034167075,-0.0028571528,0.026437629,0.1213677,0.021339888,-0.06160812,-0.029092412,-0.0948723,-0.063039914,0.010061301,-0.10145868,0.11452681,-0.013817659,0.05172129,-0.055725124,0.08691874,-0.15191339,-0.03551408,0.104366004,-0.040297627,-0.011351802,-0.033905324,0.011863645,0.11657312,0.042275846,-0.06520918,0.07417087,-0.07576615,0.11658827,0.054220453,-0.099620596,-0.0021310863,0.21015868,0.015101799,0.08941861,0.095355146,-0.052974753,-0.028607128,-0.05370132,-0.13905464,-0.086616114,-0.044959385,0.017574498,0.033885628,-0.0067774467,-0.03866315,0.014011854,0.06609274,0.051283907,0.008573359,-0.071916424,0.10280555,-0.17918599,0.10296055,0.081526466,0.07027634,-0.029309295,0.008677713,0.14947994,0.08116814,0.04547027,0.027810488,0.05000389,-0.017510744,0.049389433,0.19872661,0.052605424,-0.057312794,0.08318158,0.09808011,0.12942877,-0.015874622,-0.053025093,0.026430361,-0.01751353,0.002285426,-0.10308448,0.014716993,0.071507834,-0.08182957,-0.03313536,0.14561673,0.15379196,-0.038891885,0.05190236,0.07169939,0.0032436966,0.026757756,0.055466294,-0.032863807,-0.050655518,0.038664635,0.051681414,-0.036951177,-0.02695642,-0.09600615,-0.0091075115,0.046997268,0.08533276,-0.2218557,-0.031640086,0.15171668,0.02185374,0.09180061,-0.09208229,0.008985362,0.037579145,-0.04304456,-0.09249526,0.019659478,0.05403717,-0.18050991,-0.008033292,0.15432675,-0.15966706,-0.06850872,0.06421038,-0.0022540917,0.06363924,0.10570213,0.09672103,0.04882973,-0.019448247,-0.07769279,-0.039892998,0.020206919,-0.017932309,-0.038357392,-0.03867053,0.15890463,-0.011915391,0.10306365,-0.032759838,0.054954648,-0.026678488,0.038224168,-0.04317726,-0.029869372,-0.13218588,-0.16717133,-0.018422302,-0.115377255,0.07362405,-0.14646998,-0.03477482,0.022376094,-0.035998285,-0.034419198,-0.047220293,0.08378015,0.12353825,-0.045947555,0.077803716,-0.04920193,-0.07683464,0.055479284,0.1100118,0.08673614,0.13846444,0.1435539,0.10870631,0.007898838,-0.050308917,-0.02475951,0.09439345,0.13508973,-0.041988447,-0.010869333,0.059551273,-0.012667123,0.0098834755,-0.20270732,0.02536825,-0.06286212,-0.048727788,0.12793188,0.09954633,-0.03247813,-0.025820155,-0.09762649,-0.20228289,0.10442096,-0.045839302,0.052024666,-0.09742951,-0.0931159,0.20285697,-0.12587932,0.035208106,0.09871662,-0.09644925,0.05550873,0.070381366,-0.003732507,-0.025747892,0.070712164,-0.00931884,-0.111592114,0.07399575,0.16544585,-0.055387754,0.073151976,0.04170545,0.017692436,0.036332116,0.08290215,-0.047678195,-0.024932284,-0.028814211,-0.017474048,0.123300456,0.033506762,-0.0014010931,0.0015175168,0.23232405,0.03177126,0.044673026,-0.02857299,-0.015525787,0.09673013,-0.048438385,-0.12009447,0.13331863,-0.021353224,-0.044591445,-0.013562234,-0.0027079128,-0.0382736,0.050293237,0.0024486163,-0.1533888,0.10606245,0.12311737,-0.095997624,0.06426408,0.1051974,0.14543003,0.030824842,-0.051104583,0.061136134,-0.1171825,-0.063172214,-0.042947374,-0.0058579426,0.06392312,0.11924068,0.060513172,0.19589734,-0.022114828,-0.07357465,-0.027657075,-0.014390321,0.08201638,0.08914568,0.06281337,0.02264524,0.12152668,0.1307544,0.15683815,0.042814963,0.054258574,0.10631675,-0.08184621,-0.026056223,-0.0025411902,0.100647524,0.052635852,0.05558017,0.028484972,0.031151216,0.018326832,-0.010013389,-0.057123262,-0.045290098,0.0841766,-0.0035830385,0.030521158,-0.07561153,-0.019445151,0.031864773,-0.0052242638,0.03515187,0.1315603,-0.014941687,0.00024458228,-0.08221293,-0.05783106,0.039974034,0.08691903,0.09482735,0.117808,-0.05282702,0.0141733335,-0.13175464,-0.123107314,-0.09794785,0.036042284,0.009932845,-0.019195057,-0.0075443997,0.081855394,0.067447625,-0.118111536,0.08640437,-0.015099538,0.004819721,0.10970166,-0.11526168,0.073572606,0.0019696166,-0.045298513,0.19419818,-0.14466,0.090949185,-0.03144372,0.12922113,0.11141,0.14243864,-0.025299586,0.043713644,0.05896102,0.2548801,-0.04880281,0.039543323,0.0046286285,0.11017554,-0.049620427,0.0065862946,-0.0652398,0.03389837,0.096457236,0.06320408,0.0820846,0.025906034,0.087275416,-0.03929755,0.0038860342,-0.07792357,0.038484503,-0.076331414,0.015390037,0.06739224,-0.04220139,0.104487576,-0.12258315,0.058763284,-0.009823965,0.03305223,-0.00043847287,0.05890201,0.00017378438,0.13715664,0.02500038,0.13928884,-0.09995451,-0.15292335,0.094856724,0.0156233385,-0.11132238,-0.087840125,-0.023419494,0.0063428194,-0.0043733376,0.033837285,0.029025214,0.0025801032,-0.0217698,0.018634629,0.16963026,-0.033930276,0.007248444,-0.06252649,-0.014282877,0.04943969,0.00063349237,-0.034777097,-0.054047763,0.14861442,0.002747107,0.030378291,-0.17084289,0.022843072,-0.06510548,-0.071588,0.06297457,-0.0042106155,0.027638566,-0.08826488,-0.10382255,-0.038531415,0.00489824,0.064895764,-0.09942857,-0.103963904,-0.0009384514,-0.009898922,-0.004358942,0.09490039,0.051974695,0.05659966,0.110582754,0.030089783,-0.040350374,0.1283479,0.050438866,0.0041167405,-0.19185619,0.08505055,-0.11852606,0.09009976,-0.030055415,-0.13253209,0.14079389,-0.23816739,0.015813474,0.009306784,0.09270813,-0.04235418,0.0759058,0.074613124,0.07396713,0.09913335,-0.07118072,0.032335747,-0.12343088,0.042325325,0.055265278,-0.09955121,0.05156867,0.044817276,-0.1388998,0.0044522076,0.06518336,0.16196139,-0.012194269,0.036569204,0.0147086615,0.02813619,0.060935505,0.0379097,-0.06106156,-0.056217697,-0.015170375,-0.03318875,-0.15503137,-0.11332189,0.20143236,0.07197847,0.021646302,0.048050668,-0.04547312,0.036924284,-0.002701206,-0.1817471,0.10155069,0.0050897677,-0.098832265,-0.037460614,0.054973826,-0.08396215,0.15379827,-0.035862908,-0.12145648,0.020160895,-0.017041719,-0.06617331,0.10149702,0.12414836,0.03670465,-0.11382878,0.12262095,-0.047891617,-0.16921207,0.16670261,-0.06971448,-0.03679259,-0.05358352,0.00914314,-0.056100495,0.03625305,-0.032412093,0.11120778,-0.023208827,-0.0014993625,-0.08219631,0.09708286,-0.12290596,-0.043563657,0.056862887,-0.009481881,0.032298833,0.05457466,-0.1703745,-0.030218054,0.036740612,0.0739506,-0.019373702,0.102663584,-0.07592413,0.025816329,0.14904192,-0.057040595,0.06341702,0.067803465,0.069798864,-0.058017593,-0.15465043,-0.09851088,-0.05648978,0.050292466,0.011254268,-0.0428419,-0.12778331,0.07154161,0.034604505,0.07482064,0.13878463,0.16625884,0.030833354,0.045295157,0.15146087,0.099901095,-0.028753677,0.0064749834,-0.081437826,0.053276494,-0.12120063,0.08304708,-0.1296386,-0.057019312,0.051660117,-0.02738039,0.072491646,0.012038355,0.052963816,0.03896381,-0.117472045,-0.05142731,-0.06841533,-0.031954154,-0.06800511,-0.0027657168,-0.08908896,-0.11224753,0.044309337,-0.1000194,-0.08849173,-0.12473198,-0.110473715,0.11599197,-0.013406419,-0.12017781,0.21898206,0.04015755,-0.016856635,0.084993824,-0.19616486,-0.038226493,-0.057050023,-0.14228429,-0.08434647,-0.13798723,-0.09666334,-0.15346189,0.031091852,-0.102045566,-0.012714017,0.043622643,-0.13534679,0.15029514,-0.101386085,0.0056201946,-0.071384296,0.030067155,-0.017231671,0.032598797,-0.024234468,-0.041166496,0.049266215,0.13160464,-0.073230855,-0.17365924,-0.08854025,-0.09132358,0.13290371,0.14115584,0.050610624,-0.017531412,0.10360168,-0.049908366,-0.04980564,-0.049244642,-0.08030369,-0.08873305,-0.034665078,0.061310545,0.039019585,0.055965036,0.046397116,-0.0108818095,-0.07073069,-0.08924354,0.1010133,0.042835142,0.18093862,-0.13078411,-0.05318238,0.09315568,-0.059435613,-0.12967065,-0.094122894,-0.058237985,-0.02697251,-0.1189378,-8.15704e-05,0.028154742,0.06486086,0.05083936,0.09096877,0.1391691,-0.032335483,-0.02565397,0.019909004,0.12380894,-0.11488534,0.074530914,0.023020042,0.023369323,0.0029084976,-0.068852246,-0.13719581,-0.0021750275,-0.020043623,-0.026940085,0.14709724,-0.07790203,-0.013462092,-0.13207307,-0.010406356,-0.10458499,-0.057946067,-0.018999973,0.019184746,-0.07970379,-0.022910904,-0.12513678,0.11192423,0.08785852,0.037388068,0.051358573,0.037073445,-0.019094357,0.041304715,0.1234928,-0.01645329,-0.050006464,0.0854607,0.05103779,-0.017215032,-0.07601257,-0.04882677,-0.051766913,-0.011484185,0.0044311183,0.1442627,0.020285426,-0.073220044,-0.0856394,0.17528382,-0.1459999,0.06701407,0.08726214,-0.04964443,-0.041411385,0.021313583,-0.12907434,0.030519933,0.07019438,0.03789076,0.20900236,0.11118648,-0.06879509,-0.104383945,0.06784866,-0.13103224,0.03624516,0.113493025,-0.19329119,0.050869696,-0.0052445773,0.08985302,0.06939062,0.012645451,0.08743684,0.046704628,-0.024641648,0.003960783,0.037723217,-0.08638928,0.008521154,-0.04862817,0.04433962,0.03362431,0.09055887,0.008422965,-0.13942418,0.19005533,0.11646971,-0.092558816,-0.050990537,-0.0047460943,-0.029667217,0.071853474,0.029011076,0.0828019,0.025740847,-0.08388376,-0.06183142,0.0025214392,-0.067061014,-0.022497939,0.05624195,0.009170693,0.13271943,-0.17127736,0.15280475,0.12192421,-0.02982658,0.11984939,0.11340273,-0.020381909,0.07150174,-0.046923485,0.17292261,0.08492326,-0.061606266,0.00979206,0.09847249,0.10044368,0.04998361,0.02973715,-0.07272556,0.09436934,-0.058290876,0.095140405,-0.040005207,0.056622833,-0.02152566,0.031398553,0.0103633525,-0.02526846,0.04850478,0.075197764,-0.013851919,-0.114366576,0.006668604,0.022026215,-0.16211298,-0.062436055,-0.09702735,-0.030369814,0.099287376,0.0812874,-0.03099512,-0.02029256,-0.09218684,-0.01347566,-0.051177,-0.12784047,0.0562207,0.014665181,0.042865593,-0.055975467,-0.06182006,0.086753115,-0.11268794,-0.12605552,0.024879454,0.08488587,0.03964199,0.13678963,0.025162749,0.091324694,-0.12923579,0.047427893,0.09146289,-0.14103238,0.09826619,0.039595623,0.0005544552,-0.09458519,0.108927384,-0.03258023,0.064873554,-0.039515827,-0.048074253,0.14670213,-0.04725182,-0.039322525,0.07529779,0.063668236,0.035930336,0.026236184,0.02377398,-0.0912348,0.05003793,0.21630348,-0.058932137,0.03846742,-0.096347384,-0.11416405,-0.071625076,0.13637382,0.18570139,-3.7495192e-06,0.06974856,0.019822115,0.013982932,-0.18313277,0.03390918,0.12831475,0.033841208,-0.03362445,-0.012716497,0.05367507,-0.09527964,-0.07022606,0.15589796,-0.13010286,-0.0768198,-0.039815284,0.019488811,0.06345677,-0.016481197,0.11026941,0.03554893,-0.069284275,0.062062196,-0.11562333,-0.16248585,0.026606563,-0.04524499,0.06718768,0.01256138,-0.073860906,0.051930808,-0.0068970365,-0.0318102,0.113386944,0.09210688,0.08861457,0.07885435,0.075385086,0.08131494,0.12252667,0.097252026,-0.01912557,-0.020835375,0.10257726,0.12674013,0.047780465,-0.18926266,-0.0030990958,0.09774251,0.081553325,-0.17912668,0.0038021256,-0.062466536,-0.024934787,0.0888768,-0.0414434,-0.052374393,0.04704699,0.011360524,-0.05881415,0.021924965,0.042331908,0.040431455,-0.035836976,-0.059042014,-0.06425869,0.10606895,0.115539715,-0.003680378,0.03936162,0.15339759,0.1273598,-0.07241707,-0.060080536,-0.0791448,-0.0033313252,0.01789678,-0.047606613,0.19753003,-0.033982623,0.027801774,-0.03263935,0.04713715,-0.018055325,0.16528407,0.113140434,-0.030679986,-0.08626939,0.021270117,-0.012323138,-0.021891825,-0.06272354,-0.12099605,-0.05076801,0.004727649,0.13100679,0.1461644,-0.04573964,0.09783555,0.051623728,0.10311983,-0.062034793,0.048102524,0.03881789,-0.024002763,-0.09756635,-0.07098586,-0.0696484,-0.0019907916,0.07130681,0.09168871,-0.24191698,-0.06278245,-0.02601951,0.07217927,-0.09660852,-0.0404073,0.047737718,0.08441777,-0.093761094,0.054407127,0.07912868,-0.11734618,0.09046244,-0.017606862,-0.12534498,-0.034085646,-0.04993311,-0.09251683,-0.043478582,0.17412606,-0.027513951,-0.05934782,-0.01576281,-0.034088943,0.048948493,0.07920609,-0.12788548,0.045603033,0.061881214,-0.057808302,0.03255912,0.2024097,-0.053054195,-0.028124306,-0.038343772,0.017848186,0.040484246,-0.12839502,-0.044497043,0.019472094,0.12952185,0.025768502,0.04848857,-0.051246155,-0.117429756,-0.019504497,0.10463949,-0.017186109,0.043806046,-0.022553265,0.014705667,-0.09173037,0.20466107,0.012125474,-0.08675992,0.0055584516,-0.08367502,-0.10583846,-0.13512605,0.11410055,0.085170396,0.11154193,0.072921984,0.006634741,0.08019227,0.05133963,0.16756067,-0.081750475,0.040167805,-0.03582455,-0.0068741227,0.033176854,0.10679828,-0.17413415,-0.09112564,-0.052522957,0.01964933,0.071639344,0.096080445,-0.066261575,-0.073039375,0.0074522523,-0.14117722,-0.12104838,-0.10911352,0.09066971,0.08238509,-0.03354124,-0.24910894,-0.14387573,0.0014779737,-0.013596108,0.06294536,0.062053148,0.09739332,-0.061706755,-0.03925853,-0.0042401594,0.11796495,-0.063028045,-0.06586159,0.12583143,0.015665092,-0.15286931,0.08767206,-0.06041028,-0.23775743,-0.072761916,-0.06466666,-0.019379908,0.013946894,-0.0027206354,0.062934786,0.16154362,0.051792562,0.05639383,0.08341248,-0.024433212,-0.03919579,-0.010552777,0.0027400963,-0.077642806,0.07133062,-0.10376272,-0.043694388,0.055034243,-0.029704867,0.00991791,-0.03152195,0.037841845,0.10700132,0.2393892,-0.01959491,-0.016009517,0.14948405,-0.02940226,-0.012718306,0.004919981,0.06311139,-0.11969406,0.046569005,0.081417054,0.05418391,-0.10520726,0.034412693,-0.09436733,0.18820657,0.0028338833,0.0030238244,0.034978863,0.013250884,0.014963646,0.15380058,0.014629344,-0.100372694,0.11841065,-0.057860587,0.103937425,-0.052518502,0.065397255,-0.026578989,-0.056958444,0.08402518,0.18168637,-0.06509624,0.047807492,-0.019832099,0.07950401,0.013658939,-0.048852514,-0.10096651,-0.06661942,0.0019177386,0.108008035,-0.049606547,0.07193628,0.03210315,-0.021719448,0.03128077,-0.115378045,-0.038790338,-0.03890385,-0.007730149,0.04415586,-0.119342506,-0.054442212,0.069754384,0.008164443,0.07389841,0.00075733726,-0.039416015,-0.060266264,-0.09704207,-0.092849374,0.0010129316,0.049157433,0.06506071,-0.07880227,-0.018705916,-0.006697017,0.1358422,-0.016131658,0.026243262,-0.04833909,0.0015430473,0.15492272,-0.055080116,0.061268874,0.10621558,-0.020473942,-0.17999867,0.02662786,0.0953046,0.014938181,0.13946669,0.014725155,0.12706779,-0.12348646,-0.08309767,-0.020270329,0.09999304,-0.09430387,-0.029858487,0.08113789,-0.13445407,0.1118555,0.1606218,0.03699739,-0.031778764,0.16077144,-0.13179106,-0.062440597,0.044626374,0.008751633,0.08511457,0.017329158,0.022805663,-0.03630926,0.026872462,0.08916971,-0.05605062,0.12881976,-0.10724779,-0.0046693212,0.03565361,-0.07138082,-0.118953094,0.0010915129,-0.03147964,-0.049724847,-0.09501758,-0.19724078,-0.1474338,0.028007006,0.009272687,0.05775708,0.15939449,-0.10390702,-0.03418972,0.0056199264,-0.063701,0.0017267053,-0.0061338386,0.16318089,-0.03504465,-0.079709955,0.07018647,-0.060214523,-0.11049969,-0.08458894,0.2292728,-0.055823747,0.057683572,-0.048175693,-0.047712207,-0.09632818,-0.06125407,0.0061275507,0.066683695,0.092076525,-0.06550634,-0.014302979,-0.078251965,-0.16330421,0.060936462,0.04848846,-0.018356975,0.03988518,-0.11091499,-0.04887747,0.13149373,-0.034572423,0.05427078,0.08427645,0.086972706,0.06327652,0.062450472,0.028227616,0.15035324,0.04207059,0.027114507,0.051590603,-0.08756133,-0.15473337,0.059286524,0.03823848,-0.036538653,0.053234417,-0.01831945,-0.09002448,-0.115782075,-0.03274683,0.060290527,0.06933873,0.06741937,0.17636684,-0.06542024,0.048851643,0.2080069,0.02554031,-0.058732558,-0.022834392,0.08647868,-0.01637518,0.044448245,-0.03030314,0.030981842,-0.03840146,-0.16068529,0.012312483,-0.047146276,-0.07483201,-0.03767731,0.09410628,-0.090052225,-0.0261694,-0.1155178,0.052982736,-0.017326146,-0.005737299,0.11359765,-0.0053344537,0.0019591919,-0.0683996,-0.21718918,0.019102741,0.115317866,0.019277472,-0.14731632,0.07109066,0.037671976,-0.018822724,-0.047100235,-0.0039108195,-0.01707739,0.04179082,-0.13453114,-0.058094587,-0.024869787,-0.06436377,-0.009295698,0.011909305,-0.024424916,-0.041805144,0.18150423,-0.0028702484,0.04295392,-0.034975894,0.18110736,0.06228784,-0.11091958,-0.055776026,-0.082709275,0.07263481,-0.063979425,-0.023388728,-0.12996575,0.0018420161,0.0503566,-0.06647109,0.04038526,0.22754806,0.15789606,0.026956294,-0.0019184073,0.05221205,-0.1046329,0.0020758277,0.0020432998,-0.012656902,0.021578774,-0.03953592,0.015685134,-0.08610909,-0.13280836,-0.054793455,-0.0576666,0.040026445,0.0667066,0.060921606,-0.14082542,0.0229227,0.03460565,-0.12384872,0.084841155,-0.07064307,-0.18454619,0.08370505,-0.029000197,0.086751185,0.030959506,0.15590586,0.07730482,0.14408296,0.07730891,0.15355587,0.009116021,0.14106318,0.1543262,0.028745605,0.03546245,0.04003594,-0.026820572,0.017830353,0.0972715,-0.08416747,-0.13361688,0.093223244,-0.002027498,-0.11810963,0.00885433,0.06557196,0.06657619,0.03847534,0.13375533,0.080194704,0.051934157,0.0038104877,0.07248269,0.0314278,-0.021535207,-0.060438335,-0.12652512,0.007458919,0.034289856,0.13528651,0.071026154,-0.1372383,-0.09212875,-0.0041224184,-0.036275234,-0.08164287,-0.0999044,0.11174771,-0.05928379,-0.012703748,-0.084637634,-0.069133066,-0.060961176,0.039716873,-0.1181614,0.034504216,0.017192073,0.06460871,0.19091886,-0.20868944,-0.011941468,-0.11400287,0.13865376,0.061399765,-0.058445398,-0.037867095,-0.1727648,-0.20275736,-0.09458737,-0.13785152,0.028796384,0.05250013,-0.117421806,-0.10898452,-0.04909289,-0.0404086,0.054844115,0.025590897,-0.028175151,0.052970078,-0.07105736,-0.10037036,0.078872524,0.040961374,0.1286354,0.12017911,0.05090868,0.12687407,0.10810665,0.011560892,0.017015897,0.018085698,-0.005305817,-0.009723204,-0.028378636,0.071699575,0.009093969,0.044727888,0.15677054,-0.055088297,0.034115907,-0.094894305,0.12545519,0.07083118,-0.0034360958,-0.07034182,0.090283476,-0.060497463,-0.13452934,-0.05848248,-0.09284805,0.13026123,-0.007937927,-0.077707455,-0.037610855,-0.021505233,0.010453112,-0.04500921,0.08642612,-0.07042382,0.04031849,-0.0037513997,-0.044405088,-0.006896678,-0.0150762275,-0.019631796,-0.11404382,-0.21377929,-0.10276152,0.07345796,0.05480303,0.063882515,0.004423305,0.18628207,0.07621724,-0.029068107,-0.056488313,0.05146543,-0.14025855,0.010895909,0.052195445,-0.012822873,0.10605949,-0.052659392,-0.08605018,-0.05438705,0.019633956,-0.054518357,-0.032451667,-0.05293838,-0.030092906,-0.000761603,-0.051315494,-0.13915354,0.09691925,0.0722969,0.08514922,0.12039481,-0.027751574,0.050858933,-0.0999635,0.06181147,-0.023095611,-0.08832832,-0.119966924,-0.09376804,0.11915266,0.06321954,-0.008150968,-0.08907396,0.0757999,0.0011578936,-0.098033585,0.056932867,0.12673564,-0.015079157,-0.05627219,0.026898474,-0.1364874,0.06301258,0.10676266,0.06323513,-0.10054019,-0.054792624,0.14083046,-0.22786576,-0.00551433,-0.025086593,-0.036081098,0.047989972,-0.0077225133,-0.0689667,0.11782736,-0.046151493,0.037423477,-0.04488393,-0.05960918,-0.07290761,0.10377321,-0.072006956,0.15528421,-0.01668481,0.08280593,0.07076553,-0.08499218,-0.13245307,-0.047390882,0.0054007485,0.023962187,-0.061934922,0.016412223,-0.02370692,0.059539597,-0.027125835,0.041468173,0.073350675,0.09821932,0.057135787,0.012410162,0.02185979,-0.038093735,0.02172078,0.06531007,0.060867194,0.1565955,-0.060958274,0.06213388,0.041223265,-0.07479562,0.039015736,0.0849704,-0.18812382,0.15172864,0.07527578,-0.11701457,0.12371873,-0.013562825,-0.0875827,-0.11896262,0.055859827,-0.060955442,0.08828289,0.0015224144,0.121588096,0.14434062,0.035576466,-0.08003381,-0.035262384,0.09371205,-0.044034977,0.1108489,0.050925154,0.042619612,-0.07730338,-0.039112773,-0.00037576086,0.09161077,0.08944427,0.11106037,-0.023928404,-0.080129,-0.13563167,-0.02950986,-0.106127605,0.14996101,-0.16487497,0.02828707,-0.042095583,0.02721889,0.00073443854,-0.024811327,-0.12613505,-0.0373652,-0.0023823732,0.017473,-0.08837322,-0.13113211,-0.04391471,0.115018256,0.08122757,0.040348437,-0.054514963,0.054772627,0.066038355,-0.008943662,0.041025598,-0.11860707,-0.04860385,-0.06033299,-0.06429268,-0.09079508,-0.1223345,0.056797247,0.10724174,-0.15701936,-0.03872279,-0.07395492,0.09747807,0.08572916,-0.15623681,0.072721645,-0.03925779,0.05213446,-0.05544595,0.06635643,-0.045094736,0.105151996,-0.24357611,-0.0012701899,-0.10257056,0.05798542,-0.03964483,-0.08818149,-0.15841833,0.17331353,0.03362756,0.03886114,0.08010606,-0.21187012,-0.02352122,0.09243718,-0.058904268,-0.11930718,0.044882894,0.051672067,0.058694106,0.0795151,0.0050566527,0.011025087,0.0010020674,-0.044600245,0.0008155206,0.111834995,0.0453978,-0.006953197,0.15923075,-0.034880724,0.104230106,-0.04097467,0.019522585,-0.10781834,-0.0619444,0.077893496,0.020350475,0.003696865,-0.09862125,-0.04497512,0.054647874,-0.04655109,0.058499865,0.01855064,0.09462393,0.13988838,-0.08980802,-0.09426363,-0.07661037,0.047064524,0.06645167,0.007971171,-0.12205332,-0.15871188,-0.103009485,-0.046806544,0.086652435,-0.047666103,-0.033273432,0.0090291295,-0.01739367,-0.0032100468,-0.06397869,-0.0042642923,0.03839147,-0.034466453,-0.062329307,0.06243521,0.0016393197,0.08067473,0.022186652,-0.08618208,-0.15420312,0.023304272,-0.020381333,-0.006726573,-0.06517066,0.017657708,0.1470633,-0.07053264,-0.113283224,0.002439621,-0.06021054,-0.09975461,-0.058774665,-0.0720358,0.08820933,0.117380105,0.025547603,-0.05350004,0.028739857,-0.06614214,0.029413085,-0.008577997,0.18122737,0.038507286,0.08727984,-0.053149164,-0.075130574,0.025304256,-0.04219254,0.034584865,-0.17038229,0.01909608,-0.14865777,0.086665414,-0.04020038,0.000987399,0.008070336,0.066436045,0.018431012,-0.090085045,-0.08215169,-0.037869647,0.025868807,0.029818721,-0.110089384,0.025251957,0.022488786,-0.07699265,0.043265007,-0.08613707,0.1074856,0.0030658005,0.051794622,-0.046083152,0.01708495,0.1317497,0.053340465,0.11285291,0.00709104,-0.022201799,0.10231776,0.18201344,0.028388266,-0.05975546,0.17966296,0.05609934,-0.010371765,0.007304904,-0.07644545,0.016668955,0.12418949,0.0054627242,-0.04189444,0.20447224,-0.04200837,0.040886782,-0.060091972,-0.13962467,-0.15935113,-0.11349453,0.017789027,0.03077749,0.073015,0.15649538,-0.035991333,0.040383216,0.03909757,0.058385577,-0.011142178,-0.0022884102,0.07918303,0.10494227,0.08058855,0.11424749,-0.06624226,-0.11380439,0.042963047,-0.14338337,0.064652175,0.07028165,-0.011884551,0.0061310474,-0.05187271,-0.0083328765,-0.051872108,-0.1879432,-0.0054978705,-0.024398904,0.10465431,-9.095995e-05,0.00018681808,0.08097446,-0.093994156,0.01940704,-0.08427326,0.008092403,-0.05156309,0.08405475,0.05442168,-0.10710735,-0.06665064,0.07858784,-0.15748733,0.016764779,0.11746361,0.050344788,0.021747189,-0.071412496,-0.06886535,0.06418251,0.10325692,0.04658735,-0.06332011,-0.19300506,0.11586138,0.057526167,-0.0017959665,0.04308142,-0.053371787,0.050148483,0.13384397,-0.08333075,0.031055527,0.17018874,-0.0595899,0.09871474,0.09309202,0.022859843,-0.1163497,-0.05615197,-0.012384014,0.06368373,0.08769971,0.041525837,0.04096774,-0.019319775,-0.07371697,0.12006165,0.0070297313,-0.040642798,0.09642509,-0.015362536,0.15221196,0.045238145,0.04337615,0.09344627,0.05716625,0.0011275976,0.17771049,-0.012739693,0.13054822,-0.09022207,0.135077,-0.008857866,0.077768795,-0.012378645,-0.0668009,0.026265427,0.043079354,0.06175109,0.093766555,0.06677149,0.0960941,-0.14109834,-0.023476796,-0.030756164,-0.07065888,-0.06138155,0.047053654,-0.090883166,-0.018722232,-0.04063485,0.055228535,-0.041516818,0.08400065,0.08663836,-0.049289186,-0.17340696,0.008774716,0.001448696,-0.034187477,0.037350625,0.062048025,0.0005258365,-0.14678925,-0.127937,0.14576496,-0.1258013,-0.2529254,0.106819615,0.0972422,-0.06325454,0.013813599,-0.014772376,0.04257834,0.05390802,0.0128499,0.053947195,-0.09073232,0.14851893,0.078297004,-0.07436025,0.07750794,-0.007557803,-0.010013341,-0.13479869,0.08195693,0.029855302,0.021004245,-0.034406774,0.050608955,0.008530698,-0.15249752,0.034545843,0.023730196,-0.06396057,-0.081896506,-0.026140433,-0.06572714,0.16607547,-0.069432154,0.078374,-0.01647837,-0.068509646,0.11705512,-0.039124798,0.091380745,-0.116926126,-0.034629352,-0.077533364,0.055922113,0.10437518,0.08731849,0.030188605,0.052798405,-0.1685408,0.057031993,-0.09472201,-0.088342145,0.026117155,-0.06994828,-0.09400527,-0.101357274,-0.09372287,0.06352815,0.077819586,-0.027679192,0.0068862936,0.11192673,0.08631575,0.070333116,0.050111458,0.044412393,-0.021698566,0.195617,-0.064002454,0.012953442,0.02089498,-0.110626124,0.06013419,-0.1253362,-0.10470451,0.031212833,0.14144963,0.15469931,0.08088902,-0.017962974,0.04402665,-0.21300569,-0.059429392,0.07410163,-0.07912188,0.04868111,-0.024171023,0.07262125,-0.082835644,-0.074562564,0.081650876,0.046099897,-0.08011635,-0.17146228,-0.027152238,-0.06011632,0.016767643,0.02640777,0.05831948,0.06270083,0.05290302,0.061510567,-0.0820521,0.069908775,-0.063666,0.12785947,-0.09375707,0.08434616,0.10841905,0.050773412,-0.036055814,0.06587077,0.002747536,0.038203035,-0.037998956,-0.025203424,-0.077967584,0.036066756,0.03137246,0.05509129,-0.121435866,-0.059875652,-0.023969794,-0.05206276,0.0018920237,0.03239359,-0.08481916,-0.010269155,0.0016729354,-0.025009837,0.123324454,0.12901059,-0.086070076,-0.16263606,0.041159973,-0.027907759,0.066344604,0.060892664,0.043443143,-0.10479103,0.17874318,0.05026276,-0.079681,-0.01325494,0.13553002,-0.00820515,-0.02697073,0.025265595,0.18113348,0.08634279,-0.03524451,0.05887186,0.022976091,0.008070573,0.070368215,-0.0080776755,-0.10182555,-0.0911446,0.07570979,0.113058254,0.13825025,-0.081687756,-0.016009562,-0.013174358,-0.001421121,-0.05240679,0.091232084,-0.016946105,-0.03298457,0.028182095,-0.005738778,0.13560218,-0.20305076,0.0004151488,0.21836545,-0.03291306,0.0056219078,0.08280298,-0.062060814,-0.10850476,-0.023749027,-0.014954595,-0.07169741,-0.06028867,-0.018238807,0.058613475,0.047077246,0.0078070946,-0.19550636,0.13259569,-0.012834435,0.08690715,-0.0055478616,0.009327107,0.021708602,0.09400876,0.03911204,-0.008620096,-0.01802631,-0.040051028,-0.1029161,-0.040296726,0.058253426,-0.07200219,-0.123799264,0.08932114,0.08407591,0.07665578,0.06679829,-0.11913113,0.08016718,0.105958275,0.065833114,0.058044214,0.020956278,-0.057818834,-0.06564497,-0.03712016,0.17140633,0.006183844,-0.008483608,0.058110166,0.10427187,-0.038021624,-0.03809367,0.08297334,-0.085601754,-0.0030351058,-0.011104972,0.061584484,-0.14514226,-0.1258835,0.046025176,-0.11847715,0.028484171,0.09082432,0.12027229,0.12444828,0.022587318,0.22994737,-0.16791737,-0.28314203,0.06460487,-0.040832154,-0.11308843,0.22336662,-0.0029832288,-0.0067471955,-0.011588714,-0.100311905,-0.044490296,0.026089428,0.17393693,0.050319564,-0.130794,-0.029741945,0.05628466,0.082638934,-0.08978105,0.09322385,-0.030897819,-0.028792985,-0.070991,-0.057569362,-0.012159967,0.076118745,0.09585349,0.073889494,-0.026528064,0.07812645,0.08763576,0.04297535,0.018265113,-0.050937552,0.07324267,0.06755946,0.061626613,-0.0046956134,-0.09211661,-0.002158819,-0.078761056,-0.10706666,0.010496286,-0.035119634,0.013785301,0.08984104,0.06340793,0.038596902,-0.011526583,0.0033213166,0.06436031,-0.12728044,-0.002751001,0.10679234,0.02536111,0.0036313923,-0.053820387,-0.0057605747,-0.103962705,-0.0037966375,-0.043461483,0.014129619,0.101737596,-0.16153319,0.04083127,0.08992282,-0.015284172,-0.019172996,0.049737073,0.011893467,0.05844329,-0.16523226,0.014354956,-0.075748704,-0.037624598,-0.005851638,0.0004172162,-0.17293279,-0.020062283,-0.06670123,-0.13860475,0.005321496,0.043612923,0.19181694,0.015373861,0.046234556,-0.09329444,-0.122861266,0.039832767,-0.042437468,-0.0065944665,-0.09739216,-0.022548916,0.06822053,0.087851875,0.062381033,0.10617983,0.085198335,-0.040795993,0.13957012,0.0621898,0.012859936,0.085430376,-0.034391515,-0.014466897,0.041686017,-0.02650564,-0.0983647,-0.021365458,-0.034759272,0.062113106,-0.040444203,0.2071909,-0.1501408,0.09140131,-0.07416352,-0.020629935,0.12883377,0.08627349,-0.04007373,0.10622724,0.1670159,-0.10593308,0.15795518,0.0067164935,-0.008957159,0.007808306,-0.016907249,-0.024887396,0.0865904,0.016604979,0.11199041,-0.10165622,0.021279056,-0.1272008,-0.055990946,-0.053038742,0.005386936,-0.07169256,-0.05707044,-0.013842911,0.009358017,0.03013205,0.09983887,-0.010570343,0.020773537,0.08305825,-0.06512132,-0.051146563,-0.11864982,-0.028316477,0.101426505,-0.17184092,-0.12901597,-0.10372438,-0.09549978,-0.046836406,-0.08988282,-0.028015912,-0.13646448,-0.006868841,0.06076556,-0.08380696,-0.0115153175,0.06297876,-0.066956006,-0.27236137,0.07333964,0.02703698,0.105207585,-0.020739267,0.076118015,0.06093041,-0.091903865,-0.0053774826,0.025695393,0.073376425,0.07811847,0.05420236,0.016358787,0.056579858,-0.15813398,0.0879747,0.020323105,0.051562753,-0.071469314,-0.13761377,-0.041303825,0.09279461,-0.07994851,0.01728875,-0.08206413,-0.15716648,0.016419118,0.0021684368,0.077540606,-0.11111074,0.068287864,0.009110134,-0.09156424,0.048519317,-0.05452718,-0.070069954,-0.059377115,0.07117183,-0.117867984,0.12205922,0.014028679,-0.01972591,-0.019135801,-0.14745864,-0.08278024,-0.010176019,-0.06050341,0.048141215,-0.08649624,-0.014286028,0.032725308,-0.20291436,0.011998234,-0.038972776,0.039028104,-0.11767132,-0.020510716,-0.0074655125,-0.001991013,0.16896524,-0.08966317,-0.018063689,-0.008343252,0.06817267,0.1431047,-0.09854049,-0.053901017,-0.026031233,-0.04763702,0.049832772,0.12925011,-0.08544696,-0.17259814,0.111355804,0.049321685,-0.07288941,0.10359828,0.17836605,-0.13717799,-0.0022707507,-0.11263495,0.020596534,0.056310527,-0.109745435,-0.02940709,-0.10910131,0.058306716,-0.03744111,0.09797619,0.057281148,0.10439605,-0.040646423,-0.06932088,0.041791458,0.09665566,0.16090655,0.035009146,-0.01723251,0.007363616,0.068476625,-0.03313965,0.04311006,0.020875398,0.057862468,0.05902099,0.11685832,0.07895541,-0.03890437,0.010868675,0.08525718,-0.109375305,0.05744191,-0.1031026,-0.0067286156,0.11242024,0.044546615,-0.062316015,0.09830067,-0.16239178,0.106201835,0.0023342697,0.009210202,-0.1147003,-0.009959311,-0.1144369,-0.15085116,-0.03135285,0.07828215,0.027194634,0.055631272,0.10183354,-0.006097749,-0.009588392,-0.21273893,-0.084699064,-0.046575963,0.052889407,-0.0979526,-0.040958863,-0.024950534,0.14300074,-0.0771811,0.06613714,-0.08262106,0.03420519,0.15071751,0.031973995,-0.05465654,0.09432757,0.07019317,-0.20363696,0.027791008,-0.16182926,-0.16402254,0.08972242,-0.03452427,-0.12739642,-0.04849539,0.033939056,-0.014427882,0.04922516,-0.020409554,0.021192135,0.20028274,0.07444968,0.10327123,0.010735565,0.11726807,-0.10469066,-0.1776098,-0.08349425,-0.019042766,0.06267857,0.018714236,-0.08662442,0.013323609,-0.021585906,0.009339466,0.040722787,0.056791812,-0.004657102,-0.0099710375,-0.06520509,0.0007205459,-0.11180136,-0.025986034,-0.061420195,-0.019471712,0.17712224,0.022296643,0.037283916,-0.14470549,-0.06896966,0.059236676,0.107603736,0.24333587,-0.014644755,-0.023429684,0.078340955,-0.15958135,-0.059819933,0.021125335,-0.043779925,-0.1417543,0.097534314,-0.050211553,0.05462619,-0.035498094,0.03786107,0.07822276,0.08313526,-0.022570297,-0.027067041,-0.08954764,0.017686049,0.05775109,-0.11051046,-0.07805415,-0.006335511,-0.0072225877,-0.115710095,-0.1416951,-0.043196276,0.0908569,-0.060247995,0.020828517,0.07312995,0.08493186,0.026528174,0.11624198,0.052180845,0.08581785,-0.033155207,-0.10553216,-0.0780401,-0.037832167,-0.0077025844,0.19825159,0.079443775,0.037803996,-0.04463795,0.037838,-0.11234016,0.08036162,-0.07564315,-0.08992341,-0.15480156,-0.069875136,-0.08089524,0.11535799,0.08674418,-0.056438178,-0.087056994,-0.1558249,0.0016519503,-0.10521061,0.0023873576,-0.007875918,-0.023676163,0.07197836,0.0035310497,-0.015532831,0.10590966,0.014253222,0.119011045,0.174533,-0.016771115,-0.070278674,-0.15531383,-0.09170156,-0.04389222,-0.022549486,0.057227608,0.014021052,-0.029718086,0.14628446,-0.094216794,0.14531948,0.11140544,0.042352047,-0.043932103,-0.047410585,0.042541448,0.06777999,-0.08812928,0.045473214,0.1122404,-0.013810448,0.037617654,-0.007716178,-0.093740925,0.105443515,0.0602138,-0.06465767,0.06560006,0.036391735,0.04540377,0.009159817,-0.023926878,-0.011829491,-0.016006157,0.0031332776,0.019028138,-0.018495064,-0.05831303,-0.049997106,-0.16789573,0.0747821,-0.050308257,0.044486836,0.021930706,-0.027582213,-0.11193172,0.19289945,-0.021400025,0.10896456,-0.005337985,0.014068656,-0.005779778,-0.1927532,-0.029241612,0.11209503,-0.16273917,0.016578587,0.0661706,-0.006105983,0.003962952,0.19456705,0.15033722,0.07669094,-0.02104808,-0.07332294,-0.0066854167,-0.13238254,-0.16316505,0.12513316,-0.1225536,0.07323311,-0.15177877,-0.054599065,-0.058785506,-0.05139424,-0.117701374,-0.08608656,-0.12270054,0.04575994,0.08077781,0.10919831,0.11375471,-0.0044060485,-0.013089831,0.108943686,-0.050960016,0.00091758044,0.072654605,-0.07282206,-0.043856323,0.13432127,0.11386364,-0.043051418,0.102271676,0.10069309,-0.076066926,0.09775448,-0.06292842,-0.04384472,-0.009949437,-0.16206068,-0.0014729487,0.121253446,0.13247111,-0.07474358,0.05711155,0.03507065,0.013119578,-0.053000536,0.1439689,0.102639034,-0.049252503,0.018748442,0.06677822,0.14575747,-0.10686979,0.07072596,0.033425137,-0.031152515,0.02064623,-0.110804215,-0.0013803011,-0.06491448,0.006509589,-0.013816571,-0.01591058,0.08308506,0.032311343,-0.061852615,0.07822426,0.13683893,0.035471443,-0.024529016,0.112151414,-0.0011652871,0.028199809,-0.015069825,0.016190216,0.040172797,-0.01950328,0.063983895,0.047431972,0.028409332,0.02279693,-0.047993246,-0.049984675,-0.0056948136,-0.05875976,-0.057166573,0.15009898,-0.044907853,0.1637787,-0.013727672,0.022295047,0.022818966,-0.016126053,0.03603471,0.22779995,-0.07713299,0.0076193926,0.03245374,0.0470921,-0.15279083,-0.07136305,0.032462686,-0.0859137,-0.009459994,0.03663699,-0.105362676,0.14195327,0.086090066,-0.08038004,-0.08591249,-0.015907941,0.017453946,-0.09029754,-0.1452792,0.100098535,-0.1450731,-0.025538217,0.026390593,0.025567222,-0.07301949,-0.03455832,0.04346496,-0.102453984,-0.04671654,-0.009345298,0.04419388,-0.098033786,-0.03746293,-0.01702225,-0.07607791,-0.06804016,-0.031739213,-0.14715648,-0.07465683,-0.06455162,0.0940248,0.038930997,0.016699247,-0.1332045,-0.15002772,-0.11638605,0.055554908,0.096352726,0.1309221,0.0995449,0.15640797,0.012530692,-0.107167125,0.0038510982,0.1523503,0.074718,0.023312025,0.027507516,0.051038332,0.12770273,-0.10674966,-0.057637226,0.14937526,-0.122115895,0.061390206,0.059396405,0.09618343,-0.04076501,-0.078816384,0.018300569,-0.14277224,0.04115423,-0.16663527,0.081558235,-0.15146615,-0.00012171889,-0.012372198,0.1072685,-0.12858601,0.09049709,0.024099115,-0.07061438,0.009230447,-0.08313421,-0.014820033,-0.025277892,-0.06172854,-0.021881362,-0.12469605,0.11809111,0.01708694,-0.19336446,-0.09609705,0.06522474,0.056962095,-0.006779666,0.03303278,-0.033956625,0.048629027,0.0045681023,-0.05912948,-0.096049376,-0.122161314,0.07712035,0.10260699,0.10133553,-0.07613489,-0.024468597,-0.066931315,0.10052666,0.026102431,-0.12707406,0.11457032,-0.02818334,-0.07423434,-0.037424713,0.063129865,-0.13059136,-0.0036935564,-0.111688755,-0.022369523,-0.021146396,0.083761685,-0.0642649,0.16231161,0.060012188,-0.0676232,0.11733721,-0.0044346717,0.014300547,0.042078387,0.05876371,0.014164984,0.14588557,-0.11812131,0.099489875,0.17569427,-0.028104654,-0.018080879,-0.053040933,0.028281085,-0.10561748,-0.039048757,0.18172723,0.11395086,-0.018960208,0.09768243,0.0858975,0.15350921,0.04269209,-0.10844154,-0.0451112,-0.13872144,-0.05910047,-0.03780713,0.026634093,0.020591298,0.08219483,0.0017060785,-0.055542044,0.06416337,0.1817675,0.08606995,-0.03566855,0.124404065,0.013037103,-0.1523157,-0.15946704,-0.14496168,-0.08697614,-0.043456387,-0.075324416,0.020684678,-0.03996325,-0.04530277,-0.09592151,0.0025277098,-0.09672364,0.10484118,-0.12387421,0.12808068,0.05415193,0.06280911,0.008380312,-0.06440012,-0.11331276,-0.03695572,0.026708594,-0.060002837,0.033354215,0.09910018,-0.03382848,0.01890895,0.015559444,-0.05407372,-0.07498271,0.01597312,-0.029596673,-0.003288854,-0.031269647,0.051371124,0.07930693,0.052279737,0.1135742,0.09592681,-0.12482726,-0.002961373,-0.064182304,-0.053858306,0.02941724,-0.032983266,-0.056150097,-0.031938978,-0.07817524,-0.08390208,0.08941013,-0.016799655,-0.060645405,0.00026961108,0.023322307,-0.02290866,0.1204277,0.10708196,0.1537275,-0.026171729,0.057100717,-0.004813301,-0.013685198,-0.10119253,0.092415914,0.09969172,-0.061691545,0.119521245,-0.10443755,0.14326733,-0.077256426,-0.040094215,-0.00062030664,0.02235328,-0.018877378,-0.028511317,-0.06277709,-0.05631554,0.03258431,0.015259045,-0.105146535,-0.18431449,0.009777839,0.077847704,-0.0091393115,-0.008561083,0.14562713,0.18147956,0.10526774,-0.026181843,0.048725307,0.0141660515,-0.04769132,-0.16410886,-0.11877535,0.088975765,0.07052379,0.09851206,0.029920956,0.07225704,-0.031512015,-0.120317586,-0.051622454,0.06414853,-0.026780752,-0.046567246,0.06465092,-0.06821468,0.077039786,0.0966343,-0.110043764,0.04845614,0.054137588,0.16158533,-0.11671709,-0.043047346,0.107370384,0.06589102,0.009083904,0.21595894,0.011744204,-0.120718084,-0.10493332,-0.13590345,0.0014244549,-0.1522179,-0.02062758,0.12939282,-0.049390487,-0.16828616,-0.0664577,-0.04007428,-0.034974705,-0.0038564138,-0.04813674,0.043011267,-0.085259534,-0.14669852,-0.06726722,0.00024210701,-0.05152047,0.0442086,0.09296347,-0.110455744,0.004231571,-0.00095714396,0.09695099,0.16416204,-0.1208709,0.060409058,-0.035037123,0.03989867,0.13612202,0.10901576,0.022873586,0.02049795,0.07949983,-0.03493318,-0.059084825,-0.19914377,-0.028135898,0.05406386,0.043094743,0.19870591,-0.0041135577,0.19114107,0.012695372,0.08058059,0.07823319,-0.0010411326,-0.0028148997,0.02697912,0.021121496,-0.23428181,-0.11862813,-0.052221447,0.082835704,-0.02356934,0.0020442312,0.023347106,0.014554429,-0.034642525,-0.066982046,-0.02143117,-0.102669075,0.0999102,0.13389903,0.0037190218,-0.06849312,0.07807808,0.0895619,-0.12789568,0.14256552,-0.1039976,0.09610983,-0.116876245,-0.04238053,0.12182411,0.026248718,-0.0129937995,-0.037215143,0.10576398,-0.11068079,0.006043967,-0.0035898506,0.04194798,-0.01248085,-0.103388324,-0.044182163,-0.068356514,-0.003095549,-0.031384896,-0.13562281,-0.08353229,0.020628573,-0.036901247,0.010852491,0.0006219231,0.18342067,0.06016367,0.07260781,0.09171891,0.016242497,-0.07737201,0.003762486,0.07885988,-0.06703741,0.16110647,0.01586717,0.014955306,-0.08212485,0.0015903738,-0.034864154,-0.17035377,-0.12974048,-0.05140504,-0.05199513,-0.031717125,0.09050358,0.07377386,-0.05294595,0.08517915,0.033058494,-0.0013569195,-0.03934849,0.062107395,0.09756698,-0.06558166,-0.04606539,0.16496623,0.11958028,0.02867393,-0.046278484,0.076248325,-0.018388582,-0.13295037,0.12295763,0.05457707,0.092339784,-0.011492313,0.05946433,-0.080865845,0.057775676,-0.055913627,0.122438416,-0.124784045,0.021067806,-0.03468571,0.009943909,-0.06523439,0.18740225,0.006071416,-0.14260343,-0.061270975,0.20849606,0.000169159,-0.112266794,0.16173477,0.081552416,0.057540853,0.029102445,-0.03194317,-0.13524462,-0.15403102,-0.02577487,-0.059882253,-0.20356676,-0.14813441,0.043120228,-0.04128425,-0.07971712,0.04935829,0.012561482,-0.05521663,0.14923166,-0.00980292,0.095564924,0.00755277,-0.20647454,0.050111264,0.002951357,-0.12834734,-0.008497747,0.051369473,-0.11111453,0.07850318,0.0029957911,0.07697925,-0.035778966,-0.0017131807,0.07584411,0.083234176,0.12789334,-0.0373382,-0.029442059,0.035983786,0.026206128,-0.046043742,0.11868973,0.011723112,0.012783754,0.10992841,0.0090271495,-0.14170077,-0.12299894,0.025748903,-0.009750544,-0.061620213,0.088872455,0.14168406,-0.16731048,-0.07002677,0.011613783,-0.061843045,-0.046052933,0.054911643,-0.07086036,-0.18556707,0.03921092,0.048977997,-0.027929733,0.07408309,0.119017296,0.027962968,-0.13491945,-0.006572961,-0.037281863,-0.05061616,-0.0818988,-0.0062368545,0.10646743,-0.10547179,0.035184465,0.13655199,-0.0008433328,0.07042966,-0.17090859,0.0155472085,0.060539853,-0.072955385,0.02876636,0.13066636,-0.006538104,0.009117285,-0.033708792,0.096056044,0.0048064305,-0.08949213,0.045332048,-0.049321942,-0.1670154,-0.013646902,0.030820444,0.05900156,-0.1334973,-0.07382727,-0.0015575573,0.086825885,0.03923,0.053257167,0.067819305,0.033533264,0.017383948,0.042394836,-0.08702533,-0.0434745,-0.13769028,-0.028404905,0.11444257,-0.09851634,-0.040087815,0.12819809,-0.042408846,-0.0072589703,0.061988786,-0.115813114,0.044757467,0.04369565,0.13322814,-0.016669556,-0.056605127,-0.076747335,-0.11338672,-0.10685768,0.041890696,-0.09412252,-0.0332098,-0.05609884,0.038324602,-0.15138051,0.007669054,0.050029162,-0.022455517,-0.04301504,0.10246215,0.12684067,0.08126108,0.0034788807,-0.098415785,0.11050696,-0.061136946,-0.06452969,0.08611692,0.022995368,0.11316206,0.036933947,-0.20271742,0.064293414,-0.043761667,-0.06017668,-0.056823686,-0.03628418,-0.0851839,0.084364995,-0.0045053763,0.13341767,-0.09861716,-0.035461333,0.10570051,0.1197468,0.08978894,-0.060120054,-0.011204256,0.12585141,0.112419784,0.030179283,0.03738679,-0.0076823374,0.02868933,0.061873265,0.08525202,0.023147529,0.039371006,0.009049095,-0.1330921,0.097572714,-0.044631943,-0.08424714,0.15967132,0.042641323,0.05679417,0.062034257,0.045015734,-0.22030178,-0.06783383,0.055561725,-0.06545978,-0.08703312,-0.052266493,0.026167816,0.11632107,0.078507215,0.028764319,0.11454208,-0.0073601627,0.09406096,-0.029930368,-0.12575705,0.13243346,0.07764872,0.07845368,0.035657156,-0.055844903,-0.003409229,0.02360132,0.034313053,-0.0144633595,0.061386112,0.045792412,-0.042854637,-0.16064623,-0.16355214,-0.036564235,-0.17009743,-0.049516894,0.13920914,-0.03398178,-0.10213135,-0.027037105,0.06777446,0.04548982,-0.02008244,0.10368302,-0.11904705,-0.119416736,0.07488655,0.08428434,0.03411961,-0.14950371,0.10025024,0.044331037,0.094580784,0.032721892,0.0133741135,0.090085655,0.026847012,0.0008097688,0.103871234,0.0011996272,-0.0453719,-0.101349704,0.01549031,0.024711741,-0.09944761,0.04183279,0.10316605,0.04743779,0.10355976,0.11393693,-0.112859346,-0.12801462,-0.024824139,-0.004203179,-0.10524167,-0.03111006,-0.028888239,0.13988918,-0.105789326,0.018001076,0.12133075,-0.07330805,0.044645507,-0.0006609042,-0.05141294,-0.060386654,-0.0066830027,-0.024696693,0.12825033,-0.041959297,-0.07334311,0.08430618,-0.10538886,0.10032886,0.020196805,-0.15283859,0.001313292,-0.07431731,0.1532675,-0.09770008,-0.008790925,0.100863755,0.051242363,-0.0073613157,0.10331242,-0.0033480723,0.16230074,0.01749307,-0.23088168,-0.020139258,-0.052122854,0.04050735,-0.003176053,0.008726977,0.013182583,-0.076810464,0.017578598,0.034257844,-0.19308488,0.010762781,-0.03417555,-0.02495744,-0.032228626,0.08404793,-0.16573817,-0.07858176,-0.02720652,0.001750842,0.10781718,0.030172141,0.2156415,-0.043206178,0.04207152,-0.07534682,-0.073235646,-0.20702793,-0.11391681,-0.14581436,-0.1160277,0.071988665,0.08461322,0.11588468,-0.072085276,-0.04986279,-0.12615153,0.013150615,0.18596172,0.14576815,-0.029284032,0.05067422,-0.0025753109,0.07837693,0.0587543,0.120572194,-0.01739719,0.05504805,0.11940072,0.04486783,-0.11963211,0.018482737,0.082233,-0.02456402,0.056884535,-0.0039183414,0.057292853,0.008223545,0.03767266,0.05211796,-0.00043943862,0.053645417,-0.1003222,0.056558277,0.022616282,-0.06327903,-0.09472935,-0.006397128,0.06270724,-0.10463071,0.017382937,0.20437774,0.076153666,0.024603536,-0.034231313,-0.057804234,0.015519381,-0.09950839,-0.15181224,-0.037041567,-0.06477021,-0.043814886,-0.1268529,0.122317106,-0.167082,-0.025429513,0.11661042,0.15726435,0.11030229,-0.03284345,-0.008910756,0.027455892,0.06276058,-0.09533561,-0.0902437,-0.022789523,0.017372405,0.10461805,-0.19548981,-0.012611397,0.11842518,0.05843711,-0.1511087,0.06529324,0.042640597,-0.08625748,0.10946821,-0.034067515,0.18208125,0.11471394,-0.06669834,-0.038918816,0.004008839,-0.06826689,0.04783148,0.012213836,0.015114345,-0.0389902,0.106570214,0.0025132406,0.040162522,0.036524702,0.083853655,0.11896734,0.1358981,0.023237443,0.0049268473,-0.08775058,-0.005677508,-0.044516303,0.0032954183,-0.10197263,-0.038582336,0.015681446,0.09414602,-0.024527723,-0.037305754,-0.06252638,-0.010508489,0.070761085,-0.10225805,0.056132138,-0.030312102,0.0049492344,0.02028147,0.022872746,-0.03695093,0.06202755,0.043527488,0.12474188,-0.064863674,-0.094300516,0.07932062,0.066335924,0.019020412,-0.004179878,0.08195602,-0.09253222,0.012047009,0.092638865,0.099513374,0.086226895,-0.034587044,-0.031335454,-0.020323839,-0.033880893,-0.090289004,-0.027165363,-0.13376708,-0.09359018,-0.03919467,-0.054480813,-0.17338398,-0.040925704,0.14082502,-0.030821124,0.06634107,-0.07344624,0.08395072,0.14666645,0.10776527,-0.10195569,0.030619549,-0.1333617,0.19858946,-0.0496268,0.08715484,0.08206469,0.028687345,0.014432473,-0.008800206,-0.025060024,-0.039595254,0.12018316,-0.11031335,0.0987032,0.008510435,0.110576905,-0.019254126,-0.0020691575,0.09634769,0.04662098,0.103649884,0.100513645,-0.049588133,0.1053083,-0.07286943,-0.08621756,-0.045028046,-0.10955936,0.03083328,0.05087711,-0.002054637,0.06544933,0.037365347,-0.16961905,-0.097948216,-0.067005366,-0.088475905,0.009487555,0.15054248,-0.12825802,-0.02278844,0.1233232,-0.0868626,-0.01928193,-0.0008046012,0.16678675,0.016676378,-0.027070284,0.14622456,-0.035273347,0.02492202,0.007624727,0.15327735,0.0362358,-0.057428755,-0.03461019,-0.047762834,-0.051144816,-0.033113398,-0.11434261,-0.07889853,-0.026881834,0.054793578,0.04030973,0.009685075,0.04283964,-0.105310194,0.11347683,0.0885079,0.014004684,0.0007574915,-0.08623639,0.0060776025,-0.0009767473,0.028053321,-0.06579233,0.07975853,-0.06729186,-0.07189474,0.03478574,-0.06417189,0.10120603,0.015411481,0.060967695,0.011243362,-0.19991222,0.09847775,0.09641474,0.038202494,-0.0079082055,0.10642317,-0.0034395438,-0.09636595,-0.10573671,-0.035740465,-0.094040304,0.10526578,0.07258961,-0.010748406,0.11064792,0.049883228,-0.053328488,-0.03492577,-0.011205462,-0.036965664,-0.1631232,-0.07748126,-0.07671999,0.115079954,-0.16567422,-0.15897498,0.03452379,0.116294555,-0.031953275,0.006278928,0.08903959,-0.16034897,0.07711416,0.008615644,-0.04945362,-0.063472964,-0.11226579,0.02639816,-0.018604588,-0.029136473,0.054480005,0.0049145063,-0.028131323,-0.06810473,-0.03242974,0.09867152,0.029007094,-0.109331496,0.101398245,0.06429992,0.0687371,-0.08581546,0.011293548,0.087383404,-0.097369514,-0.049772345,-0.04622077,-0.12347323,-0.05129667,-0.1494545,-0.009734319,0.07430153,0.0336096,-0.04964789,0.1853892,0.094423145,0.14163396,0.09890439,-0.09821806,-0.07002148,0.28624687,-0.06593433,-0.080336735,0.066403635,-0.017709935,0.024723452,-0.032293856,-0.06109889,0.013946583,0.0030011742,0.082081616,-0.0062472583,-0.011405812,0.0945726,-0.14328042,0.052305132,0.039183993,-0.034329053,0.06417654,0.14531372,0.066852644,-0.054975823,0.008627704,0.10386137,0.03276795,-0.0062913736,0.04715979,-0.057097796,0.052859582,-0.0152101135,-0.045338843,-0.033128,0.018347755,0.055678006,-0.07948894,-0.06124069,-0.064522326,0.10641708,-0.011585733,0.1598321,0.028847925,0.014072427,0.15556377,-0.045036115,0.060500372,0.04109612,0.06600139,0.0607009,0.031456575,0.023290666,-0.030077381,-0.18269467,-0.028057523,-0.09494479,-0.02568011,0.03530421,-0.061136436,-0.09210847,-0.14060275,-0.06637573,0.024336668,0.05245566,-0.02843787,0.05692998,0.03113171,-0.09970022,-0.10768769,0.033042166,0.16670957,0.012676598,0.21940148,0.2028468,0.07681708,0.07357274,-0.061839946,-0.058994606,-0.002191268,0.018335626,0.12015225,7.240205e-05,-0.080795296,0.103263624,0.06565052,0.017377343,0.062555246,-0.17193408,-0.0024184994,0.094660014,-0.0015663224,0.12188713,0.004027308,0.08453219,-0.062216107,0.0063855224,0.049732354,0.18543011,-0.059747968,0.10596517,0.026071755,-0.012356116,0.106845066,-0.115932606,0.055675544,-0.034323815,0.087640494,-0.1749574,-0.15889312,0.029608019,-0.037945118,-0.019894911,0.014611285,0.09289454,0.10825644,0.095652096,0.08216307,-0.02515354,-0.015503024,-0.06930468,-0.006581169,0.18649833,-0.11287712,-0.06906618,-0.109409355,0.18408155,0.019523678,-0.10393359,0.07035837,-0.027270341,-0.09239403,0.07888263,0.07227148,0.17533274,-0.07505449,0.0046794647,-0.043938138,0.0013822209,-0.092839636,0.03722185,-0.025317963,0.069798365,-0.052153107,0.035547145,0.12456908,0.04461779,-0.07959822,0.0374593,0.12513341,-0.064114965,0.08755861,-0.034624815,-0.027887516,-0.027534649,-0.036036227,-0.119101845,-0.120505475,0.054975573,-0.06073909,-0.085821845,0.055579558,-0.16266191,-0.01318912,0.04005541,-0.046148114,-0.10847825,-0.08468837,0.005624588,0.09651692,0.019622207,-0.07496822,0.06874433,-0.0533207,-0.10863015,-0.011470289,-0.029535618,0.10491258,0.074214585,0.06418453,0.09010902,-0.05089968,0.016439978,0.036498006,-0.07035267,-0.0057830075,0.022900602,0.012181254,-0.11587791,0.084572874,-0.029157743,0.13017999,-0.14893655,0.03746459,0.13550076,-0.20377605,-0.09151218,0.034016944,0.05111327,-0.04253526,-0.04877751,-0.04357001,0.048868448,-0.12771575,-0.050093237,0.09675176,0.18445715,0.022695819,0.12767123,-0.14784853,-0.012534132,0.10018124,-0.10564078,0.0758275,0.023285126,0.084066376,0.009586314,0.10166694,0.005343632,-0.08845753,0.10566529,0.026822697,0.09444705,0.14798369,0.0502613,0.14518529,-0.016704852,0.12626904,-0.076881036,-0.010487577,0.103238076,0.11768946,-0.029126558,0.122060515,-0.14637889,0.09424103,0.11090553,0.13890257,-0.055864453,0.028011335,0.13955516,0.016049555,-0.07024365,0.13482551,0.08445335,0.06939016,-0.033917867,-0.027383419,0.023653122,-0.021946235,0.048644897,-0.0142659,-0.10154603,0.008329485,-0.10336549,-0.009759585,-0.0036135055,-0.025146754,0.14832528,-0.01842319,-0.10238719,0.24389097,-0.0745087,-0.033535194,0.043565463,0.07641507,0.013354548,0.115533225,0.060179245,0.0153145185,-0.053016692,0.12271072,0.03237393,-0.04709541,0.09277231,0.18312716,-0.072698325,0.029086696,-0.108294494,-0.04761725,-0.118512064,0.0129357735,0.041237563,-0.0076276,0.12066121,0.0379114,0.022428129,0.09633274,0.20703682,-0.06923172,-0.07462721,-0.08543051,0.10253648,0.025046231,-0.09250322,0.012762746,-0.00655371,0.032712992,-0.017129375,-0.005486647,0.034867052,0.06392029,-0.13313878,-0.017381879,0.02942549,0.16004607,-0.07871079,0.12589581,-0.031553272,0.030640924,0.01755851,0.052981645,-0.054801676,0.0036736163,0.109149225,0.07020739,-0.018811973,0.08506041,-0.037016686,0.10516513,-0.005858212,-0.009285158,0.031000135,0.13222693,0.09658065,-0.007970258,-0.003611067,0.12860689,-0.036204476,0.026286315,0.10580726,-0.042556398,0.22378266,-0.119390346,0.0580336,-0.00062344345,-0.23560902,-0.009410215,0.057141393,-0.09777202,0.11711776,0.13328722,0.007923158,0.084413946,-0.0028123895,0.10157706,0.013849448,-0.003907056,0.03667053,0.068823494,0.022055238,-0.121040404,0.15982477,-0.041072343,-0.012600943,-0.08153096,-0.02729085,0.031757295,0.077937655,-0.12804875,0.04959173,-0.021170164,0.037653327,-0.035177954,-0.042274047,0.07901057,-0.018186674,0.114251226,-0.12737945,-0.08420433,0.070741795,-0.021149566,-0.10956228,-0.108465254,-0.010066778,-0.025257321,0.109227076,-0.035050634,-0.0015810732,-0.017966703,-0.11967071,-0.07309159,-0.088127516,-0.041618615,0.07241864,0.09358625,-0.062302385,-0.0036675606,-0.12369353,0.03171176,0.10502871,-0.032552928,0.10976816,0.13256808,-0.034374915,-0.050291598,0.17085287,0.19092698,0.04049711,-0.08599067,0.023384515,-0.03610916,-0.012901809,-0.019882917,0.057271335,0.024141002,-0.1113858,-0.1265714,-0.062298488,-0.061427206,0.085649595,-0.07475556,-0.009029408,-0.023774799,-0.043162186,0.12337041,0.046700332,-0.053356566,-0.02695023,-0.027397644,0.013142582,-0.086616136,-0.013281059,-0.065855585,-0.050529175,0.12160744,0.14496236,0.16441458,0.028287038,0.01853007,-0.22520758,-0.08122221,-0.19130862,-0.019580424,-0.09982658,-0.05541774,-0.041827343,-0.048737455,0.020284018,0.012189901,-0.017697921,0.0392374,0.05730144,0.114785805,0.11036423,0.1970319,-0.05359776,-0.07622545,-0.0720871,-0.10237633,-0.026486708,-0.0080958335,-0.09204519,0.10214301,-0.035917714,0.1542643,0.10859385,0.0022225894,0.013870222,-0.00657213,-0.037669737,0.03899749,0.05163012,0.05157919,0.04774157,0.008718543,-0.13779695,-0.074260846,0.08042369,-0.04299593,-0.04138595,-0.007513863,-0.093246326,0.073456176,0.072255604,-0.058826357,-0.0011896205,0.101531334,-0.020416807,-0.0058028,0.0937449,-0.073993325,-0.119608715,0.010542496,0.04081892,-0.03299226,0.06344734,0.035412926,0.13684575,-0.017015766,-0.06834962,-0.10745272,0.055405136,-0.0887459,-0.119350545,-0.17667882,0.118340015,0.12329754,0.12258031,0.051005483,0.06076305,0.17721193,0.0182375,-0.07698826,-0.04421941,0.024998002,-0.022661064,-0.10661131,-0.09466083,0.09583435,0.10659371,0.029049246,-0.10200658,-0.01219122,-0.049405128,0.048238017,0.05201209,0.14138237,0.15329833,0.05153511,0.044613417,0.03653862,0.29803714,0.077349424,0.08175791,-0.04829686,-0.02527245,-0.05495441,0.113366835,-0.037982676,0.09514325,0.12063593,0.04824899,0.040001273,0.08262385,-0.041607175,0.094950184,-0.20877104,0.1673472,-0.080408275,-0.1475127,-0.04774218,-0.12888086,-0.044964973,-0.03603834,0.039189596,0.061366253,-0.019612325,0.08801013,-0.10949035,-0.14444599,0.0623491,-0.01679845,-0.12675461,0.077934176,0.10259592,0.08354753,-0.04683549,-0.032333657,-0.019803682,-0.013444819,0.0671595,-0.0030310617,-0.049844164,0.12842792,0.024768025,0.08660822,0.14799453,0.07202626,0.1328751,-0.07013623,-0.030518513,-0.01907759,-0.23320723,-0.023812184,0.09121522,-0.047149822,-0.12061694,0.027133161,0.106205605,0.041085124,-0.11331128,0.030029966,-0.14393283,0.020721646,0.026589049,-0.05894787,0.06041757,-0.021800973,0.06511748,-0.061198693,-0.16657141,0.120529406,0.06991417,-0.12397245,-0.092175946,-0.022599988,-0.054157194,-0.023603264,0.030267423,-0.0038425128,0.07843511,0.12889764,0.02870109,-0.017498184,0.09346603,-0.21158953,0.08839619,-0.030062972,-0.08066154,0.15561147,-0.007747203,0.029356187,-0.057671607,0.12638332,0.07673914,-0.061849378,0.053273525,0.0075784577,0.0019412448,0.092289925,0.02542718,-0.15925364,-0.104569666,-0.0296073,0.066002846,-0.021970402,0.012417249,-0.0807028,-0.022903116,0.08517882,-0.025287358,0.18627802,0.111806445,0.04251152,-0.11033165,0.010004834,0.034134284,0.030831123,-0.051440764,-0.090703525,-0.040091403,0.09268696,0.039107986,-0.051383466,-0.011717691,0.11289997,0.036727536,-0.114084326,-0.019187104,0.11782426,0.022846619,-0.012738411,0.055167705,-0.026944919,-0.067314714,0.069001615,0.012835243,-0.10565464,0.0025748028,0.08148786,0.093608916,0.08004952,-0.096027896,0.049472395,0.026082944,-0.064372964,-0.033976182,0.009548687,0.046086818,0.0019845953,0.11702305,-0.10446899,0.050308984,-0.08903264,0.10475633,0.018558413,0.0013650489,0.07593488,-0.042042423,-0.14888187,-0.14187329,-0.05802625,-0.048620008,0.016348148,-0.058939807,-0.07710591,-0.05398617,-0.022468118,-0.097718544,0.11495145,-0.017190732,-0.029724168,0.09633125,-0.016439348,0.033777524,0.180319,0.08527928,0.010375219,-0.074977934,0.040070325,0.00894459,0.052801285,0.009843006,-0.11552218,0.054485418,-0.014177807,-0.017772293,-0.09627972,-0.09698123,0.15392242,0.06853724,-0.10599167,0.092385024,0.02844698,0.11174356,0.124089204,0.09060163,-0.003340578,-0.07584067,0.06548274,-0.17510259,0.15806833,0.03989187,-0.052782804,0.013230706,0.016773565,-0.10202286,0.13023777,0.06487422,-0.002706356,-0.0069243824,0.07803138,-0.041823927,0.018453069,0.13302828,0.014930325,0.07656578,0.08550846,0.026755728,0.052828804,-0.03633039,0.08222809,0.0955956,0.08663787,0.10225345,0.026229102,0.023534179,0.20466146,-0.027303964,-0.14612839,0.16344796,-0.05172655,-0.07140766,0.0070362277,0.075657226,-0.10323962,0.005041475,-0.06519283,0.0791124,-0.08796064,0.05658331,-0.039916523,0.03380529,0.07031369,0.07259074,-0.033387754,0.11188632,0.02486387,-0.043825723,-0.060226392,0.020205632,0.14152735,0.07072656,0.056766387,-0.051555894,-0.09443023,0.023562223,-0.040704403,0.07990814,-0.025186228,-0.098830335,-0.0031789478,0.053004567,0.07672161,-0.06594744,-0.09494146,0.06555953,-0.14757492,0.04082283,-0.09086874,0.16380374,-0.11879412,0.049327288,-0.07237691,-0.040925916,0.026955796,0.057483524,0.11679908,0.026838318,-0.046621595,0.15973686,0.019889977,-0.16705017,-0.056325935,0.023320857,0.0032072873,0.09173587,-0.029102594,0.14015384,0.0005364851,0.0072312825,-0.024639545,-0.010905883,0.029617859,-0.049784284,0.14354554,0.016635487,-0.05488377,0.15264156,-0.025311114,-0.14891276,-0.0014861324,-0.13137373,0.017406764,-0.002526273,-0.13239601,0.075822,0.14654939,0.047475956,-0.02754112,-0.105760604,0.10531127,0.16676731,-0.019641856,-0.012949597,-0.020620389,-0.076344684,0.046418596,0.07714383,0.11812748,-0.07884888,0.060629833,0.026731422,0.113033086,-0.039987806,0.12628287,0.020317553,0.062149495,-0.031092092,0.12324446,-0.03831728,-0.05576224,0.032411486,0.07239533,0.14073648,0.061863314,0.009662097,0.16200471,0.12096542,0.19056693,0.06931509,-0.1322127,-0.12791502,-0.03403066,-0.034522463,-0.13514373,0.02979529,0.116287224,-0.059585765,-0.0369913,-0.0415773,0.1293166,0.01579713,-0.08408425,-0.054113563,-0.015926708,0.07628667,0.07917543,0.05360908,0.10638117,0.058924615,0.100406185,-0.0019766684,-0.09359068,0.0153257735,0.066748776,0.025348516,0.030678669,0.22974326,-0.025768321,0.027075652,-0.031278368,0.070788,-0.008437856,0.057674214,0.06062258,-0.11667875,0.05895901,-0.04984126,-0.03735826,-0.07891211,-0.01671063,-0.10953493,-0.07878193,-0.074443094,0.061376177,0.022418082,0.123359025,-0.055945657,-0.008349181,0.026414761,0.124344535,0.071922556,0.025248272,0.007643534,0.031185156,0.1412977,-0.18408176,0.009372913,0.012360594,0.02891476,0.046504263,-0.088248886,-0.00271458,-0.079307884,-0.06712018,0.009198257,0.034991562,-0.018471196,-0.053277526,-0.14220299,-0.023916254,0.17264706,0.026017064,-0.042588353,0.14367954,-0.07141187,0.0627822,0.050700255,-0.11035686,-0.14656669,-0.14674725,-0.052704703,-0.0022641185,-0.15615024,-0.028639765,0.0138409715,0.06573897,-0.08265382,0.072955,0.19070813,-0.04364243,0.14341937,-0.08681121,-0.050617274,-0.03779144,-0.21392176,-0.043200884,-0.1194222,-0.073606335,-0.06248951,0.083945625,-0.13603266,0.11061968,-0.044165876,-0.11102472,-0.026493723,0.039183393,0.046199664,-0.032247145,0.13685377,-0.11636561,-0.10396718,0.018104542,-0.052687686,-0.07036276,0.043197256,-0.07476147,0.021489164,0.055771276,0.06070084,0.04707361,0.056061298,0.055464566,-0.11243612,-0.011315735,0.07766119,-0.008162573,-0.07745982,-0.08057875,-0.17718422,-0.006230929,-0.096335195,0.098001756,-0.027461188,-0.104252115,-0.015390669,0.048126638,0.0081154965,-0.04752759,-0.014217681,-0.07827076,-0.098110706,0.0052698925,-0.14764543,-0.030878054,-0.019701026,-0.044054747,0.00022841814,-0.072542354,-0.038458034,-0.013367702,0.0070648952,-0.012412675,-0.041382566,-0.06302036,0.077173166,0.03158249,0.04243186,0.07468923,-0.020389743,0.08383558,0.034580927,0.113983154,0.07016249,-0.09655105,0.052372463,-0.022080172,-0.059121888,0.09319665,0.021501012,0.11755508,-0.13689701,-0.022475792,-0.08908189,0.045286186,0.18369077,-0.009036024,0.12639682,-0.051796813,-0.10822062,0.061366152,0.024044024,-0.2003214,-0.076250754,0.020181153,0.061488774,0.1324558,0.014444261,-0.1337235,0.05661532,0.06643129,-0.029921576,-0.029016402,-0.093161024,-0.15392306,-0.13365406,-0.07845531,0.023312991,-0.003295727,0.12687717,0.082549624,-0.08410069,0.10216136,-0.065177925,0.031101594,0.045324273,-0.019989874,-5.4792312e-05,-0.050241817,-0.033922154,-0.026578054,-0.058889687,-0.03186883,-0.16957712,-0.09517947,-0.04528386,-0.09596768,-0.05577638,-0.010127418,0.10209247,-0.007936992,-0.07416421,0.0070400517,0.18732132,-0.034292538,0.069381244,-0.042877994,0.011757548,0.009309699,0.0622491,-0.2121195,0.084779084,0.033318024,-0.011542163,-0.058515873,0.1333041,-0.04354612,0.00086876017,0.09363898,-0.14083223,-0.09404522,-0.10902413,-0.13070735,-0.11059864,-0.12242001,-0.04481574,-0.06639861,-0.06605821,-0.0075494507,-0.029895248,-0.02649838,0.21418859,-0.036412634,-0.0917365,0.084150426,0.048921768,-0.05355593,0.03791813,0.020816466,0.00462172,-0.0799227,-0.057185024,-0.043214306,-0.044357996,0.04823191,-0.058869623,-0.15135372,0.0791562,0.066155575,0.009995517,-0.071052246,0.1099329,0.060628384,0.034415644,0.11770007,0.05163816,-0.1730403,0.005169017,0.07356208,0.08070225,0.11039667,0.0057578417,0.018361486,0.032544497,0.025054509,0.054767594,0.19530514,-0.0008784264,0.1427795,-0.016842077,0.07406215,0.11307617,-0.22751017,-0.08418184,0.06529157,0.005938399,-0.026863558,0.07025178,-0.046816655,-0.067233145,-0.0038280785,0.065176465,-0.16303584,-0.07603977,-0.00037239827,-0.040802356,0.079407215,-0.0062945024,-0.17242277,0.1662467,0.011889,0.054263428,0.18310927,-0.19506419,0.039236955,-0.17898224,0.10191961,0.028443443,-0.17853889,0.050189443,0.024163008,-0.119135484,-0.0029258728,-0.04849336,0.0061549186,-0.04889738,-0.04464352,-0.099069715,0.028622719,-0.0041332482,0.06740754,0.028555943,-0.10169165,-0.01575434,-0.07130283,-0.06974809,0.05587852,-0.017471889,0.23006141,0.049925737,0.10432172,0.15638877,0.111350685,0.09115751,0.102161236,-0.033676837,-0.044274077,0.004636928,-0.0030767894,-0.01135268,0.055243995,-0.13582274,0.113764964,0.036810547,0.10767757,-0.0010305244,0.124780536,0.18558295,0.08068956,-0.06771209,-0.025728084,-0.023497427,0.0086961845,-0.0129557,-0.02531914,0.07680579,0.08176273,-0.057051368,-0.05957094,0.034961388,0.11125819,0.022178523,0.16031836,-0.10760075,-0.05408023,-0.0107387155,0.030691488,0.0798863,-0.0636509,-0.013113423,-0.06278327,0.018351076,-0.07030486,-0.02735843,-0.038416155,0.054254662,-0.050602265,0.11269925,0.010847594,0.06740303,0.06965094,0.02446491,-0.07895214,-0.0037527354,-0.0033743219,0.007974418,0.028676981,0.08148385,-0.09860546,-0.12710461,0.076825924,0.042766422,-0.02122122,-0.0013221294,-0.009828665,-0.076459184,0.0047850315,0.051521067,-0.022919474,0.0850347,-0.020829441,0.10316703,0.02308158,0.022281261,-0.13065036,0.129773,0.006422979,-0.10545541,-0.06851754,-0.041549567,0.0939814,-0.16599624,0.17731816,-0.15672013,0.11388417,0.08900399,0.1781657,0.03705498,0.013255962,0.046658188,0.12855712,-0.20367621,0.07292198,0.049066905,-0.078818515,-0.06270364,0.06862254,0.11661965,0.043894157,-0.061744086,0.059148934,-0.08318551,0.056430113,0.056374103,-0.022179285,-0.061672017,0.04777087,0.08504696,-0.13924626,-0.12315589,0.15941444,-0.033576638,0.030780653,0.0781665,0.050376613,-0.11182186,0.0667305,-0.04247177,-0.053135302,-0.010822912,0.10415603,-0.0077054338,0.08230863,0.14849667,-0.15031356,0.03441856,-0.09662076,0.038302403,0.065580435,0.06692849,0.026089571,0.06786846,0.060232215,0.16938737,0.021445556,0.16049671,0.030691195,-0.032922648,0.12985604,0.0123564545,-0.067038566,-0.061918225,-0.12177257,-0.019488016,-0.0016756632,-0.08452612,-0.043609165,-0.03522203,-0.010174649,0.07983724,0.1474276,-0.01911895,-0.07993645,-0.14449589,-0.0826674,-0.0029771666,0.044227965,-0.02403693,0.11376831,0.07230274,0.11717985,0.0031213476,-0.035533182,-0.014792679,0.20770659,0.0532688,-0.104669414,-0.03247609,0.077303596,-0.10138831,0.102104634,0.113400094,0.016415283,-0.011094825,-0.023996636,-0.09020343,-0.09971967,-0.08257711,0.12885095,0.12477936,0.08499949,-0.07085089,0.10170434,-0.05727142,-0.11746707,-0.11215931,-0.01228252,-0.03206856,-0.0021556378,0.09163608,-0.03060139,0.07109808,-0.05925717,-0.009616799,0.08005533,-0.112161696,0.096481875,0.074756555,-0.09077796,-0.06694261,-0.018130662,-0.112413734,-0.005051178,-0.037298284,-0.08960676,-0.010046773,0.10618019,0.11652651,-0.02318841,0.0065666935,-0.043781992,0.05018899,-0.09935467,-0.06205952,-0.013480495,-0.05085325,0.016845882,0.09365484,0.12660964,-0.14436169,-0.020896895,-0.15167737,0.028714983,0.01894226,-0.075584926,0.016198723,0.019222736,-0.017121261,0.08689888,-0.039686967,0.076384954,0.10372116,-0.12067473,0.0123385545,-0.014767864,-0.08557823,-0.0147757735,-0.024728427,-0.07695404,0.05871021,-0.0064709997,0.04118413,0.09239139,0.051732387,-0.001310845,-0.054327246,0.010904255,-0.09652031,0.06921646,0.11005694,0.0505792,0.086497724,0.00567203,0.06032934,-0.07076155,-0.02449493,0.1446712,0.20871368,0.091962725,0.04391503,-0.012292983,-0.08864384,-0.09546909,-0.02461165,-0.07427481,-0.021403892,0.0602063,-0.065686814,-0.06665438,0.003575495,0.06677166,0.01868709,-0.09145855,-0.104072645,-0.11179528,0.03525749,0.12263933,0.22652823,0.08030708,0.18237063,0.0138043845,0.10789407,-0.07141511,0.026010832,0.21521473,0.1683796,-0.045786094,0.022029057,-0.094980024,-0.027891228,0.08963891,0.063024394,-0.00504774,-0.038374815,-0.076672606,-0.054685634,-0.13986923,-0.101744585,0.1361991,0.01732943,0.13383164,-0.062463216,-0.12321871,-0.053284854,-0.006684188,-0.12438591,0.13711883,0.060170475,0.067455925,0.06260154,-0.0452093,-0.029877532,0.03894466,0.14574422,0.13474128,0.11311373,-0.05057273,0.031986337,-0.14337656,-0.07896673,-0.021413082,-0.06193939,0.0020935663,-0.096153766,-0.0986856,0.05235629,0.008219693,0.034107544,-0.0038168023,-0.03379734,0.01615676,-0.086905874,0.050150383,-0.019897582,0.004010902,0.07854761,0.10873187,0.15076816,0.0119812,-0.0020756084,0.02914338,-0.09627384,-0.14626282,0.04616713,-0.10625849,0.029170228,-0.04120195,0.15697879,-0.15250874,-0.03892496,-0.112104364,0.05369717,-0.018869564,-0.05842628,0.020574467,-0.056837607,0.04309597,-0.0057513057,0.09628928,-0.11771392,0.050417706,0.035916656,-0.11851353,-0.13570149,0.03513832,0.035955284,-0.116027236,0.18969302,-0.05117268,-0.033387806,-0.012612608,-0.033231318,-0.080041796,0.113249615,-0.015840167,0.04757136,-0.15235169,-0.029207261,0.01966368,0.18201818,-0.049001995,-0.18336011,-0.054133117,-0.017720541,0.10961731,0.09664875,0.09304659,-0.010790148,0.14255688,0.034046195,0.010584451,-0.07158593,-0.050906964,-0.06199796,0.0781029,-0.0441035,0.025938692,-0.02175678,0.15857524,-0.0844342,0.1261368,0.028566238,0.03741245,0.0832208,-0.076575086,0.116387635,-0.022491083,0.14912692,0.11440181,0.18642743,0.041297384,0.013641886,0.12246858,0.047593236,0.010374825,-0.08221143,0.07873984,-0.023101093,-0.024126932,0.0741164,0.05595007,-0.08520093,0.08149242,0.109499164,0.113992654,0.047346983,0.119223885,-0.21747603,-0.041921057,0.05943586,0.03473989,0.05918699,0.026662296,0.04332849,0.023751827,-0.022814032,-0.18276253,-0.05466935,0.052522365,-0.118984796,0.075856894,0.0020906427,-0.06583555,-0.0402965,0.028281678,-0.04977807,-0.008709368,0.060580056,0.100148484,0.0066017825,-0.029105406,0.069766164,-0.004572219,0.090241306,0.09043557,0.057941977,-0.041754935,0.14696915,-0.016020527,-0.08978057,-0.009840685,0.029524675,-0.045358457,0.030627673,0.038034886,0.043322023,0.071392156,0.089061834,-0.09418415,0.06353718,-0.060500644,-0.109485894,0.100179754,0.08054146,0.061353438,-0.010412135,-0.08591568,-0.026597314,-0.11363219,-0.24591573,-0.007530988,-0.077967025,-0.18756081,-0.07354152,0.12931208,-0.095679946,0.06896907,-0.025896864,-0.1407577,-0.11319451,0.006422812,-0.0012972151,-0.042631578,-0.03521709,-0.052332893,0.096245885,-0.076814994,-0.060830075,0.042344376,-0.04346228,0.08138133,0.059568387,0.033557747,0.011494301,-0.0023985524,-0.12469698,0.09033157,-0.07425033,-0.09918269,0.010130991,-0.21012352,0.04087794,-0.07879825,-0.019478533,0.05565782,0.020432597,-0.08548931,-0.057282947,0.12189263,0.013410635,-0.014560946,0.0639964,0.109341964,-0.03430651,-0.0095318295,0.04891828,-0.04431159,-0.06358115,-0.052196845,0.13708825,-0.039951902,-0.08940229,0.19585961,0.04494364,-0.079185665,0.030184466,0.019064726,0.031039014,0.08767338,-0.114908576,0.018479055,0.10142719,0.02530429,-0.06350661,-0.05662269,0.038993612,-0.07049267,0.021354536,-0.086019866,-0.05645873,-0.008855868,-0.12087857,0.055061504,-0.15592122,0.10774703,-0.110295735,-0.11980323,0.0678561,0.22188084,-0.08852261,-0.08971136,0.029780287,-0.115460746,0.041352257,-0.053829893,0.02355573,0.024715202,-0.082452804,-0.09606174,0.024963386,0.0162417,-0.0769718,-0.18355027,-0.06836482,-0.048147984,-0.036844257,0.049604353,-0.07735709,0.0020374549,-0.07818706,-0.058654588,-0.025290469,-0.028569818,-0.105812944,-0.008687191,-0.042548537,0.033970393,-0.007650004,0.08778584,-0.19161245,0.12947245,-0.060691036,0.057939313,-0.007083479,-0.011421744,-0.032484796,0.16502176,0.031402647,-0.019625496,0.07139797,-0.0695295,0.006032772,-0.0065164133,-0.013802801,0.031602047,0.082581654,-0.07706781,-0.07902394,0.12804037,0.12007787,0.022731815,0.017813781,0.037458144,-0.03353709,0.014231044,-0.038760215,0.036846742,0.15633588,-0.020184815,-0.06581444,0.015043248,-0.054473646,-0.04529478,-0.02778742,0.03385945,0.06749512,0.048773978,0.01937511,0.036952782,0.06444904,-0.046241067,0.036640238,0.12366498,-0.104210205,-0.00029508534,0.10285261,-0.019482352,0.11837126,-0.06563832,0.11455575,0.048425775,0.07405081,-0.08335327,0.09021489,0.018365405,0.043749165,-0.0073566963,-0.06686956,0.15481809,0.06663521,-0.0642557,0.104560524,-0.09452608,-0.056033682,-0.020243816,0.0054682544,-0.016929682,-0.1278701,0.061352704,-0.010610207,-0.00600957,0.06509833,-0.06427259,-0.05021363,0.016507516,-0.0718496,0.034409143,0.0076395515,0.23509027,0.068722665,0.106241606,0.13254185,-0.1369854,0.14040989,-0.03604912,0.06677827,0.034292117,-0.11103311,-0.21858296,0.09115377,-0.19754991,0.06777648,-0.0689504,-0.17628539,-0.058953967,0.06484384,0.13559487,-0.070085905,0.10781018,0.08059712,0.1393456,0.04660069,-0.12040099,0.03140067,0.0376154,0.052168474,-0.107442014,-0.06562755,0.010411325,0.06683722,-0.004607247,0.032980323,0.13793828,0.113083296,0.04294632,-0.0065463143,0.080649346,-0.12799813,0.18639386,0.02432342,-0.0072453883,0.029284354,0.08207936,0.016883079,-0.18897685,-0.12643684,0.04742005,-0.0013371058,0.012381047,0.0054515186,-0.076203816,0.016566318,0.044679437,-0.034296688,-0.037815355,0.006206153,-0.049457334,-0.16834867,-0.03619885,0.22521882,0.113984674,-0.008671314,0.06300672,-0.098792024,-0.09798048,-0.058001895,-0.07966095,0.01190737,0.11551579,-0.05726413,-0.091064,-0.0951587,-0.06973885,-0.022668634,-0.106556214,-0.034917243,0.03321929,0.08266596,-0.0666443,-0.042487133,-0.06866911,0.019462809,0.040010028,-0.12234191,-0.081343465,0.03320354,0.07834078,0.148288,0.07154933,0.2140341,-0.117550254,-0.0024188317,0.051868085,-0.02913823,0.16052684,0.08762973,0.21067953,-0.00024161351,-0.054658107,-0.12515083,-0.016840234,0.054923695,-0.04586397,-0.05038344,-0.029967008,0.14444566,-0.054455105,-0.069189705,0.1350529,0.10995264,-0.0029229,0.09950789,0.053699132,0.04543483,-0.038283613,-0.028775513,0.08895527,0.07994906,0.033407077,-0.027419351,-0.077806056,0.088462904,0.04564387,0.033988204,-0.0015034023,0.069539435,0.030438678,0.10142387,0.02909139,-0.08711959,-0.027556304,0.10796832,-0.11723211,-0.10692212,-0.050993875,0.09638977,0.0009687514,-0.07256731,0.00650115,-0.072370075,-0.13405909,0.11200951,-0.048981328,-0.03892255,0.26574618,0.03951847,-0.046320517,0.015841177,-0.15690272,-0.18571763,-0.0026058988,-0.014301152,0.05149013,-0.19020578,-0.10784511,0.0077325255,0.063010976,0.041309472,-0.07508112,-0.08453601,-0.05641196,0.08948052,-0.055295736,0.003490872,-0.03484929,-0.098453715,0.11368122,-0.010930867,0.031577982,-0.11835413,-0.054645922,0.086242035,0.087928325,-0.10261105,0.09022273,-0.029786767,0.015303507,0.12415903,0.05298465,-0.075552754,-0.02441632,0.022197833,0.07200163,-0.032535292,0.03261267,0.029555019,0.09169548,0.013642854,0.062162023,0.09791794,0.056949917,-0.035141625,-0.021652037,-0.062342536,-0.011758806,0.031943474,0.19036032,-0.072371475,0.024408966,0.15986507,0.07477776,-0.20632073,0.016564986,-0.038366444,-0.0034729731,-0.047057956,0.17141898,0.043722883,0.11302489,0.1493631,0.098413385,0.065551296,-0.030906202,-0.018372035,-0.014360391,0.016386585,-0.04988043,0.17978334,-0.05235146,0.111168556,0.09428481,-0.060147874,-0.022216957,-0.07754665,-0.007453464,0.04769472,0.03944703,0.042072576,-0.024627646,-0.13260005,-0.051575646,-0.082078725,-0.05589177,-0.03060044,0.0045406977,-0.0019978967,0.006095308,-0.19094364,0.0068448666,0.010624617,-0.0044706324,-0.05058674,-0.014908329,0.042715654,0.0668481,0.048186187,-0.13871753,-0.04886719,0.03685583,-0.0207225,0.028834036,-0.101673305,-0.0072694635,-0.05298187,-0.080589764,-0.15811034,-0.17864583,-0.13062817,0.11732308,-0.021905398,-0.037198536,0.00780685,-0.10589862,0.043512177,0.08258533,-0.0051835445,-0.08072759,0.005542312,-0.031608112,-0.037656687,0.110598974,-0.0063176486,-0.19072966,-0.0035185681,-0.045545053,-0.1310147,-0.13906612,-0.035822656,0.081320345,0.053929582,-0.064667314,0.04651065,-0.15097338,-0.039287075,0.037804108,-0.082374044,-0.06049858,0.03301741,0.012825864,0.009010743,-0.025155295,0.14886576,-0.0597604,-0.103229076,-0.14131568,-0.1362798,0.17585556,0.07214582,-0.04420745,0.022243915,0.00035607614,-0.07182956,-0.09950862,-0.03679324,-0.11167417,-0.024228094,0.019965049,0.04179779,0.051636927,-0.14226288,0.07421847,0.14046861,-0.05820049,0.102070995,0.2556602,-0.06515821,0.1444201,-0.09058762,0.018866848,0.14272602,-0.16356838,0.01359979,-0.045354404,-0.027034806,-0.040373426,-0.14618623,-0.00819312,0.10877632,0.0619073,-0.108216204,0.14705724,0.022948848,0.008980312,0.109382525,-0.023440046,0.07271189,0.08463698,-0.028104644,0.046127766,0.031857204,0.06040668,-0.06199702,-0.025307039,-0.013751174,-0.15969406,-0.098604165,0.12742583,0.010864177,0.008243523,-0.010179555,0.0465082,-0.008948372,0.008932734,-0.09963526,0.06473526,-0.04122983,-0.07024579,-0.11509132,0.10127094,-0.047254235,-0.030989833,0.080235526,0.004193971,0.04470641,0.113767534,0.08193343,-0.019494914,0.056351926,0.064619005,-0.04509132,-0.118792385,-0.065276146,-0.07688916,0.033242624,0.021236299,-0.06415419,0.035175525,-0.07409364,-0.12051764,0.1215113,-0.064760305,0.0003331041,-0.06735219,0.00083942397,0.060515985,0.097887315,-0.1315517,-0.05975114,0.010104057,-0.04214272,0.028431455,0.05803213,-0.06660057,-0.068891436,-0.063150175,-0.12294735,0.118693866,0.07145573,0.06655923,-0.1114436,0.030482402,-0.06043491,-0.0030771282,-0.08169021,0.0009860711,0.07541279,-0.03383824,0.0033678832,-0.11430687,-0.038338218,-0.09987951,0.0794813,0.03516197,0.06550953,0.011999577,-0.0721942,0.02258541,-0.014368339,0.036491577,0.06513672,-0.007857556,-0.014578054,-0.089344,0.00035297015,0.018110214,-0.070948556,0.12647574,-0.0033289462,0.117996976,0.054716192,0.017461546,-0.06863201,0.01701957,0.10339016,0.13138181,-0.1471552,0.029871998,0.030096054,0.15710515,-0.107760295,-0.08375631,0.05542218,-0.060728226,0.02164042,-0.044092022,0.13747151,0.10502599,0.20421356,0.00908614,-0.09781013,0.20750514,0.1883373,0.12792994,0.005785718,-0.13365786,0.025822666,0.14863685,-0.00032177794,0.0035272755,0.12651682,0.088629864,0.11834368,0.03554826,-0.056450278,-0.015059406,-0.039950233,0.1206456,-0.1007913,-0.039359175,0.0027786612,-0.04438215,-0.03628282,-0.14460368,0.034956247,0.07362152,-0.13056137,0.13023847,-0.07956602,0.1086907,-0.1480379,0.003428667,-0.04377574,0.004386596,0.16401279,0.052965567,0.079551354,-0.03210735,-0.09405847,-0.07043093,0.07333666,-0.07334211,0.016000908,0.032825287,-0.07694546,0.04308666,0.08520949,-0.18353349,-0.004653182,-0.028209478,0.043587223,-0.004628648,-0.06179722,0.061889168,-0.03639592,0.12743023,0.0070384257,0.02681734,0.23329082,-0.05473279,-0.036396965,-0.046432324,-0.09356033,-0.018294422,-0.033679515,-0.10042163,-0.0947825,-0.039012533,0.022567982,-0.11343822,-0.04700272,-0.09646915,0.05736083,-0.10028602,-0.11846399,-0.0023004527,0.035940237,-0.029835707,-0.03709542,-0.061389852,0.06278236,0.031578075,0.10449172,0.009420579,-0.03651696,0.032878228,0.0490908,0.014997268,0.14657296,-0.012964937,0.01845627,-0.04015424,-0.031248178,0.07311497,-0.0024207337,-0.118654035,-0.008114888,-0.07695665,0.0071566934,0.061133057,0.036432326,0.08758383,-0.1135309,0.009036611,0.08512553,0.09939481,-0.014167502,0.06687266,0.014868524,0.030375151,0.033975456,-0.102199815,-0.08154129,-0.08068879,-0.10212023,0.039883573,-0.055590827,0.05893525,-0.05494343,0.06853186,-0.1282154,0.04694068,0.045488447,-0.0921695,0.0014649939,-0.082029544,0.06701538,-0.06699899,0.12258921,0.15308614,0.30478525,-0.1036604,-0.0341681,0.1514397,0.0014904166,-0.06895672,0.083575636,0.13406211,0.12198924,-0.057122517,0.061152298,0.11611849,-0.034987018,-0.014966978,-0.03638028,0.022045046,0.039249472,0.0209552,-0.11568087,-0.046783473,0.12313299,0.111073665,-0.04821481,-0.19583143,-0.07046223,0.076858655,-0.12797876,-0.15734823,-0.045074496,0.19063616,0.05921243,-0.05952446,0.020911507,-0.11176466,-0.05831967,0.079704925,0.055864897,-0.020066552,-0.08215081,0.06693104,0.047003955,0.051724467,-0.04863106,0.05017208,0.1864147,0.055280592,-0.14751938,0.037713587,-0.044070065,0.08477504,0.05204582,0.061118327,0.062572725,-0.022551425,0.20883162,0.11061448,-0.020769397,0.13768685,-0.09595383,-0.019950716,0.037968814,-0.10866193,-0.09588007,0.039228823,0.04156794,0.013391907,0.1712022,0.12646167,0.03242579,0.06805773,-0.104354694,-0.00039989638,0.10511417,-0.06157005,-0.17427684,-0.057523396,-0.055128403,0.15157965,0.008272241,-0.02549857,-0.03164368,-0.02943539,0.11105115,-0.091299176,0.11873831,0.17238863,-0.09602985,0.011130795,-0.09112769,0.18929133,-0.011568094,0.013451623,-0.09017878,0.012939422,-0.06968409,0.01617943,-0.047639217,0.13254482,-0.013829412,0.013597934,0.19075012,-0.027379818,0.0564919,-0.07319684,0.061773833,0.023732716,-0.04138188,-0.05109909,0.017977426,0.06502201,-0.07692282,0.12063362,0.22318405,0.058777966,0.044299733,0.006286311,0.08798352,0.01773662,0.026708113,0.0059357774,-0.029959628,0.0684835,-0.0017823629,-0.03945278,-0.016146177,0.03671391,-0.17215459,-0.040549815,0.08924271,-0.12529376,-0.032833703,-0.027737746,0.050994683,0.090841606,-0.04773818,-0.003675632,-0.060963456,0.060636893,-0.08717418,-0.0374439,0.01450448,0.0056668827,0.010593348,0.06569609,0.0066189487,-0.014156445,-0.026722869,-0.044235572,-0.029415444,0.1132276,0.06870368,0.09663329,-0.10280569,0.010859139,-0.05069256,-0.0411498,0.066964984,0.05804416,-0.036001857,-0.080876485,-0.12821004,0.1345474,-0.026642127,0.13907038,-0.06395935,0.0025041255,-0.013388876,0.10548154,0.10397175,0.07152685,0.026235854,0.014409435,-0.0881419,-0.028632725,0.14047596,-0.053474553,0.13927683,-0.12372042,-0.08520645,-0.098637715,-0.0069302865,0.024666907,0.02787615,0.0005358147,-0.06813284,0.020245481,0.081199475,-0.004602619,0.0142866,-0.019170288,-0.029070055,0.16467611,0.046041165,-0.0013521888,-0.08744495,-0.09191243,0.112760074,0.012505369,0.23315115,-0.026132444,0.046059687,-0.15383643,0.07106027,0.057519365,0.15671024,0.094805636,-0.038181733,-0.07415062,-0.06159074,0.029811502,-0.026360383,-0.0044574975,-0.11344529,-0.037003078,0.045100193,0.025681095,0.03900451,0.09124311,-0.21267591,0.021751175,0.109850004,-0.01815004,-0.020988505,0.0539214,0.003665706,0.002645842,-0.09468481,-0.14462855,-0.112407975,-0.12476779,-0.06370084,-0.01815157,0.056062438,0.020829227,-0.06502622,0.06318313,-0.08178228,-0.10616124,0.042498272,0.047635138,0.009445747,0.025165841,-0.02877911,-0.15265252,-0.12608245,0.077586204,-0.041174732,-0.15658166,0.08546165,-0.060448416,0.10830385,0.10617291,0.023524817,0.0760602,-0.06548884,-0.13230678,-0.0020879488,-0.06366236,-0.09063188,0.033625726,0.18414228,0.0150481,0.16142306,-0.07962758,0.033702172,-0.120162986,0.1041834,0.08284434,0.030878173,-0.030450594,-0.07420765,0.21299423,0.069945075,0.07609555,-0.05086961,0.095971435,-0.12620871,0.101809606,0.09472023,-0.09697448,0.07268633,0.099426344,0.059772056,0.011305568,0.05406423,0.06460836,-0.05955654,-0.05871138,0.01414582,0.1144764,-0.020395717,0.07255954,0.06149699,0.16156285,0.059990525,0.17920385,-0.0033814914,0.13951206,0.036500797,0.12109999,0.029411964,-0.06727227,-0.0441987,0.014934702,-0.04481084,0.041392665,0.038929693,-0.1092452,-0.038000286,-0.09758312,0.06806643,-0.20261179,-0.009719246,0.12389428,0.10130579,-0.02098919,0.052935943,0.0017747681,-0.08386007,-0.070920564,0.16981246,-0.038068242,0.11086134,-0.117287196,-0.076380655,0.10696275,-0.06381748,-0.007189132,0.030488187,0.057659514,-0.091621034,-0.038590137,-0.12127266,0.08385068,-0.09040735,0.051783327,-0.064506724,-0.04069161,0.06412646,0.07351372,-0.14726266,0.0068153962,-0.018256687,0.029771132,0.06198406,0.06213381,0.09380685,0.04169636,0.03607903,0.0071932967,-0.07060882,-0.059996083,0.020052738,0.08538617,-0.20697321,0.008954965,-0.09655509,0.11739222,-0.051861756,-0.028561218,-0.020263437,-0.06241831,-0.09361546,0.010570779,-0.045530677,-0.011955598,-0.033540115,-0.0026058753,-0.073051415,0.021892225,0.08437365,-0.02540285,-0.10072192,0.0073277005,0.008998628,-0.005487536,-0.020649778,0.075169384,0.19646932,0.07886164,-0.118017174,0.08915205,-0.14000055,-0.14478514,-0.044035655,0.01604759,0.1838094,-0.00051046675,0.1167957,-0.12791678,0.017144253,-0.055089276,0.16370323,-0.057646345,0.01917168,-0.07941274,-0.09371994,-0.028287102,-0.16977298,0.00964539,-0.041262913,-0.0302133,0.019433498,0.011972,0.06437589,-0.030277934,-0.04949282,-0.17451195,0.09768681,-0.061338868,-0.09462027,0.1786368,-0.08385559,-0.15760237,-0.0753761,0.04150515,-0.11325421,0.016058927,-0.059199132,0.025350595,-0.012269318,-0.07350034,-0.076496676,-0.024442697,-0.124428265,-0.038472883,0.021439342,0.08111064,0.04672774,0.016642848,0.0332281,-0.07914303,0.016513938,-0.0783677,-0.08124272,-0.2397235,0.025978155,0.064095035,0.022119371,0.056134015,0.06650722,0.09717408,0.12238906,-0.113288425,0.0440028,0.03503403,-0.14258987,0.0347573,0.15774116,0.10763271,-0.06981672,0.10089294,0.052722372,-0.12534875,0.016108785,0.10816064,-0.032286856,0.03804828,0.036433022,-0.054565318,0.08191146,-0.03213497,0.11171204,-0.08260018,0.02486334,-0.020839013,-0.09898148,-0.0868825,0.088022575,0.04520568,-0.1368084,0.111610346,0.17695801,0.07047062,0.08231805,0.08344144,0.1504094,0.014603938,-0.035461005,0.12376682,0.11396954,0.060801517,0.1133152,0.030101169,0.03355201,-0.060796585,-0.029227372,-0.103841014,-0.03680728,-0.07825174,-0.05427805,0.07970373,0.0022857105,0.018051842,-0.057456676,0.028034654,-0.09220463,0.07561149,-0.061283324,0.07760942,0.07181974,-0.06676045,0.16150525,0.04345212,0.14619884,0.03755578,-0.032741252,-0.047457207,0.0054477314,-0.090355776,-0.06196936,-0.079896234,-0.075106926,-0.02476691,-0.056074254,-0.18354715,-0.029225063,-0.0128069,-0.0017578906,0.092799336,-0.07720111,-0.0056102453,-0.029264279,0.06296187,-0.032012388,0.07247841,0.06837354,0.031831402,0.023409337,0.089924596,-0.058312915,0.09986182,-0.024285296,-0.17165095,0.13416173,-0.08753406,-0.10109583,-0.114819504,-0.080227,-0.16758026,0.08413052,-0.1416784,0.11625876,-0.10489454,-0.01349389,0.05351839,0.11792449,-0.053239044,0.020553613,-0.023080857,-0.044183508,0.2423694,0.032156594,-0.2195026,0.010505837,-0.12571302,0.04015411,-0.023415219,0.16323407,-0.033457085,-0.08144652,-0.1307657,-0.04413775,0.022393499,0.105276905,-0.10802276,0.048539005,-0.14864074,-0.073778145,0.05469746,-0.027587106,0.053227607,-0.10580078,-0.033982,0.030183094,0.16586706,0.010057347,0.09859165,-0.018094724,-0.05668712,0.056093343,-0.05050842,-0.067394875,-0.01388877,-0.015206958,-0.07241199,-0.101856,-0.10860748,-0.109396055,-0.090294294,-0.087191135,-0.0574264,0.10296734,-0.056548957,0.12149809,-0.054267775,0.05894914,-0.10221067,-0.037460618,0.039573237,0.11622993,0.02913456,0.021660067,0.013921242,0.027151031,-0.10817748,-0.06139383,0.029072415,0.06636658,-0.056189593,-0.0005076517,0.004861592,-0.04931893,0.064471185,-0.049296048,0.05956334,0.08674772,-0.068564355,-0.06040979,-0.1277204,0.03206294,-0.15432306,0.08579329,0.04043971,-0.029744107,-0.040667098,-0.031903308,0.007158571,-0.021968966,0.20386817,0.060066264,0.114456244,-0.14941937,-0.076537475,-0.049723215,-0.022853123,-0.053459324,-0.018770445,0.037489858,0.0008679718,-0.03263114,0.09472694,-0.18442486,0.17144638,0.10532289,-0.14180201,-0.052950345,-0.025784783,0.10058807,0.12313786,0.08256139,-0.08442982,0.1927939,0.09585442,0.15505591,0.061937477,0.04016692,0.010206686,0.046870362,-0.07532489,-0.21535136,0.0781634,-0.030898144,0.131778,0.1292918,-0.057429038,0.07878881,-0.000407037,-0.023358654,-0.010873127,0.062520444,0.07650307,-0.043662418,0.04489422,0.008974085,-0.08181839,0.087770194,-0.18958011,0.0012864339,0.17097971,0.05220001,0.050810203,0.04588414,0.08679025,-0.11427661,0.07550134,-0.08415603,-0.08906944,-0.0067225844,-0.10488452,-0.013586245,-0.05964118,-0.05338116,-0.077866025,0.074971855,0.043793585,0.009115966,-0.09344546,0.14563394,0.109887995,0.03521653,0.13022214,0.13232598,0.042886417,-0.08976798,0.16885453,0.055730373,0.018256562,-0.079712726,0.022747846,0.07037268,0.15245178,0.08611591,-0.123066686,-0.070097975,0.014466863,-0.069303885,-0.03472228,-0.042539563,0.066411085,0.013706698,-0.04034649,0.07291454,-0.07078555,0.08000424,0.04517423,0.011101946,0.009737979,-0.12349395,0.006333816,-0.0680461,-0.02738604,-0.029419798,0.05471833,0.1633434,-0.015099779,0.048748687,0.021142019,-0.14005852,-0.16582023,0.07702063,-0.08224945,0.06563275,0.0045317328,-0.024617977,0.03554114,-0.11001949,0.040360942,0.017367885,-0.0673485,0.04156963,0.013679184,0.1703409,0.06644552,-0.025756309,-0.05688357,-0.20210187,-0.14266062,-0.08294449,0.072961316,-0.12683854,0.052491847,0.049145304,0.10077245,-0.18246678,-0.021092933,-0.068566985,-0.06778492,0.07414382,-0.19183917,0.083121486,-0.09609581,0.012087967,0.013698184,-0.045718938,0.056331534,-0.09688335,0.12448047,0.056251954,-0.030072987,-0.03952391,-0.112299554,-0.04138598,0.042417508,-0.07692522,-0.09118172,-0.0062345415,0.14830199,-0.055660244,-0.10829593,-0.021556376,-0.02010925,0.06426985,-0.045651764,-0.039145075,0.16316934,-0.075272806,-0.0009131313,0.057871427,-0.009201827,0.08592104,0.059399188,0.09805118,0.04066203,-0.062948436,0.0413941,-0.14764611,-0.11275034,0.10762091,0.03249055,-0.1277161,0.07646205,0.100093424,0.020830875,-0.05619148,-0.01923945,-0.16217749,-0.07351948,-0.052814197,0.0085055,-0.14971662,-0.0085791955,0.053242415,-0.13695501,0.08609763,0.03407825,0.13934569,0.033806026,-0.033239476,0.062811255,0.043479018,0.021714017,-0.12492329,0.11214403,0.020815505,-0.06825147,0.07989822,-0.041777685,0.06665501,-0.010578869,0.13318619,-0.021195902,-0.16462295,-0.15912841,0.046797745,0.07736994,0.10916764,0.09752052,-0.026154287,-0.028988043,-0.13604894,0.06380717,0.057294115,0.06328551,0.104393594,0.016527941,0.042074233,0.01320371,-0.0012762204,0.006633015,-0.07232713,0.17229713,0.03898055,0.006887831,0.011092053,0.074967586,-0.03986758,-0.051414102,-0.062391166,0.08517863,-0.017583704,0.019383544,-0.06631304,0.016949037,-0.055666827,0.02522641,-0.07943326,-0.038598727,0.03724435,0.21431217,0.020825248,0.0378839,0.10460901,-0.05655982,0.026933525,-0.068748854,0.071809195,0.039873444,0.037660208,-0.034904953,0.04952286,-0.075657606,-0.086151674,-0.1268666,0.0107862875,0.006664515,-0.08532804,0.061572816,0.057595048,-0.120381065,-0.046486307,-0.075858146,-0.102656424,0.14812906,0.06699426,0.07759344,0.008986289,-0.036874574,-0.14741935,-0.06876279,-0.19830471,0.07885602,-0.13767922,-0.12478091,-0.06457018,0.21554025,-0.06498339,-0.037143797,-0.023585964,-0.10737937,-0.037108243,-0.0088390345,0.067757055,-0.006480619,-0.06585002,-0.056104846,-0.03856728,-0.0897371,-0.04408182,0.056869175,-0.13435726,0.12066173,-0.0047604176,0.047600843,-0.057360794,0.07126612,-0.16403957,0.08348032,-0.024971407,0.06294417,0.010629515,-0.178455,0.046431452,-0.038300037,0.041541267,0.16144973,-0.10155169,-0.07591911,-0.0953698,0.0752271,-0.04773501,0.035845283,-0.11934019,0.0056456174,-0.08120474,-0.01732812,0.003579477,-0.0011794394,-0.12139634,-0.03767212,0.10601703,0.020179434,-0.118640825,0.1245932,0.123950526,-0.013260793,0.022608006,-0.039839584,0.045344964,0.08447145,0.014437831,0.008273988,0.07395244,0.07969542,0.02530772,-0.094424866,-0.072553776,-0.012912461,0.011527425,-0.18926823,-0.109704755,0.031129673,-0.061370958,0.012468711,-0.13799733,-0.02936431,-0.14982106,-0.13177495,0.04509867,0.13912588,-0.024756173,0.03767166,-0.020351058,-0.15036826,0.19420734,-0.019595321,-0.18672575,-0.04892984,-0.107555315,-0.14192785,0.020677948,0.037890773,0.010539325,0.0008412688,0.1199927,-0.027780816,-0.076331645,0.07096732,-0.054178108,0.11158393,0.087925926,0.121852145,0.025916725,-0.09591437,-0.054921377,0.0017178447,-0.00023883153,-0.005750883,0.008959133,0.013236529,-0.038961742,0.008596979,-0.07189432,-0.031582344,-0.0928796,0.059154984,0.14267698,-0.03537378,0.14355582,-0.017625542,0.021873834,-0.063884325,0.14614685,0.017449906,-0.019443488,-0.030122422,-0.055343885,0.17489028,-0.022849316,-0.071741685,-0.012361634,-0.093724854,-0.045246422,-0.07189924,0.02866553,0.04693669,-0.054355245,-0.021494271,0.066050485,0.009014922,0.03979821,0.11766151,-0.04605232,-0.04745397,-0.10417255,0.2281809,0.08829361,0.07090534,0.024736984,0.08412279,-0.028132407,0.009226186,-0.069697425,-0.14415109,0.11309632,0.08510048,0.08143478,-0.07707627,-0.044826273,0.06299625,-0.17026882,0.1529342,0.1101964,-0.041962598,0.05192832,-0.056005538,0.101739064,0.051503945,-0.11036978,-0.0074635623,0.025222044,0.05359888,-0.13793702,-0.03761487,-0.051078234,0.058425155,-0.047336586,0.14125907,-0.1102194,-0.04206753,0.016317323,-0.11341362,-0.086552344,-0.16574116,0.0107988855,0.12674113,-0.17912935,-0.11663769,0.01750302,0.056903254,0.02485439,0.06541234,-0.05548173,0.07438956,0.2246803,0.087759994,0.076937705,0.09997746,-0.06595713,0.02017441,0.10181271,-0.010431497,0.016900092,0.13456017,0.015533701,0.013888217,0.06007056,0.011623569,0.062581085,-0.1294241,-0.029346721,-0.10512477,-0.075098604,-0.13860483,-0.086248904,0.12446515,0.03206934,-0.024735613,-0.0727792,0.033840142,-0.074035086,0.041820098,0.076329276,0.023576936,-0.03041772,-0.111532085,0.0769105,0.03836234,-0.013949718,-0.004160137,-0.11314139,0.12622851,-0.09857808,-0.095877364,0.048953295,0.1566784,-0.047307894,0.0519164,0.035694864,0.0020255912,0.15582582,-0.053628135,-0.093282506,0.07451615,-0.025096852,-0.042939708,0.123546734,0.18034717,-0.057431873,0.09361112,-0.05471611,-0.06900336,-0.09540955,0.016375296,-0.05152806,-0.09618864,-0.026241904,0.11708445,-0.14415845,-0.19065695,-0.009887003,0.001343134,-0.022023242,-0.05522365,0.046173856,0.054226104,-0.0032352114,-0.10935606,0.028101327,0.1188233,-0.06206618,-0.06497178,0.18340197,0.06642521,-0.075966634,0.04924489,0.15768488,0.024629215,0.05974157,-0.041795768,-0.030072149,0.14490545,-0.014003825,0.019189937,0.0784729,-0.021804897,0.06283741,-0.01758958,-0.12132455,-0.048474826,0.14483634,0.042214204,0.05162466,0.083742544,0.06119357,-0.015433843,-0.15034719,-0.12198586,-0.062160138,-0.00774797,0.02548318,0.033281367,-0.050156135,-0.12799905,0.015649408,0.15846695,-0.14247814,-0.025709841,-0.06304012,0.024059886,-0.074859336,-0.09796311,-0.112291776,-0.020158652,0.20059611,-0.077574655,-0.020280568,0.014274202,-0.014175968,-0.016732775,0.0033772334,0.020220999,-0.011448178,0.10369597,-0.054745868,-0.004723322,-0.17021485,-0.22062247,0.070016764,0.13373362,-0.033277724,-0.07946569,0.15275612,-0.09825424,0.04716487,0.089582816,-0.021508055,-0.0118812,0.14796853,-0.11742764,-0.16368143,0.03512818,-0.009690127,-0.089789584,-0.12825704,-0.010063154,-0.14586012,0.0018862657,-0.033700146,0.0009534909,0.13406749,-0.00056861737,-0.04852505,0.09305089,-0.08402887,-0.008330911,-0.03781969,0.008861206,-0.04377738,-0.13069502,-0.11231843,0.05581052,-0.11434275,-0.07350409,-0.0896902,0.018284949,0.0028953645,0.11839157,0.01613901,-0.073336355,0.008957452,0.121386334,-0.0041821506,0.040925723,-0.07011272,-0.054348428,0.025948353,-0.07323486,0.08695197,-0.023040898,-0.033215832,0.17733335,0.19474666,0.07994347,-0.004407685,0.1092145,-0.060894858,-0.021574477,-0.09671934,-0.13054629,0.041011658,-0.15447395,-0.016232684,-0.018902974,0.05209672,0.080272555,-0.053435426,0.05845086,0.050304256,0.11805369,0.0050475146,-0.05797391,0.019224605,0.14887868,0.073703334,0.00031191975,-0.0005079952,-0.028233653,0.052591465,-0.11665791,0.06508696,0.027834853,-0.048392043,0.103965856,0.051199783,-0.01828277,0.07938728,0.051650494,-0.012670112,0.07926477,-0.04735991,0.0022094324,-0.018782508,0.12919141,0.020215923,0.00940586,0.020354286,-0.09221739,0.010085161,0.0009544873,-0.034179244,0.0375521,-0.1012052,-0.08627842,-0.114844926,-0.056785304,-0.016076766,0.006233614,0.13590506,0.11445204,-0.052904822,-0.096480906,-0.1091905,0.01855339,0.12855884,-0.15777403,-0.02208319,0.04334683,0.13819496,0.003545833,0.113941155,0.03323249,-0.020897819,0.14082392,-0.14632271,-0.106545955,0.030988922,0.13607875,0.05433537,-0.019610202,0.047528606,-0.113510996,-0.070609264,-0.026782501,-0.11516562,-0.022629157,0.12916951,-0.13320892,-0.026471032,-0.10149181,0.022866983,0.12624823,0.16010861,0.03579203,0.031066686,-0.037453443,0.024749586,0.046578165,-0.1330339,0.043629304,0.038898595,0.06639643,0.007911112,-0.029016092,0.11306856,0.16240753,0.1474949,-0.23593032,0.009035319,0.17570046,-0.029470189,-0.08155962,0.01805823,0.2516763,0.04996676,0.020965252,0.007696727,-0.02201531,0.046930462,-0.041517135,0.033393588,-0.065583006,0.0034481909,0.052302215,-0.08656508,-0.08999368,0.13750751,0.048759338,0.08310067,0.096858546,-0.0073882025,0.057439096,-0.07630869,0.08029044,-0.1016255,0.12661749,-0.049975898,0.021802407,-0.03323566,0.04114976,0.11828368,-0.07859546,-0.1562778,-0.062451966,0.09359146,-0.038781922,-0.058728024,-0.074860014,0.17283656,0.07181603,0.07076279,0.07018999,0.013415674,-0.052422326,-0.02629419,0.009161068,-0.052984923,-0.07926087,0.03882917,-0.051817298,0.034942184,0.06926637,0.026068337,0.048197117,-0.02484296,-0.15799758,0.00021114005,-0.022471713,-0.003519604,-0.100964315,-0.00063113455,-0.11037127,-0.036110993,0.001269567,-0.058379207,-0.098267056,-0.02955784,-0.020144865,-0.00476894,-0.09915214,-0.052406255,0.0884957,-0.008913179,0.17015389,-0.067543775,0.13140407,-0.21505569,0.0003231875,-0.1435711,0.04594075,0.07128843,-0.13844377,0.05267777,0.089728095,0.00042783492,-0.06371753,-0.0827932,0.13196231,-0.026658453,-0.071932696,0.08168202,0.06494714,0.07399737,0.033302486,0.04991761,0.12703297,0.014531919,0.15073735,0.16873248,-0.08006787,0.058366943,-0.04640372,0.014477582,0.0015190116,-0.06410239,-0.07171116,0.09654365,-0.14953835,-5.0127608e-05,-0.09166146,0.060025968,0.017499851,-0.06304898,0.050737526,0.020863686,0.05352224,0.0623391,0.08854257,0.10850432,-0.063769735,-0.14007074,-0.03346736,0.1637361,-0.0013275264,-0.17672314,0.13955924,0.06902547,-0.07483924,0.0043122796,0.015265971,-0.01727908,0.0069732484,-0.1297416,-0.022456357,-0.09433167,-0.06537954,-0.07340852,-0.053637814,0.013859337,0.023813497,-0.07438415,-0.11987857,0.028121384,-0.08583123,0.15292095,0.13107365,-0.02383618,0.019653903,-0.05215768,