1.5954203e-05,-1.4612038e-05,-2.117233e-05,-1.7487388e-05,-2.138926e-05,-3.102958e-05,2.7974616e-05,-5.8872974e-06,-1.6083859e-05,-2.135358e-05,2.9049863e-05,-2.8035085e-05,-2.889739e-05,1.6853195e-05,-2.2434546e-05,-3.8823387e-06,2.600362e-05,-3.1430904e-05,-2.533443e-05,-2.5081205e-05,-2.3981038e-05,-2.9157623e-05,-1.0416352e-06,1.8182112e-05,-3.259157e-05,7.133676e-06,2.3137014e-05,-4.0656065e-05,2.891828e-05,1.45937465e-05,-2.5919564e-05,-2.1416796e-05,2.5131318e-05,2.4423474e-05,1.9691623e-05,-9.032438e-06,5.9663266e-06,2.917363e-05,-1.5871658e-05,2.5914269e-05,-2.0026635e-05,-2.8657474e-05,-1.4052925e-05,-1.6579012e-05,-4.2114356e-05,-3.9448576e-05,1.9260833e-05,-4.2766504e-05,-2.3965302e-05,-2.319714e-05,-2.3593851e-05,1.4301127e-05,-3.6063852e-07,-1.8556644e-05,-3.3880733e-05,-4.139876e-05,-2.2819431e-05,-2.790489e-05,-2.6420721e-05,-2.5113533e-05,-2.6544465e-05,-2.6561931e-05,1.9891077e-05,2.47055e-05,-6.5922027e-06,-2.379856e-05,-1.5907965e-05,-1.5839756e-05,3.212147e-05,-1.1596197e-05,1.7924658e-05,-1.9073163e-05,-2.1016422e-05,2.3537688e-05,-8.1166644e-07,-1.773146e-05,3.0017563e-05,-3.376976e-05,2.6278372e-05,2.0652524e-05,-4.7495636e-05,-2.005928e-05,-1.2492419e-05,5.4874695e-06,-1.9624824e-05,-2.6109916e-05,-3.741192e-05,-4.0777253e-05,-1.0437322e-05,-1.6754466e-05,1.9988454e-05,2.6117112e-05,1.4154869e-05,-1.3582648e-05,3.84913e-06,1.2133274e-05,-2.1194386e-05,-3.1633117e-05,2.5953244e-05,2.8640346e-05,-4.050199e-05,1.2203742e-05,-2.4031473e-05,-2.0426467e-05,2.7577662e-05,-1.221985e-05,3.138427e-05,-2.9480769e-05,-3.0416693e-05,-3.3193694e-05,-3.5942212e-05,-1.435673e-05,-9.016736e-06,-3.444835e-05,5.979564e-06,9.62056e-06,-2.6209302e-06,2.7514234e-05,-3.7887432e-05,1.1666475e-05,-7.255499e-06,-3.3429496e-05,2.7432969e-05,-1.7839551e-05,1.9713098e-05,-3.9465385e-06,-4.198454e-06,3.47274e-05,1.215643e-05,-1.442383e-05,-1.3070252e-05,7.023312e-06,1.5231331e-05,-4.5135965e-07,1.0547286e-06,-1.2567025e-05,3.271978e-05,2.3550256e-05,-2.481731e-05,-8.840977e-06,-3.6291174e-05,2.8384762e-05,-2.8000488e-05,7.7993474e-07,-1.8674544e-05,-1.8983199e-05,-5.985491e-06,-2.2141634e-05,5.3724925e-06,-2.838507e-05,-3.5964284e-05,-3.7374917e-05,-1.5779211e-05,-4.9244145e-06,-4.67538e-06,-3.071823e-05,-3.11056e-05,2.463218e-05,-4.5481807e-05,2.9779683e-05,2.3455697e-05,1.2597555e-05,-3.072282e-05,-2.9006662e-05,5.9738345e-06,-9.854081e-06,1.0657503e-06,-4.2418622e-05,-3.519219e-05,-2.1696233e-05,2.566558e-05,-2.3726303e-05,3.218315e-05,-2.2040182e-05,-3.0285193e-05,-2.8144246e-05,-2.7512464e-05,-3.466838e-05,2.379824e-05,2.8478584e-05,9.28587e-06,1.7103104e-05,-2.1212685e-05,-3.427968e-05,-1.6070517e-05,-3.1029347e-05,-2.2982042e-05,5.9445806e-06,3.089532e-05,-1.660965e-05,2.6041824e-05,-2.0292811e-05,-8.818062e-06,3.2310818e-05,2.3426825e-05,-2.2571498e-05,2.0329328e-05,2.8297582e-05,-5.358053e-07,-2.5126903e-05,-1.8472674e-05,-1.5574924e-05,-1.4121355e-05,-6.4001997e-06,-1.8832921e-05,-2.4591203e-05,2.3226754e-05,1.1686213e-05,2.3774479e-05,-1.1684681e-05,-4.232773e-05,-2.506214e-05,-2.9818126e-05,-9.232168e-06,-1.860522e-05,-4.620163e-05,-1.8053865e-05,-1.3713168e-05,-2.8575536e-05,-5.101852e-06,-2.06531e-05,-3.0772575e-05,-3.164369e-05,2.2071996e-05,-3.5423272e-05,-2.2990436e-05,-2.9914554e-05,1.4691527e-05,-2.4012545e-05,-4.610706e-05,7.907333e-06,-2.037351e-05,-2.444346e-05,2.9881652e-05,2.7023552e-05,-4.1940755e-05,-9.165855e-06,1.8291055e-05,-3.27263e-05,-1.8369497e-05,-2.8118679e-05,-2.402692e-05,2.6584392e-05,-2.2107293e-05,-3.6059788e-05,2.0939124e-05,-1.1942361e-05,-1.15689745e-05,2.8357752e-05,3.0706007e-05,-1.8181861e-05,-1.04616975e-05,-4.599734e-06,-3.6393e-05,-1.3615752e-05,1.7825001e-06,-1.7476901e-05,3.2576372e-05,-2.8668761e-05,-1.8292922e-05,-7.5720336e-06,-7.2488233e-06,-3.988973e-05,-4.23554e-06,-2.2636757e-05,-2.1913216e-05,2.574861e-05,-3.9039096e-05,-1.8797393e-05,-1.0682578e-05,-2.4450825e-05,-2.0795742e-05,-2.0996453e-05,-1.1259091e-05,-4.1666728e-05,-3.5452642e-05,1.5392106e-05,1.2328684e-05,2.3994477e-05,3.0310704e-05,-2.8270668e-05,-2.483612e-05,3.0679785e-05,6.860855e-06,-2.3187222e-05,1.22024585e-05,-2.747592e-05,2.7633338e-05,-3.9470997e-05,-3.164204e-05,-4.6505436e-05,-7.1703704e-07,-2.9265537e-05,-4.110965e-05,-2.4249257e-05,-2.7236867e-05,2.706823e-05,1.36917215e-05,-2.8634944e-05,-2.0713507e-05,-2.4860337e-05,-1.7049337e-05,1.8704939e-05,-2.0928099e-05,3.3851675e-06,-3.3913002e-05,-1.4669165e-05,-1.2407905e-05,-3.0722645e-06,-2.114848e-05,-2.6064195e-05,2.5905272e-05,-8.580884e-06,-2.448846e-05,-1.6362508e-05,3.0688763e-05,2.25921e-05,-2.371484e-05,-2.043312e-05,1.6838767e-05,-2.7755425e-05,2.8072449e-05,2.2123211e-05,-1.2003021e-05,3.4764606e-05,-4.002975e-05,-8.728217e-06,-3.736045e-05,-1.716749e-05,-9.480235e-06,-1.5717555e-05,2.521552e-05,2.4258292e-05,2.0846535e-05,-6.9218536e-06,-3.7662245e-05,-4.0113788e-05,2.0842737e-05,-3.144035e-05,1.6855194e-05,1.0766068e-05,-1.0928222e-05,-3.4233806e-05,-2.1444295e-05,-1.30214885e-05,2.0325888e-05,-3.462235e-05,-5.415617e-06,1.7448954e-05,-2.3267057e-05,-1.4345145e-05,-1.924468e-05,2.8543787e-05,-2.0290092e-05,2.5887664e-05,-1.851065e-05,-2.0806818e-05,1.7982009e-05,2.0860745e-05,-3.4775985e-05,-2.7053951e-05,-8.956874e-06,-1.9526979e-05,-2.9037079e-05,5.104492e-06,-3.5570924e-05,-4.4436485e-05,2.0530793e-05,-4.4486882e-05,-2.3771283e-05,6.190007e-06,-1.8247852e-05,-1.7122065e-05,-2.9475334e-05,-2.0381847e-05,-3.927998e-05,-1.1763953e-05,1.9638397e-05,-7.199103e-06,2.479971e-05,2.450427e-05,1.3851174e-05,2.1485497e-05,1.2034866e-05,2.6981686e-05,2.412696e-05,-3.1184045e-05,4.572007e-06,-6.595886e-06,1.8064493e-05,-1.2222467e-05,-2.304206e-06,2.0820575e-05,-3.1964388e-05,2.2005857e-05,-1.5012681e-05,-3.6550123e-06,4.7772583e-06,-2.0557847e-05,-2.1778847e-05,-3.2547723e-05,-1.1501555e-05,-1.03848715e-05,-4.4834447e-05,2.3029545e-05,-3.143233e-05,1.593132e-05,-3.7391786e-05,-1.917996e-05,-1.7623033e-05,-1.16286124e-07,-2.777276e-05,-3.9917372e-06,1.9625193e-05,-3.586173e-05,-1.3863134e-05,-4.467276e-05,-2.8698003e-05,-1.2535014e-05,2.7338701e-05,2.6618905e-05,-3.6556747e-05,-3.1038253e-05,1.8717128e-05,-1.924538e-05,1.1681045e-05,-1.7642225e-05,-1.4887459e-05,2.8271977e-05,-8.095758e-07,-3.1882908e-05,-4.2262323e-05,-5.1457817e-05,-2.4739586e-05,-2.1116522e-05,-4.8104134e-06,-2.7207958e-05,1.1147999e-05,-2.9461296e-06,2.2694143e-05,-4.6402442e-06,-4.147939e-05,-1.587939e-05,5.8074365e-06,1.0953674e-05,1.5659161e-05,-7.6193605e-06,5.3616955e-06,-3.0131041e-05,1.5363128e-05,-3.8138005e-05,2.0192652e-05,3.210639e-05,-5.2336686e-06,1.9268276e-05,-4.335283e-05,-1.8081348e-05,1.936508e-05,-1.21792145e-05,-1.3982723e-05,-2.166226e-05,-4.2791766e-05,3.0253972e-05,-4.2456766e-05,1.5720514e-05,-2.8148674e-05,-2.2977723e-05,-3.5669873e-05,-3.7588547e-05,-3.2358603e-05,2.2621398e-05,-3.403101e-05,-1.4150786e-05,-6.354101e-06,1.4882993e-05,-1.6273818e-05,1.095748e-05,-2.5007337e-05,-1.0969526e-05,-3.888745e-05,-2.8294537e-05,2.3628061e-05,-4.5737626e-05,-2.4475568e-05,1.4043827e-05,-1.0442396e-05,4.109779e-06,2.3949471e-05,-1.4050007e-05,-4.5231376e-05,3.0205576e-06,2.9982843e-05,-1.9111505e-05,-1.6921374e-05,-1.5337568e-05,5.5980872e-06,-1.8133325e-05,-4.3906213e-05,-2.0639693e-05,-1.3463653e-05,1.3954979e-06,2.0198786e-05,2.599103e-05,2.8837365e-05,1.4249967e-05,3.0243455e-06,-3.3011565e-05,1.907143e-05,1.9015966e-05,-3.0489051e-05,-2.8728725e-06,-2.4771341e-05,-1.7110451e-05,1.8582668e-05,-1.8290959e-05,1.0747317e-06,-2.6279848e-05,2.087525e-05,-3.074431e-05,-3.0362307e-05,1.3355708e-05,-2.523857e-05,2.0636935e-05,2.3637058e-05,-1.7931854e-05,-2.6716825e-05,-1.7000602e-05,2.7060132e-05,-2.6360212e-05,-2.8312852e-05,-1.2514002e-05,-1.97727e-05,-2.4994575e-05,9.505794e-06,4.4499e-06,-2.7515323e-05,-1.5827804e-05,1.8553965e-05,-3.1836415e-05,-2.7651333e-05,2.52752e-05,1.9443735e-06,1.9163741e-05,-2.6070284e-05,-1.7260025e-05,-2.8653118e-05,2.2804843e-05,-2.3612602e-05,-4.7341937e-06,-4.402174e-05,2.1825177e-05,-2.866334e-05,-1.35500395e-05,-1.8991459e-05,-2.6954956e-05,-4.3841396e-06,-1.6846063e-05,-2.2133327e-05,1.5480111e-05,-1.8965628e-05,-2.011214e-05,2.4520834e-05,2.4426416e-05,-1.6916027e-05,1.2110534e-05,8.317402e-06,-2.144332e-05,-5.4460425e-06,-3.6349185e-05,2.3521648e-05,-3.065794e-05,-1.70264e-05,-2.7149325e-05,-1.1883454e-05,-1.4530162e-06,-1.6129992e-05,4.3420492e-05,2.4008905e-05,-1.9140323e-05,2.3414848e-05,-3.5176767e-05,-2.5348216e-05,1.5737707e-05,-1.9956102e-05,1.7166625e-06,-3.3109995e-05,-1.4383288e-05,-4.839561e-05,-2.8767324e-06,-6.0368848e-06,9.186667e-06,-3.6660356e-05,-3.783206e-05,6.83652e-06,-5.2039404e-06,9.259831e-06,1.2898384e-05,-3.6053447e-05,1.8544692e-05,2.3461203e-05,-1.8723887e-05,1.3009844e-05,-6.1384267e-06,2.310238e-05,-1.6655973e-05,2.1742617e-05,3.6770473e-06,-2.5935044e-05,-1.930841e-05,9.594801e-06,-1.2944263e-05,2.1376567e-05,1.6563565e-05,-2.9741546e-05,-1.2836012e-05,1.5591018e-05,-2.8715907e-05,-4.4883232e-05,1.0170224e-05,-3.8964088e-05,-1.0502186e-05,-2.6923763e-05,-3.6065096e-05,-1.8775941e-05,-2.5743708e-05,-4.2056567e-05,-1.2907645e-05,1.0247718e-05,-1.9324163e-05,1.564581e-05,-2.5298661e-05,-1.3801772e-05,-3.000367e-05,1.3321225e-05,-2.8796132e-05,1.6649423e-05,2.2146414e-05,-2.682586e-05,-3.1758627e-05,2.2847678e-05,2.831768e-05,-3.140185e-05,-1.0544434e-05,2.0170399e-05,-1.8835597e-05,-1.5918001e-06,-2.7011016e-05,9.808292e-06,2.2626133e-05,-4.0829567e-05,1.6529384e-05,-2.6968803e-05,-4.1986717e-05,-1.9931854e-06,2.3626551e-05,-2.4813386e-05,-2.9922317e-05,-3.0064084e-05,4.336485e-06,2.1988291e-05,3.935261e-06,-6.839534e-06,-1.2963828e-05,-2.2064123e-05,-1.946415e-05,1.9662812e-05,-3.6995236e-05,1.2379996e-05,-3.0464253e-05,-3.2643624e-05,2.0811567e-05,1.6387423e-05,-2.2755772e-05,6.0745674e-07,1.4410674e-05,-4.0561314e-05,-3.0849078e-05,-4.5098473e-05,2.5125866e-05,-9.524407e-06,-2.9153001e-05,2.36348e-05,-1.556568e-05,-4.1860232e-05,1.6835189e-05,-3.6767877e-05,1.5130113e-05,8.010929e-06,-9.184123e-06,1.7078485e-06,-1.8525814e-05,-2.502172e-05,-1.6050275e-05,-8.287289e-06,-2.952872e-05,-3.363377e-05,2.1817961e-05,-2.4444731e-05,-1.9758614e-05,1.716165e-06,1.6904936e-05,2.0754365e-05,-2.6884707e-05,-1.4364029e-05,7.974705e-06,-3.4112007e-05,1.2722084e-05,1.6669142e-05,2.2792943e-05,-2.0212814e-05,-1.7432489e-05,-2.0570278e-05,2.9654353e-05,-3.3926513e-05,-3.3131346e-06,5.990195e-06,-2.0013604e-05,-4.5675424e-05,-1.4472654e-05,-2.3802726e-05,-2.1407952e-05,2.3372457e-05,1.6204562e-05,-7.460553e-06,-3.9689898e-05,1.9521141e-05,2.8060922e-05,2.2603464e-05,2.6011332e-05,9.59646e-06,-2.5873296e-05,-3.794561e-05,2.855422e-05,1.5996846e-05,-7.1599663e-07,1.7314864e-05,1.2837429e-05,1.397198e-05,1.6578892e-07,1.2517844e-05,-4.0778767e-05,-1.3408414e-06,-3.9245555e-05,1.3598464e-05,-2.6725744e-05,-3.2849526e-05,2.244618e-05,-1.5017706e-05,-2.8077253e-05,-3.9842882e-05,2.6401949e-05,1.5484347e-05,1.0468509e-06,-2.7788235e-05,-3.2661603e-05,-2.2243523e-05,-3.8752714e-05,2.4076393e-05,2.283851e-05,2.2636477e-05,-3.0053752e-05,2.3050463e-05,-2.379517e-05,3.5007848e-05,-1.8365268e-05,-3.3365526e-05,4.8573343e-06,-2.1448754e-05,1.8450899e-05,-1.3570566e-05,-4.2895754e-06,-1.983252e-05,-2.0760097e-05,-2.2538126e-05,-2.2438495e-05,-2.9230374e-05,1.142885e-05,1.8661496e-05,-3.052189e-05,-6.8242935e-06,-2.5986894e-05,-2.9856505e-05,-2.5872017e-05,2.2895732e-05,-2.8647064e-05,-3.431634e-05,-3.944003e-05,-2.8464734e-05,-2.7341983e-05,-2.6343918e-05,2.421078e-05,1.4108706e-06,-1.284753e-05,8.66467e-06,-4.3167197e-06,1.9008174e-05,-3.22441e-05,1.1215841e-05,-2.0728156e-05,-1.2765765e-05,-3.7059737e-05,9.250379e-06,-2.8395621e-05,2.0561149e-05,-1.5765518e-05,1.2702787e-05,9.4239795e-06,-2.4602734e-05,-2.6421594e-05,-2.1138798e-05,-2.6044687e-05,-3.872658e-05,1.9570714e-05,-7.35929e-08,1.6410297e-05,-5.4796546e-05,-8.809275e-06,2.3036633e-05,2.6000343e-05,-1.7745562e-05,1.3782548e-05,-3.6807953e-05,-1.0481789e-05,-2.0602916e-05,1.542191e-05,6.7508704e-06,-1.873259e-05,8.070073e-06,-2.3251669e-06,-7.3261067e-06,2.6230964e-05,-2.5540763e-05,3.1460033e-05,-1.2576748e-05,-1.14002705e-05,-3.7736765e-05,-1.6554977e-05,-1.5425499e-06,3.2742425e-06,1.4923624e-05